{"layers": [4, 4, 4], "learning_rate": 0.01, "weights": {"0": [[3.292360157090515, -3.060165551163735, -3.070447637816065, -2.5289471123883773], [-1.7609774118131767, -3.055701488682753, -3.0165029976811395, 3.855819809283468], [-1.727410676231707, 5.254186967262082, -2.435359932318283, -1.6142586320964403], [-1.648815486294271, -2.460672331374766, 5.203413114140366, -1.7176079765237888]], "1": [[8.1723424354071, -2.437077124937134, -2.6154961407469064, -2.6636745998467024], [-3.8236560542680906, -7.21212689002439, 9.40863430861884, -4.537113162204792], [-4.179364216512132, -6.811253178842034, -4.536852301957065, 9.385672907021508], [-4.224754112497643, 8.056455703003763, -2.7444753120207492, -2.8955147953765206]]}, "weightsblank": {"0": [[0.0, 0.0, 0.0, 0.0], [0.0, 0.0, 0.0, 0.0], [0.0, 0.0, 0.0, 0.0], [0.0, 0.0, 0.0, 0.0]], "1": [[0.0, 0.0, 0.0, 0.0], [0.0, 0.0, 0.0, 0.0], [0.0, 0.0, 0.0, 0.0], [0.0, 0.0, 0.0, 0.0]]}, "biases": {"0": 0.3243062622764944, "1": -2.9560254784027418}, "biasesblank": {"0": 0.0, "1": 0.0}}