{"layers": [9, 6, 4], "learning_rate": 0.01, "weights": {"0": [[0.518373381042612, -1.7424312062109426, 0.6901409315071082, 0.42628281186215505, -0.21547528025615903, -0.5227533584607181], [-0.38293749293857837, 2.0523964418164353, -0.5513201266392251, 0.506145208800419, 0.7817471294688696, 0.8735777928217545], [1.565335739597391, -1.3750310605361429, 0.4631030315151828, 1.075717885434248, 0.1825772674005589, 0.8691525780411622], [-0.33189244339670293, -1.6298606083778255, -0.019083068186914628, 0.10798806979395445, -0.6663929679075409, 0.35644574502863674], [-0.542090637184517, 0.25711848550879834, 0.7454519431699334, -0.3029112766504716, -0.15623292271788627, 0.8655774771224777], [1.1621134682511343, -0.7217367941507415, -0.5093888782408125, 0.7544696540975769, -0.19963140972865384, -0.31390743479526156], [-1.7154910425649446, 1.9580786112738247, 0.4414355422058367, -0.9208619957462941, 0.33885626107298006, 0.8968003258115171], [0.234096016648533, -0.8424847979299771, 0.8770634832797681, 0.004366773841641022, 1.1248457777651124, 0.7075166750232866], [0.6446597020239752, 1.2367225987627921, 0.06332886636409406, 0.47581474255985357, 0.22974042536100991, -0.26161889305974095]], "1": [[-0.5938008666592158, 0.98378775407354, 0.04672619193822867, -1.3878182710662479], [-2.087263385750892, -2.264999464985021, 1.065417332762878, 1.8844179070697782], [-2.458444405632201, 0.21222285417776524, 0.06563583104727516, -0.2073375849821065], [-0.4737669530263825, 0.7054475244512203, -0.03825496330880344, -0.515111994216452], [-0.6642101653932291, 0.7145028795137882, -0.12830469220353094, -0.0824133097617361], [-0.5745297452854305, 0.8932243989106559, -0.9061883655982926, 0.007889989970845418]]}, "weightsblank": {"0": [[0.0, 0.0, 0.0, 0.0, 0.0, 0.0], [0.0, 0.0, 0.0, 0.0, 0.0, 0.0], [0.0, 0.0, 0.0, 0.0, 0.0, 0.0], [0.0, 0.0, 0.0, 0.0, 0.0, 0.0], [0.0, 0.0, 0.0, 0.0, 0.0, 0.0], [0.0, 0.0, 0.0, 0.0, 0.0, 0.0], [0.0, 0.0, 0.0, 0.0, 0.0, 0.0], [0.0, 0.0, 0.0, 0.0, 0.0, 0.0], [0.0, 0.0, 0.0, 0.0, 0.0, 0.0]], "1": [[0.0, 0.0, 0.0, 0.0], [0.0, 0.0, 0.0, 0.0], [0.0, 0.0, 0.0, 0.0], [0.0, 0.0, 0.0, 0.0], [0.0, 0.0, 0.0, 0.0], [0.0, 0.0, 0.0, 0.0]]}, "biases": {"0": 1.0855961096978117, "1": -1.103541527420805}, "biasesblank": {"0": 0.0, "1": 0.0}}