{"layers": [9, 6, 4], "learning_rate": 0.005, "weights": {"0": [[-2.1909558046081226, -2.0903772094289397, 1.8844659640934034, -2.2775868744707166, -1.6766817477750997, 1.4938304250453498], [-2.303908841207625, -2.195289715332818, 3.0321077913066343, -2.194253745605765, -1.684019948157051, 1.8384642188284737], [5.979921665597096, 5.018345808910495, -3.562096259617838, -1.943005663509089, 3.28779579253938, 2.504407530337489], [-2.0148933741765713, -2.5298764363307265, 1.83096988574434, -2.1011202941153737, -1.8999754679097747, 1.6050036422188039], [-2.4400109746053085, -2.661699526383624, 3.1949510590492163, -2.238647092390621, -1.8864451680630716, 1.9997771389974455], [6.177366601651786, -2.2833339686182494, -3.2934046179989034, -2.126750845449932, -2.3891117321227235, 2.1566531127674944], [3.258145467252786, 2.4927070125318966, -3.2138748958746683, 6.052013341501514, -2.3339686303355407, 1.0461888816185279], [-2.7111634741152986, 2.676782687105778, 2.836885056919038, -2.2112010849017256, 5.385380683505099, 2.5082672757942457], [-2.479224544094273, 2.992933523137352, -3.54719567915622, -2.296754963692408, 4.986983627176299, -6.642351146664747]], "1": [[-0.036473065626668924, 0.0879048175423275, -5.492001926907175, 1.9492318790495884], [3.103137571267267, -3.4970994602577887, 1.2098232570716194, 1.3226912160410016], [-0.6624063106979887, -0.04261573595386364, -4.949909962372966, 2.179149270314951], [-3.547638704091083, 2.440542760019203, 0.7306770634004409, -1.901463991092873], [-3.348400218936349, 3.066269206959664, -0.7036767670242459, -1.1184321715744963], [1.188434707696379, -0.6897733059842788, 5.728555252289688, -2.4058388810491405]]}, "weightsblank": {"0": [[0.0, 0.0, 0.0, 0.0, 0.0, 0.0], [0.0, 0.0, 0.0, 0.0, 0.0, 0.0], [0.0, 0.0, 0.0, 0.0, 0.0, 0.0], [0.0, 0.0, 0.0, 0.0, 0.0, 0.0], [0.0, 0.0, 0.0, 0.0, 0.0, 0.0], [0.0, 0.0, 0.0, 0.0, 0.0, 0.0], [0.0, 0.0, 0.0, 0.0, 0.0, 0.0], [0.0, 0.0, 0.0, 0.0, 0.0, 0.0], [0.0, 0.0, 0.0, 0.0, 0.0, 0.0]], "1": [[0.0, 0.0, 0.0, 0.0], [0.0, 0.0, 0.0, 0.0], [0.0, 0.0, 0.0, 0.0], [0.0, 0.0, 0.0, 0.0], [0.0, 0.0, 0.0, 0.0], [0.0, 0.0, 0.0, 0.0]]}, "biases": {"0": 0.8335381245345215, "1": -1.319375821276205}, "biasesblank": {"0": 0.0, "1": 0.0}}