{"layers": [9, 9, 4], "learning_rate": 0.005, "weights": {"0": [[7.359300845775928, 3.4521115173405668, -3.1697705843666752, 3.2424430886768714, -2.537651738367887, -3.0366184761831834, -1.916238210296196, 3.702591585772994, -2.609871827532822], [-2.123845479428413, -4.105610353324393, 3.3826378379456448, 3.0527178474653027, 8.041046092353843, -2.587703693855661, -2.1246715816961124, 3.530901359452181, -2.233952277075656], [-2.70231714561776, -1.6929638498898818, -4.432115284218211, -3.27121143167225, -1.8195966872841278, -2.226577289345721, 9.477709747403539, 3.000708593135071, -1.71822278933552], [-1.9499638517518985, 3.135505852104625, -1.103409583339784, 3.0296493452897892, -1.912077850031455, -1.459503595819987, 3.9809623949505473, -2.373977995158951, 6.673124485107465], [-2.173374936270017, -0.31947071538192845, -1.6889533136429011, -2.6967570641903476, -2.3048463333823306, -2.3457839030244374, -2.786704775686351, -1.789521843315113, -1.5780213076571095], [-2.2318635082271836, -1.1129167632867651, -3.775291537563392, -2.414084869468563, -2.52545655191894, -2.161318633064891, -2.2361512797925465, -1.9594200411504221, -1.7913366852036077], [-1.827350161288324, 3.082574957646109, -0.6350065601349689, 3.1902695970472634, 2.9189201676176055, 7.409968723985468, 3.73078117391388, -2.140862983098519, -1.9722151303325568], [-2.270188466758394, -1.265909991573633, -1.2216564509661327, -2.384975312270859, -2.8604605228673656, -2.1101362727118547, -4.019690763290417, -1.8152310556918176, -2.137381121958591], [-1.3970919638724129, 3.569733989770069, 1.5210546362417998, -1.623761791397152, 3.3967847262832764, -2.3320478117474135, -2.5817160506544976, 6.0371373220503965, -2.1267396991880134]], "1": [[3.308826476894314, -2.980302843736011, 3.638889386124136, -4.827219230505885], [0.37521081944069695, 1.4988641843965846, -2.635300283216845, 0.9202571388711619], [2.15279687550772, 1.0962578591100298, -0.8122769771437335, -2.8654266096458536], [-1.6403123159022623, 1.4604913122467102, -3.0196225313448184, 4.511737465808993], [2.571495729456642, -2.5031861388947885, 0.7811587763983375, -0.7723736886426475], [-2.776564531999981, 0.9834141091825368, 4.413590565936632, -3.9869458171375167], [2.4883502532737523, -1.0467791779023963, -1.875188972420987, 0.9201285949509435], [-3.2633663966535824, 0.8987712267454178, 0.9945206095005045, 1.450102342060682], [-0.3550898836615028, -0.6373348955429654, 4.844945065928474, -4.417236660486118]]}, "weightsblank": {"0": [[0.0, 0.0, 0.0, 0.0, 0.0, 0.0, 0.0, 0.0, 0.0], [0.0, 0.0, 0.0, 0.0, 0.0, 0.0, 0.0, 0.0, 0.0], [0.0, 0.0, 0.0, 0.0, 0.0, 0.0, 0.0, 0.0, 0.0], [0.0, 0.0, 0.0, 0.0, 0.0, 0.0, 0.0, 0.0, 0.0], [0.0, 0.0, 0.0, 0.0, 0.0, 0.0, 0.0, 0.0, 0.0], [0.0, 0.0, 0.0, 0.0, 0.0, 0.0, 0.0, 0.0, 0.0], [0.0, 0.0, 0.0, 0.0, 0.0, 0.0, 0.0, 0.0, 0.0], [0.0, 0.0, 0.0, 0.0, 0.0, 0.0, 0.0, 0.0, 0.0], [0.0, 0.0, 0.0, 0.0, 0.0, 0.0, 0.0, 0.0, 0.0]], "1": [[0.0, 0.0, 0.0, 0.0], [0.0, 0.0, 0.0, 0.0], [0.0, 0.0, 0.0, 0.0], [0.0, 0.0, 0.0, 0.0], [0.0, 0.0, 0.0, 0.0], [0.0, 0.0, 0.0, 0.0], [0.0, 0.0, 0.0, 0.0], [0.0, 0.0, 0.0, 0.0], [0.0, 0.0, 0.0, 0.0]]}, "biases": {"0": -2.0128364826820655, "1": -1.7468021596439625}, "biasesblank": {"0": 0.0, "1": 0.0}}