{"layers": [9, 7, 4], "learning_rate": 0.005, "weights": {"0": [[13.880930260454194, 14.944426455718496, -7.306143437306801, -4.740785338561486, -0.02212440993581849, 0.31590508190667854, 21.403656882074337], [-31.723063602305288, 15.215011044490655, -10.519721059127505, 3.4511458650838422, 1.4404056023332215, -0.35980178272857966, 22.466207486992403], [-36.14184000172288, 15.509757786325638, 12.364156896934382, 0.6196339687196861, -0.36178759098335445, 1.2696927913579852, 37.73496422254447], [13.49532248987644, 15.083466321024352, -45.1692208238101, -7.307788884835398, -13.01988844807175, 0.0069568047095905725, 20.43659700054233], [8.782565692889378, 14.917957695819737, -3.296071814869909, -11.451631762750097, 0.18780294262303007, -1.189966494120008, 20.09407214472915], [7.603242728044479, 14.886632428682525, -10.654709091861887, -8.54325013764199, 0.1340500644141739, -1.4351790435045761, 36.61723053213685], [-33.36769031697929, -19.734013366223902, -10.004165996227904, -5.311870338009812, -9.373934631822468, -10.508864510570984, -34.40630321106867], [-42.71067461595687, -22.980212330558658, -11.650498782311168, -5.457746581840293, -12.469593567856355, -12.186246734445023, -35.688948381130714], [-29.623492693322305, -21.153542248762932, -20.528142202341982, -8.427949299434221, -9.581549750733135, -8.397382929851933, -36.36467925769034]], "1": [[-162.65984003304868, -161.85013307870835, -160.39834701497463, -166.32919971100543], [141.19385378609695, 88.02918453641671, 235.03674869541499, 217.47345611665872], [3.8278962341282914, 107.08733845343298, 121.55679632685772, 153.50772814186837], [-0.06568222069454618, 29.244079340576537, 23.425436638485824, 27.30198764354932], [5.62145721877781, 19.526077210938787, 32.786178105900184, 31.84539998778804], [1.0841043078970767, 22.742359106219396, 39.65535837201282, 32.89344027865963], [-140.27137496448745, -88.68327976611253, -235.46146904577972, -217.4288194361674]]}, "weightsblank": {"0": [[0.0, 0.0, 0.0, 0.0, 0.0, 0.0, 0.0], [0.0, 0.0, 0.0, 0.0, 0.0, 0.0, 0.0], [0.0, 0.0, 0.0, 0.0, 0.0, 0.0, 0.0], [0.0, 0.0, 0.0, 0.0, 0.0, 0.0, 0.0], [0.0, 0.0, 0.0, 0.0, 0.0, 0.0, 0.0], [0.0, 0.0, 0.0, 0.0, 0.0, 0.0, 0.0], [0.0, 0.0, 0.0, 0.0, 0.0, 0.0, 0.0], [0.0, 0.0, 0.0, 0.0, 0.0, 0.0, 0.0], [0.0, 0.0, 0.0, 0.0, 0.0, 0.0, 0.0]], "1": [[0.0, 0.0, 0.0, 0.0], [0.0, 0.0, 0.0, 0.0], [0.0, 0.0, 0.0, 0.0], [0.0, 0.0, 0.0, 0.0], [0.0, 0.0, 0.0, 0.0], [0.0, 0.0, 0.0, 0.0], [0.0, 0.0, 0.0, 0.0]]}, "biases": {"0": -45.18482681328546, "1": -0.6661787163613851}, "biasesblank": {"0": 0.0, "1": 0.0}}