{"layers": [9, 7, 4], "learning_rate": 0.005, "weights": {"0": [[-7.918813616926375, -5.684137314515227, -6.2057989085852245, -2.2348253135536997, 4.755774888695017, -4.095408046275319, -2.7271055427782174], [-7.8970410441621315, 2.275983932944297, 1.627697388099612, -2.3766847487816274, -3.441234439853309, -4.550564495290164, -2.4980418600609493], [2.2087186465590745, 2.920607430449666, 1.825232931787912, 3.974072445030495, 2.509880909829423, 7.3136569446614885, -2.783081071533335], [2.2134600902749066, -5.453919046770352, -7.748594750396981, -3.210549033414183, 1.1321938127760818, -2.354884348739988, 0.4481834410191131], [2.19980044878085, 3.715757849396471, 2.595788103901788, -2.800586496356423, 2.7624500884509504, -2.4459473287445173, -0.44667641980545314], [2.08368586881615, 3.519535728275505, 2.6013910853426454, -3.103609972125792, 2.219230553509218, -2.209101432863159, -0.46744415268934913], [1.894486877518145, -5.829057408007285, -7.295477092776354, 6.768191757452763, 2.4640499747872577, -2.8995131767789237, 1.7653101718599609], [2.139287942137013, 3.1420731534173068, 2.1027192577482827, 6.457401013293463, 3.776775143784186, 4.1076201942318615, -2.8066988653236042], [2.1211171452851665, 3.178560242065243, 2.098344424169569, 7.047306979888958, 2.1364143778000293, -3.439748128216242, 1.6344803356328195]], "1": [[-4.888891094015618, 6.278156433559438, -0.9531812490695982, 1.00801705976467], [-3.142438232810015, -4.065945975951633, 5.326539907123319, -5.161654449620965], [2.761900282769064, 2.099720188792599, -6.477018392094982, 7.078213879514102], [-3.856176873117846, 3.8351771389026403, 0.2831011108632157, -0.2797783495194151], [1.9729601664368583, -2.2459507353729804, 0.6935729315323415, -1.2360128494164204], [4.933224924716732, -5.0953109717101235, -1.8453283559595188, 0.1868933123935443], [5.400204480042697, -5.480622585414455, -1.1374163362383203, 0.2264252961004285]]}, "weightsblank": {"0": [[0.0, 0.0, 0.0, 0.0, 0.0, 0.0, 0.0], [0.0, 0.0, 0.0, 0.0, 0.0, 0.0, 0.0], [0.0, 0.0, 0.0, 0.0, 0.0, 0.0, 0.0], [0.0, 0.0, 0.0, 0.0, 0.0, 0.0, 0.0], [0.0, 0.0, 0.0, 0.0, 0.0, 0.0, 0.0], [0.0, 0.0, 0.0, 0.0, 0.0, 0.0, 0.0], [0.0, 0.0, 0.0, 0.0, 0.0, 0.0, 0.0], [0.0, 0.0, 0.0, 0.0, 0.0, 0.0, 0.0], [0.0, 0.0, 0.0, 0.0, 0.0, 0.0, 0.0]], "1": [[0.0, 0.0, 0.0, 0.0], [0.0, 0.0, 0.0, 0.0], [0.0, 0.0, 0.0, 0.0], [0.0, 0.0, 0.0, 0.0], [0.0, 0.0, 0.0, 0.0], [0.0, 0.0, 0.0, 0.0], [0.0, 0.0, 0.0, 0.0]]}, "biases": {"0": 2.248829206343157, "1": -1.4530973562005096}, "biasesblank": {"0": 0.0, "1": 0.0}}