{"layers": [9, 7, 4], "learning_rate": 0.005, "weights": {"0": [[0.3344646672459854, 0.02337988736617455, 0.8201741781536205, -0.9925193305292592, -2.2715816375498425, 0.07082283116332078, -0.978286597988859], [0.7037500803715527, -0.9571506772521942, 0.5545154699577414, 0.31982676839450114, -2.6169327522274, 0.5866021886435826, 0.28497375686636717], [-1.1965999080990959, -1.8091758722666411, -0.9631633928024838, -1.0161372150257861, 1.1294863008020846, 1.2200307470345348, -0.14167529327549916], [-0.07972516185285895, 0.736400223522341, 0.48766373607600283, -0.9476776940734283, -2.5375425328038586, 0.051181418952691966, -0.3857617995712118], [0.1121744782404526, 0.8145807609808249, 0.5611133209883774, -0.44105168312603626, 1.18909092913761, -0.1748623667450466, 0.2874834641762781], [-1.2080082946822293, -1.7845310879326672, -1.0934537554887567, 0.04671405419236175, 0.31351361311635645, 0.4039422839974655, -0.6233302259872363], [-0.6206986696281669, 1.1002404462032063, -1.0525812223446365, -0.9358402100030719, 1.3765871774081806, -0.7731162678151504, -0.4709193776462563], [-1.1604099031471944, 0.9565894685647673, -1.3084010488017712, -0.5069321191057985, 1.5171130299756346, -0.2443175805634817, -0.30087057014047636], [-0.777783547436779, -1.748610233450946, -1.0722622447238621, -0.44221827194009583, 1.5131464533962693, -0.9083859078831276, -1.2584831356853032]], "1": [[0.43400898896752044, -0.5130313840647726, 0.21800308223718048, -0.4923100269636007], [-0.5019960356204247, 0.5575176885378671, 1.07702513471284, -1.5787972106208088], [0.6118161938552706, -0.8424307162444836, 0.5129653581437057, -0.6985523497035239], [-0.4620962403560784, -0.17242999490685024, 0.02236456484066379, 0.3699014190868015], [-0.7337912000936576, 0.7371848035559073, -1.2519202541256327, 0.9736484150057382], [0.8971410871966483, -1.1770692435473082, -0.39576633058313204, 0.39358841445982523], [0.47058531721146973, -0.5021485787450837, -0.08034464741082527, 0.21149176856467605]]}, "weightsblank": {"0": [[0.0, 0.0, 0.0, 0.0, 0.0, 0.0, 0.0], [0.0, 0.0, 0.0, 0.0, 0.0, 0.0, 0.0], [0.0, 0.0, 0.0, 0.0, 0.0, 0.0, 0.0], [0.0, 0.0, 0.0, 0.0, 0.0, 0.0, 0.0], [0.0, 0.0, 0.0, 0.0, 0.0, 0.0, 0.0], [0.0, 0.0, 0.0, 0.0, 0.0, 0.0, 0.0], [0.0, 0.0, 0.0, 0.0, 0.0, 0.0, 0.0], [0.0, 0.0, 0.0, 0.0, 0.0, 0.0, 0.0], [0.0, 0.0, 0.0, 0.0, 0.0, 0.0, 0.0]], "1": [[0.0, 0.0, 0.0, 0.0], [0.0, 0.0, 0.0, 0.0], [0.0, 0.0, 0.0, 0.0], [0.0, 0.0, 0.0, 0.0], [0.0, 0.0, 0.0, 0.0], [0.0, 0.0, 0.0, 0.0], [0.0, 0.0, 0.0, 0.0]]}, "biases": {"0": -2.1709915493845564, "1": -1.23414401353637}, "biasesblank": {"0": 0.0, "1": 0.0}}