{"layers": [9, 7, 4], "learning_rate": 0.005, "weights": {"0": [[4.170829239944866, -6.39612835136502, -5.639529732297947, -2.169449794859806, -3.454169708211976, -3.5667489860745665, 2.8600003630864985], [-2.5565870889509585, 2.4561196651886346, -6.491834030277615, -2.250546318857176, 2.488926237207154, -3.3124867201631116, 0.5001726616667332], [-3.689490604979112, 2.1234330054941686, 2.865519527560549, 7.426168832676482, -6.887179583546304, -3.329157039359605, 1.9022329150033], [-2.56706693716495, -6.950977553362943, 1.331122859443345, -1.9061530785910568, -3.153139449693236, -1.5100877540110573, -1.462085599559712], [-1.737349604958654, 2.625337382150685, 2.3397754566711617, -2.1828772525316076, -2.9722443535255305, 2.6887559277259974, -0.10647828710049488], [-1.859205535569439, 2.5442335118542663, 3.0200705270332677, 7.371339826158357, 3.2941105305863787, 3.271627934105548, 0.26931076671280063], [2.6667186894507497, -6.901606316451433, 2.1609991615563375, -2.154818690285367, -1.7490030500367644, 3.530669798364736, -1.2144421349540924], [-1.9039887880416548, 2.598347263813911, 1.8102380391188326, -2.213262045926239, -1.7388899343371074, -1.2961893575777224, 0.2352083001038699], [6.690417948964638, 2.28018178497833, 2.786435447940214, -2.560277050801185, -1.8621173005911595, 3.679839475202034, 1.1753234886694541]], "1": [[-1.585674116827324, 0.5353722246893032, -2.2952395806282575, 3.619502647915595], [-0.27508075094287454, 0.07999342964312284, -2.9925303637665426, 3.849583065347297], [-3.426805571465535, 2.283754173544653, 1.0168977623584607, 0.18167532921495125], [1.435603095933647, -1.4166016207893335, -2.5678245848078016, 2.712964133201869], [-2.2966870688451855, 1.5186305213866467, 2.501110744184207, -1.3317419515032416], [3.066877935354652, -1.3414386323778036, 0.7233115967319906, -2.604795369164058], [1.3000953448218284, -0.6835291297936985, 2.8183379417018095, -4.7464195048538995]]}, "weightsblank": {"0": [[0.0, 0.0, 0.0, 0.0, 0.0, 0.0, 0.0], [0.0, 0.0, 0.0, 0.0, 0.0, 0.0, 0.0], [0.0, 0.0, 0.0, 0.0, 0.0, 0.0, 0.0], [0.0, 0.0, 0.0, 0.0, 0.0, 0.0, 0.0], [0.0, 0.0, 0.0, 0.0, 0.0, 0.0, 0.0], [0.0, 0.0, 0.0, 0.0, 0.0, 0.0, 0.0], [0.0, 0.0, 0.0, 0.0, 0.0, 0.0, 0.0], [0.0, 0.0, 0.0, 0.0, 0.0, 0.0, 0.0], [0.0, 0.0, 0.0, 0.0, 0.0, 0.0, 0.0]], "1": [[0.0, 0.0, 0.0, 0.0], [0.0, 0.0, 0.0, 0.0], [0.0, 0.0, 0.0, 0.0], [0.0, 0.0, 0.0, 0.0], [0.0, 0.0, 0.0, 0.0], [0.0, 0.0, 0.0, 0.0], [0.0, 0.0, 0.0, 0.0]]}, "biases": {"0": -1.1008904201824892, "1": -1.5790650212472814}, "biasesblank": {"0": 0.0, "1": 0.0}}