{"layers": [9, 6, 4], "learning_rate": 0.01, "weights": {"0": [[2.2166065451791472, 0.5478197124763315, -2.4455091605228763, -1.763374161173043, -5.198875231262142, 4.265595233573619], [-5.9248809834066964, -4.860682007378455, -3.5343000758061476, -1.7230885359434631, -5.541563655828672, 4.264534968869661], [-5.664184939751043, 0.7884182321507022, -1.678834412134573, -2.312356425245872, 1.5827079396422088, 4.233716151334691], [1.7091705357919575, 0.41825008590844903, -2.648702150222126, -2.0135422373597534, -5.841473342428826, -1.2955091121319902], [2.149217621212327, -5.15338778179648, 2.733491845017935, -2.155952285513291, 2.3488971431693, -1.1517006859852879], [-5.844244455934293, 0.6962866911775206, -1.5250061215989448, -1.959050628041245, 2.054076228479225, -1.3265601571666876], [2.382502981748259, 0.12276873741453527, 2.532881222524979, -1.998425025448487, 2.5074997233068936, -1.1068762358535464], [2.224035175842486, -4.281995409321001, 2.474199426607839, -2.0869551065653273, 2.4249822964535506, -1.2535088429483283], [2.2756453537097214, -0.8048997473247588, 3.204542656998942, 7.036615834227985, -2.697650372131666, 8.183178854273256]], "1": [[-3.2880964896744698, 2.0708255396594137, 2.1377783925605534, -2.5784070227100195], [2.342107439125427, 1.5275824067340846, -1.917678236142952, -3.4514915827952195], [4.878639665252954, -5.044090726138745, -0.666385334707528, -1.8725224231316488], [-5.956230220350401, 4.94710403619103, -4.809556904490325, 1.9979405541421558], [-4.034667628728624, 4.651721313496384, -0.9384178497304787, 2.8593476583000563], [1.6054506515471905, -4.651207763630278, 0.613358595073786, 0.4710016097371738]]}, "weightsblank": {"0": [[0.0, 0.0, 0.0, 0.0, 0.0, 0.0], [0.0, 0.0, 0.0, 0.0, 0.0, 0.0], [0.0, 0.0, 0.0, 0.0, 0.0, 0.0], [0.0, 0.0, 0.0, 0.0, 0.0, 0.0], [0.0, 0.0, 0.0, 0.0, 0.0, 0.0], [0.0, 0.0, 0.0, 0.0, 0.0, 0.0], [0.0, 0.0, 0.0, 0.0, 0.0, 0.0], [0.0, 0.0, 0.0, 0.0, 0.0, 0.0], [0.0, 0.0, 0.0, 0.0, 0.0, 0.0]], "1": [[0.0, 0.0, 0.0, 0.0], [0.0, 0.0, 0.0, 0.0], [0.0, 0.0, 0.0, 0.0], [0.0, 0.0, 0.0, 0.0], [0.0, 0.0, 0.0, 0.0], [0.0, 0.0, 0.0, 0.0]]}, "biases": {"0": -1.271391890918447, "1": -1.506783514223467}, "biasesblank": {"0": 0.0, "1": 0.0}}