{"layers": [9, 6, 4], "learning_rate": 0.01, "weights": {"0": [[-0.4590430598414206, -0.5585370803584226, -0.19008777193323723, -0.27750418584655123, 0.7815915702240854, 0.8422384619741055], [-0.8720122430673121, -0.7650511735460748, -0.9203771637835392, 0.4894191913328749, -0.7569001703042797, 0.6670612107578369], [-0.7704373957890782, 0.1398958483649284, 0.46719721182709284, -0.41024427189277546, 0.5037455077366817, 0.3517682586713011], [0.8830161414773714, 0.4837712734614672, 0.43059911867096035, 0.29875594845085507, -0.7048595678130536, -0.8741434613632515], [0.6969227243596101, -0.7703763519303886, -0.721746055247575, -0.574620447795144, -0.3645904222032952, 0.5268342965888899], [-0.9450924377178125, 0.03438726817035187, -0.3203852467098982, -0.066714803841184, 0.3757625861204341, 0.08172798459178221], [0.6294529372609032, -0.2870317217399869, -0.07018209394474018, 0.89649607530219, 0.32717036721527126, -0.00021015757787168354], [-0.5891320779338567, -0.8310307025797776, -0.6710115517711552, -0.6262344340040034, 0.11137072035447138, -0.0776605995458346], [-0.8393577180257898, -0.545825020194399, -0.8622385814535514, 0.7248830396700134, -0.3475689283529937, -0.4609575880986916]], "1": [[0.12887546307913267, 0.620189266340146, -0.10179400232128533, 0.3176074385319734], [0.7811497433944521, 0.9607966291793979, 0.01723808589440856, -0.11877219116908022], [0.3163126940829888, 0.6256551580906733, 0.5063262969393285, 0.9291257089294116], [0.6917005133622449, 0.9846302255526618, -0.4380881368866567, 0.4635391699324958], [-0.2247621676356384, 0.34286040983755317, -0.6523695247948693, -0.15828904363361707], [-0.7222839303436661, -0.7453986755169197, -0.46130403657885166, -0.5728358605209987]]}, "weightsblank": {"0": [[0.0, 0.0, 0.0, 0.0, 0.0, 0.0], [0.0, 0.0, 0.0, 0.0, 0.0, 0.0], [0.0, 0.0, 0.0, 0.0, 0.0, 0.0], [0.0, 0.0, 0.0, 0.0, 0.0, 0.0], [0.0, 0.0, 0.0, 0.0, 0.0, 0.0], [0.0, 0.0, 0.0, 0.0, 0.0, 0.0], [0.0, 0.0, 0.0, 0.0, 0.0, 0.0], [0.0, 0.0, 0.0, 0.0, 0.0, 0.0], [0.0, 0.0, 0.0, 0.0, 0.0, 0.0]], "1": [[0.0, 0.0, 0.0, 0.0], [0.0, 0.0, 0.0, 0.0], [0.0, 0.0, 0.0, 0.0], [0.0, 0.0, 0.0, 0.0], [0.0, 0.0, 0.0, 0.0], [0.0, 0.0, 0.0, 0.0]]}, "biases": {"0": 1.0, "1": 1.0}, "biasesblank": {"0": 0.0, "1": 0.0}}