{"layers": [9, 6, 4], "learning_rate": 0.01, "weights": {"0": [[2.0990216218026005, 0.5808920017330808, -2.099338981294164, -1.6770229763423747, -4.830126379461221, 4.093231670814506], [-5.671283694629449, -4.444192798401765, -3.0711322953753224, -1.6948512869515613, -5.241066424152318, 4.026450710374216], [-5.517138268224957, 0.5633207848871311, -1.417220776572751, -2.236642718748904, 1.6823451910563878, 4.0559629203022345], [1.766507330878698, 0.40648532994011066, -2.492005841666879, -1.9213619648914924, -5.540053308971316, -1.1529643041872468], [2.064338643912546, -4.7309816006436645, 2.4212920694395286, -2.110938080356318, 2.1698879765558083, -1.14478491422325], [-5.66569396464768, 0.7171053016852795, -1.455273027337683, -1.9496734968002027, 1.8958093454033826, -1.1902331868091205], [2.2186462488205207, -0.08797237979710311, 2.187197326475719, -1.9020835486539738, 2.2637145343962786, -1.0983571396075775], [2.113961860955662, -3.976078190888327, 2.081589142503497, -1.976214861194681, 2.224992350239382, -1.2225904640176755], [2.126810111157676, -0.5249084773883913, 2.854460347218395, 6.74314939792284, -2.625984865891555, 7.5585359565136905]], "1": [[-3.0961780684513887, 2.1432439600734075, 1.8056237939268824, -2.3498854822625175], [2.2417587572033133, 1.2257428506695889, -1.922429958067396, -3.1451174805118995], [4.779394280063977, -4.346376022949258, -0.28671023754557334, -1.3661451312416641], [-5.429366658547349, 4.7514607852804644, -4.321282737143966, 1.9279012273787057], [-3.738895884260203, 3.721367346890451, -1.265991476523839, 2.359200041058132], [1.5060910524607443, -3.9003083190034533, 0.37329847813845285, 0.5832972395627573]]}, "weightsblank": {"0": [[0.0, 0.0, 0.0, 0.0, 0.0, 0.0], [0.0, 0.0, 0.0, 0.0, 0.0, 0.0], [0.0, 0.0, 0.0, 0.0, 0.0, 0.0], [0.0, 0.0, 0.0, 0.0, 0.0, 0.0], [0.0, 0.0, 0.0, 0.0, 0.0, 0.0], [0.0, 0.0, 0.0, 0.0, 0.0, 0.0], [0.0, 0.0, 0.0, 0.0, 0.0, 0.0], [0.0, 0.0, 0.0, 0.0, 0.0, 0.0], [0.0, 0.0, 0.0, 0.0, 0.0, 0.0]], "1": [[0.0, 0.0, 0.0, 0.0], [0.0, 0.0, 0.0, 0.0], [0.0, 0.0, 0.0, 0.0], [0.0, 0.0, 0.0, 0.0], [0.0, 0.0, 0.0, 0.0], [0.0, 0.0, 0.0, 0.0]]}, "biases": {"0": -1.1608942165861367, "1": -1.5318616636186095}, "biasesblank": {"0": 0.0, "1": 0.0}}