{"layers": [9, 6, 4], "learning_rate": 0.01, "weights": {"0": [[0.4183906768706009, -0.05477795188406283, -0.04410937959892411, -0.7873891961717331, -0.6183859781770452, 0.8410501133978657], [-1.580328618444549, -0.9488659368025364, -0.7651990155791739, -0.605695677922501, -1.3657799265179995, 1.0087054093874461], [-1.88236662267915, -0.32983249938937664, 0.11754005803887142, -0.6859213203941482, 0.5084543693885346, 0.9372103728084559], [0.48191476906359815, -0.11919907263620652, -0.582482892670583, 0.10421660253483933, -1.421763841652026, -0.07382146325860872], [0.3489648747474682, -1.1487904808510674, -0.17032945070043415, -0.7425332342999409, 0.27671777845416495, -0.1026774763598802], [-1.604251086037613, -0.28184244214272364, -0.6086107631669055, -0.5606565474620744, 0.24920680516506277, -0.2363369765523832], [0.6706790961859631, -0.1397961627236285, 0.05405505866842805, -0.074576008807384, 0.28449278008675455, -0.25354641093082625], [0.4270207045260313, -0.8328083226573059, -1.131969833638756, -0.5008631441957337, 0.38444656919089365, -0.3333590821281068], [0.0125493369707611, -0.8490531668874512, -1.055925858614849, 2.20372834788303, -0.26639924900213174, 0.08308673836941796]], "1": [[-0.9583697881261948, 0.53517889450182, 1.0634965272932657, -1.1485844084437677], [0.31831761250612767, 0.2683577014784686, -0.053563218564688125, -0.7756059801556054], [0.5169374014219529, -0.40505992737419916, 0.5528529543154552, 0.2519176205345574], [-0.798693699815795, 0.6709916012895147, -0.7049914737228594, 0.6270670911180583], [-0.6139433858256845, 0.5545871647946446, -1.061959448192427, 0.5919355012997491], [0.749722291989157, -1.208658984933319, -0.2139511976567277, -0.13348364484676883]]}, "weightsblank": {"0": [[0.0, 0.0, 0.0, 0.0, 0.0, 0.0], [0.0, 0.0, 0.0, 0.0, 0.0, 0.0], [0.0, 0.0, 0.0, 0.0, 0.0, 0.0], [0.0, 0.0, 0.0, 0.0, 0.0, 0.0], [0.0, 0.0, 0.0, 0.0, 0.0, 0.0], [0.0, 0.0, 0.0, 0.0, 0.0, 0.0], [0.0, 0.0, 0.0, 0.0, 0.0, 0.0], [0.0, 0.0, 0.0, 0.0, 0.0, 0.0], [0.0, 0.0, 0.0, 0.0, 0.0, 0.0]], "1": [[0.0, 0.0, 0.0, 0.0], [0.0, 0.0, 0.0, 0.0], [0.0, 0.0, 0.0, 0.0], [0.0, 0.0, 0.0, 0.0], [0.0, 0.0, 0.0, 0.0], [0.0, 0.0, 0.0, 0.0]]}, "biases": {"0": -0.09345298092936354, "1": -0.9865437347123411}, "biasesblank": {"0": 0.0, "1": 0.0}}