{"layers": [9, 6, 4], "learning_rate": 0.01, "weights": {"0": [[1.5016598949105229, -0.4758204164938012, -1.10446931274438, -1.2074742880533091, -3.296006048904042, 2.720827651604059], [-4.083644522170624, -2.006711938192955, -1.7512039578948557, -1.2163317464948036, -3.322740171824602, 2.5190204042777578], [-4.229370424351911, -0.021479119755857833, -0.5824885450819325, -1.634554583719036, 1.142452654910231, 2.781914280421309], [1.3964653548079196, -0.3571495059622528, -1.0230740364167228, -1.3222299314965833, -3.5370111803315396, -0.8702594741351494], [1.5204449174395773, -2.6775615149741747, 1.2716819992806163, -1.6085230086029287, 1.2696471235494287, -0.6542664070412959], [-4.329753128201895, 0.701730166449872, -0.2815865913636439, -1.6056566989498997, 1.3397105401654492, -0.7641387458963796], [1.5470895823375763, -0.12192246357848091, 0.9479744151538159, -1.5541503828263454, 1.4182521677904687, -0.5989728952920773], [1.4749688499326676, -1.7379071668010306, -0.9836867689462695, -1.6734118830465798, 1.08432221764045, -0.24912911077132038], [1.6071801214439891, 0.5010939303350933, -0.18514275330936092, 5.255440061973103, -1.86118909370164, 3.525533130743042]], "1": [[-1.4295679414829114, 1.0802217182992153, 1.4400974853274948, -1.2160850895003503], [0.9844529755769282, 0.9124277248149375, -0.2880685621217396, -1.7381559486650353], [1.485436141794049, -1.0588574420245738, 0.052399688253023595, -0.18066539661073738], [-2.1167148494482304, 1.9838232916775986, -2.2551475445613054, 1.9027886155970957], [-1.139764496128015, 1.2115257316713521, -1.1810016347500956, 1.0539984560512623], [1.2643541325210352, -2.4419039316326363, 0.4396902666594722, 0.37057609695385]]}, "weightsblank": {"0": [[0.0, 0.0, 0.0, 0.0, 0.0, 0.0], [0.0, 0.0, 0.0, 0.0, 0.0, 0.0], [0.0, 0.0, 0.0, 0.0, 0.0, 0.0], [0.0, 0.0, 0.0, 0.0, 0.0, 0.0], [0.0, 0.0, 0.0, 0.0, 0.0, 0.0], [0.0, 0.0, 0.0, 0.0, 0.0, 0.0], [0.0, 0.0, 0.0, 0.0, 0.0, 0.0], [0.0, 0.0, 0.0, 0.0, 0.0, 0.0], [0.0, 0.0, 0.0, 0.0, 0.0, 0.0]], "1": [[0.0, 0.0, 0.0, 0.0], [0.0, 0.0, 0.0, 0.0], [0.0, 0.0, 0.0, 0.0], [0.0, 0.0, 0.0, 0.0], [0.0, 0.0, 0.0, 0.0], [0.0, 0.0, 0.0, 0.0]]}, "biases": {"0": -0.769085268089564, "1": -1.3222281482741374}, "biasesblank": {"0": 0.0, "1": 0.0}}