{"layers": [9, 6, 4], "learning_rate": 0.01, "weights": {"0": [[0.22645589249857911, -0.11255644848733481, -0.06344249551421555, -0.8079757252065376, -0.591779454240328, 0.7288471608611898], [-1.345429797725328, -0.8830559468587168, -0.8635959574477777, -0.4564975717477826, -1.1684635629474798, 0.8032563591133534], [-1.7252116554816366, -0.292476552842442, 0.22567673180542153, -0.6403571583295817, 0.5552263850389444, 0.8163048725024524], [0.23991889498775854, -0.21163230546123224, -0.4835945076567209, 0.26914933151003656, -1.27007141538294, -0.06619671888899863], [0.24931497417203616, -1.096335871530372, -0.3245224187739132, -0.6362803438107241, 0.2048715420360422, 0.0661857524235428], [-1.6162625292422252, -0.4063266832477028, -0.5625079016236604, -0.1038762294452356, 0.2863346017321838, -0.26631793384501334], [0.70687353160636, -0.17052483202375276, 0.04763567442023822, 0.12482135454693878, -0.062362125039673935, -0.053063061405497505], [0.20236544171354143, -0.8188637410679152, -1.0585369900117232, -0.4206324098517941, 0.20286732082704587, -0.16735381186659806], [-0.22624654234758257, -0.8661864869576212, -1.029282193051629, 2.0511723379006597, -0.24866481969305884, 0.13346645046723274]], "1": [[-0.7216109262533779, 0.3411300234722484, 0.9375621448200575, -1.1569721317673807], [0.34681639208433307, 0.206228095388536, -0.013567609019549483, -0.7124236195710018], [0.5508148971363368, -0.34275688008284344, 0.581427369911836, 0.17707307090475152], [-0.836114613513159, 0.6711062510629935, -0.5856680045079806, 0.5983718980913985], [-0.23446185736647399, 0.307952454339598, -1.1209078205306033, 0.46691728716042097], [0.7826621610492243, -1.065067744085705, -0.39149410573385, -0.5114776715012304]]}, "weightsblank": {"0": [[0.0, 0.0, 0.0, 0.0, 0.0, 0.0], [0.0, 0.0, 0.0, 0.0, 0.0, 0.0], [0.0, 0.0, 0.0, 0.0, 0.0, 0.0], [0.0, 0.0, 0.0, 0.0, 0.0, 0.0], [0.0, 0.0, 0.0, 0.0, 0.0, 0.0], [0.0, 0.0, 0.0, 0.0, 0.0, 0.0], [0.0, 0.0, 0.0, 0.0, 0.0, 0.0], [0.0, 0.0, 0.0, 0.0, 0.0, 0.0], [0.0, 0.0, 0.0, 0.0, 0.0, 0.0]], "1": [[0.0, 0.0, 0.0, 0.0], [0.0, 0.0, 0.0, 0.0], [0.0, 0.0, 0.0, 0.0], [0.0, 0.0, 0.0, 0.0], [0.0, 0.0, 0.0, 0.0], [0.0, 0.0, 0.0, 0.0]]}, "biases": {"0": -0.03144047421128922, "1": -0.8867309081003346}, "biasesblank": {"0": 0.0, "1": 0.0}}