{"layers": [9, 9, 9, 9], "learning_rate": 0.001, "weights": {"0": [[-0.3493769584098799, -0.25240912149381783, -0.6179671380279765, 0.8378378620732168, 0.10328487160959202, 0.04157268626992715, 0.6745789376812321, 0.7088662566987792, 0.5984348702607358], [0.9717684522673605, -0.5311034054847051, 0.7749754343455746, -0.7118403795272286, -0.8100542362125869, 0.9172118691456428, -0.1219129832626408, 0.07333665069397463, 0.2989218924117835], [0.4181076118405048, -0.11670247326276927, 0.6956958723409497, -0.24538640769921966, 0.6698059249033192, -0.9103285799252755, -0.7435787667969574, 0.6144467279739306, -0.1777505128348307], [0.29755932444267724, 0.4356319138248388, 0.28660654966923926, 0.0403079145021543, -0.2750662760534263, -0.01636805340347734, -0.23604286079987669, -0.6438084645697241, -0.4992400435694398], [-0.8727497966024397, -0.09308506530134487, 0.2501142420233087, 0.6287378771900552, 0.16480172331201204, -1.0005872549390602, -0.7359073481378153, -0.5826945488925522, -0.9777733090190845], [-0.8613122173199828, -0.7570582854144384, -0.8091436490752516, -0.8393544003571433, 0.8918279587333342, 0.5698985850587391, -0.24251423433159788, 0.869870016874896, 0.44382808966383785], [0.773853567833934, 0.36031805268596634, -0.79705392814718, -0.7000470832324598, 0.9396955109435614, 0.44172169761050634, -0.5868220877995771, 0.4769363568301579, -0.3313333124674679], [-0.14471176295446916, 0.664386596551662, -0.5376365792069848, -0.4000858838176027, -0.3268125269116658, 0.8822127128080234, -0.5055383486985967, 0.5379186977865779, -0.740915457053665], [-0.22459211909196033, -0.4722096277415716, 0.5887152364775159, 0.1925044648955779, 0.051282300849396986, -0.5666651056978486, -0.8048890292576119, 1.0011591967142535, 0.7710138088497386]], "1": [[0.003897164761362502, 0.7351247863342648, 0.321713900638368, 0.716375732803285, 0.28222127762048094, 0.7550252419249882, 0.8828292063149756, -0.4545949573598416, -0.6444499227645163], [-0.12495054281072383, -0.9282394984122098, 0.23182790180726828, 0.5148230381866807, -0.8146778792185025, 0.8101833843071364, -0.7069962772637804, -0.5309664664103287, -0.039912846183086], [0.08753222132315357, 0.6012617211415431, -0.18415357928404463, -0.8778121693996344, 0.42650732076387027, 0.28942368564700494, -0.9241576850904765, 0.5162061063463355, 0.8133570821618542], [-0.19218264506334617, -0.6682618992968551, -0.08829790120625225, 0.8087870995436217, 0.4740311148044861, -0.060624636684197125, 0.1388339721594012, -0.21524958948457582, -0.3139745170491804], [-0.9485357955275151, -0.9083371837316994, -0.1172189134018201, 0.99179488770534, 0.5315564941468772, -0.8990991516363964, 0.05535460815955848, 0.0911829509509447, -0.2158730398187496], [0.3398360866452207, -0.4527825783788648, -0.3034249779479468, 0.9315923979194558, -0.8556954955936293, -0.13820099415663303, -0.7170943944055915, 0.7789755526381624, 1.008961292139439], [-0.017023054951576615, -0.4442530576261844, 0.44238480545385944, -0.866082374538742, -0.8191862262677876, 0.8500094394927457, -0.5490727439884663, -0.975901510401136, -0.6120580194753793], [-0.5113200723030242, 0.30617787080430925, -0.48610277184121115, 0.6078514986863977, -0.19413676518277545, -0.7155641072987091, -0.9928869667954691, 0.30323135118632033, 0.3192447835036554], [-0.24447765937544355, 0.080181351417388, 0.4103941541551961, 0.24348340285518785, 0.09851610015306576, -0.5677563246666781, 0.07423076305639953, -0.31329870261015097, 0.13296681155519774]], "2": [[-0.9543480060025376, -0.19789762143564224, -0.7245081723034031, 0.5254562501525297, -0.07910105668894467, -0.9390495965749313, 0.5897441266517894, 0.04224825959497508, -1.0652172672519538], [-0.31132069929851713, 0.4702111760656225, -0.37719682350331524, 0.49621439682606633, -1.252239135874955, 0.24676992853368318, 0.8785824682609628, 0.5993612223995035, -0.4205877768592097], [-0.769162115729562, -0.5834725500109036, -0.41248533715508384, -0.8702135403820161, 0.3703579216639084, 0.4031500022556049, -0.5192142683933234, -0.021739776103823515, -0.8978530272133697], [-0.6172011885302233, -0.25750406575778956, -0.7733879511769907, -0.8341015786612106, 0.1036086936975524, -1.1331650641268782, -0.7220073020863514, 0.13809464678972463, 0.43826866667285325], [-0.36769372668529393, 0.34694253929845287, 0.4380061109233704, 0.053080199882364364, -1.134322669241177, -0.6199873591472508, 0.689498547281771, 0.48337329671985235, -0.022443416420459248], [-0.4829425416425371, -1.17854292918615, 0.28711017962193497, -0.7165676221234187, -0.12123485814802533, -0.9108617721570882, -0.49345190026604707, 0.4185035518678974, -0.862677271621045], [0.4338448953868707, 0.6772817078153586, -0.8187426841427458, -0.5859069918810523, -0.29220585024884843, 0.8590723035239538, -0.3721097310535106, -0.9108179602746226, -0.19399778140350996], [0.4929584431702881, 0.040269255372324335, 0.06448027626484683, 0.22303217658507404, -0.34067233725544455, -0.5361733956256276, 0.28832012787113365, -0.9111194080834526, 0.6328801922635363], [0.058006952242243545, 0.05678832352809926, -0.0836114641838579, -0.42039090741770807, -1.1375850048866407, 0.07585905632890558, -0.9890592484374868, -0.8534387263924867, 0.13658450291051938]]}, "weightsblank": {"0": [[0.0, 0.0, 0.0, 0.0, 0.0, 0.0, 0.0, 0.0, 0.0], [0.0, 0.0, 0.0, 0.0, 0.0, 0.0, 0.0, 0.0, 0.0], [0.0, 0.0, 0.0, 0.0, 0.0, 0.0, 0.0, 0.0, 0.0], [0.0, 0.0, 0.0, 0.0, 0.0, 0.0, 0.0, 0.0, 0.0], [0.0, 0.0, 0.0, 0.0, 0.0, 0.0, 0.0, 0.0, 0.0], [0.0, 0.0, 0.0, 0.0, 0.0, 0.0, 0.0, 0.0, 0.0], [0.0, 0.0, 0.0, 0.0, 0.0, 0.0, 0.0, 0.0, 0.0], [0.0, 0.0, 0.0, 0.0, 0.0, 0.0, 0.0, 0.0, 0.0], [0.0, 0.0, 0.0, 0.0, 0.0, 0.0, 0.0, 0.0, 0.0]], "1": [[0.0, 0.0, 0.0, 0.0, 0.0, 0.0, 0.0, 0.0, 0.0], [0.0, 0.0, 0.0, 0.0, 0.0, 0.0, 0.0, 0.0, 0.0], [0.0, 0.0, 0.0, 0.0, 0.0, 0.0, 0.0, 0.0, 0.0], [0.0, 0.0, 0.0, 0.0, 0.0, 0.0, 0.0, 0.0, 0.0], [0.0, 0.0, 0.0, 0.0, 0.0, 0.0, 0.0, 0.0, 0.0], [0.0, 0.0, 0.0, 0.0, 0.0, 0.0, 0.0, 0.0, 0.0], [0.0, 0.0, 0.0, 0.0, 0.0, 0.0, 0.0, 0.0, 0.0], [0.0, 0.0, 0.0, 0.0, 0.0, 0.0, 0.0, 0.0, 0.0], [0.0, 0.0, 0.0, 0.0, 0.0, 0.0, 0.0, 0.0, 0.0]], "2": [[0.0, 0.0, 0.0, 0.0, 0.0, 0.0, 0.0, 0.0, 0.0], [0.0, 0.0, 0.0, 0.0, 0.0, 0.0, 0.0, 0.0, 0.0], [0.0, 0.0, 0.0, 0.0, 0.0, 0.0, 0.0, 0.0, 0.0], [0.0, 0.0, 0.0, 0.0, 0.0, 0.0, 0.0, 0.0, 0.0], [0.0, 0.0, 0.0, 0.0, 0.0, 0.0, 0.0, 0.0, 0.0], [0.0, 0.0, 0.0, 0.0, 0.0, 0.0, 0.0, 0.0, 0.0], [0.0, 0.0, 0.0, 0.0, 0.0, 0.0, 0.0, 0.0, 0.0], [0.0, 0.0, 0.0, 0.0, 0.0, 0.0, 0.0, 0.0, 0.0], [0.0, 0.0, 0.0, 0.0, 0.0, 0.0, 0.0, 0.0, 0.0]]}, "biases": {"0": 0.9481578128455137, "1": 1.3611006835239974, "2": -0.5056829628070187}, "biasesblank": {"0": 0.0, "1": 0.0, "2": 0.0}}