{"layers": [9, 9, 9, 9], "learning_rate": 0.001, "weights": {"0": [[0.7114218326284361, 0.8362504566026351, -0.6777352331995308, 0.2789881343515496, 0.18615862616346304, -0.852202058031548, 0.8881457044965773, 0.9865315664174998, -0.40310185437604895], [-0.711508523802949, 0.872941444343647, -0.4188590327450563, 0.29422091448909754, -0.3448047647969826, -0.49950755827023313, -0.09193506684210309, 0.9433378780955971, -0.25193696471608057], [0.9707971681221648, 0.5218050275417386, -0.14544717447519515, 0.0975978416290845, 0.8990123729958291, 0.28511459896150776, 0.1945364090287795, -0.9247725497323911, 0.6475168853769269], [-0.6793630780707381, 0.5885213222885576, 0.5105775507410684, 0.7053899475836911, -0.8398367261354606, -0.8507284047357271, -0.4597000738108957, -0.8753663627334138, 0.6708835770206947], [0.47129032775002694, 0.19881518412363514, -0.0387440152435009, 1.0000717569082218, -0.9214834122119625, -0.7105328922461968, 0.4291923579958298, 0.4094355408512783, 0.16389111150718552], [-0.8287486890024565, 0.2325196346068274, -0.32364269437554094, -0.9278260304159917, -0.8331114624407598, 0.20107351214047198, 0.6357358787207688, -0.19013758971681416, 0.9458722812402763], [0.25323669404044213, -0.28223527188510444, 0.7086919100846355, -0.7875140924252296, 0.6505317928946356, -0.7047396995270928, -0.3330711921705264, -0.22454557907695807, 0.42376825226990233], [0.5383018551454493, -0.9403637284458946, -0.8965357530386593, -0.3820983570075209, 0.7597888529227704, -0.5946835390394877, -0.7765092950982216, -0.05888004017619894, -0.7978186798417608], [0.8509081786510727, 0.9526808142334346, 0.4868309174657665, -0.7390241840582682, -0.8817322192029635, -0.4160372908212295, -0.2790514603010452, 0.36906669432631595, -0.9842219788178646]], "1": [[0.7979525453795354, -0.14356728838001362, 0.5091640812187196, -0.43629924406674647, -0.7619994627022841, -0.27678231627290917, 0.49377748736040855, 0.21931110616690475, 0.4311799542855412], [0.790658898620506, 0.004276828330913581, 0.5707164261629396, 0.4289919688031642, 0.3371185715083985, -0.5298714492478606, -0.9362622525599694, -0.01403637023084726, -0.7657491091486818], [-0.1604255703983556, 0.6546143875886884, 0.8866819929076931, -0.5979824543747403, 0.49959528584037344, -0.042300988335974905, 0.16599761732680143, -0.6880744579298199, 0.9034254973164936], [-0.4442151344909183, -0.7869931536924112, 0.36361573424735555, 0.9971819637778305, -0.6090474841497158, -0.7619260399124776, -0.5005730919751281, -0.27640978300252284, -0.46965821172914285], [0.5975937339673066, -0.3239281008838061, 0.3483009754116378, 0.8354100634171943, -0.6817930252916115, -0.4061870586605564, -0.5448561187606744, -0.34087565033662937, -0.47379676831486206], [0.7145196270781217, 0.47367927845911406, -0.8278559346841534, 0.21746020130182175, 0.003002656203496622, 0.08886133338927318, -0.42886815721504334, 0.16981738173821065, -0.36263258189989644], [0.9056091400044449, -0.715817348745769, -0.9943809856984176, 0.9017137451658453, 0.36787998150662304, 0.26800108644288806, 0.5830830440072318, 0.5190050226003587, -0.8192632186956135], [-0.7513954430491905, -0.2818528469187452, 0.6706686406108047, 0.11634407318460893, -0.7825747050960445, -0.3312016124538409, -1.0103696702618155, -0.4578488617229111, -0.8685303507341257], [0.15023218826958903, -0.07591732851349738, 0.9247696496617643, 0.7119292717717676, 0.3897033940124371, -0.5911173674230197, 0.3368873552885329, -0.5883375669857479, -0.49827282828268094]], "2": [[-0.9616927601180644, 0.1823956919436289, -0.12249970981376083, 0.25841552442578675, -0.2655516429648286, -0.9603087935961622, 0.37774387585811764, 0.24358700120400567, -0.5089631053672128], [0.7156906831989988, 0.16161581611383108, 0.048340965159059966, -0.07103168592714842, 0.5772772015608648, 0.9230989464129722, -0.9335324739864979, -0.3419434710066059, -0.9318697693265621], [0.5507035495574386, 0.17013368035722007, 0.6391644856119323, 0.4335760926175995, 0.2875531682902787, -0.2595636989539886, -0.558611214127509, -0.3754975968808631, -0.9593662772379035], [-0.8833703151160317, 0.3839163922977739, -0.26495184124877924, -0.9787718624064109, -0.3961038219889062, -0.6690343730691555, 0.284957938026584, -0.12565012711694756, -0.25223466713267834], [-0.9521655014327737, -0.6362054189960554, 0.19369688156484627, -0.16871841844977464, -0.6986298461188946, -0.41428299073148783, 0.6985832569436018, -0.06421263732168782, -1.0569468555953099], [0.5447784819173906, 0.7042617450790926, -0.5802750640299533, 0.9254780587679995, -0.7052934978666479, 0.18710941044529283, 0.4031637669254864, 0.4339381580844083, 0.015436834525673527], [-0.8385805566332959, -1.1517261192271069, -0.7085992237852531, -0.36353144568514184, 0.6223581586187638, 0.7349487706308057, 0.3302531845227723, 0.7441819666180935, 0.2736954119068539], [0.838453416343252, 0.6861362639128902, -0.8293417443107144, 0.17697921570750855, -1.2225057333620366, 0.11551179917193673, 0.39949283950560227, 0.6148039191140459, 0.79839625165082], [0.7097470732716084, -0.3744866454925043, -0.5510148802780489, -0.8264661545424, 0.08239667701151702, 0.13030904666132803, -0.8193952063479006, 0.730573970876498, 0.1971765520847427]]}, "weightsblank": {"0": [[0.0, 0.0, 0.0, 0.0, 0.0, 0.0, 0.0, 0.0, 0.0], [0.0, 0.0, 0.0, 0.0, 0.0, 0.0, 0.0, 0.0, 0.0], [0.0, 0.0, 0.0, 0.0, 0.0, 0.0, 0.0, 0.0, 0.0], [0.0, 0.0, 0.0, 0.0, 0.0, 0.0, 0.0, 0.0, 0.0], [0.0, 0.0, 0.0, 0.0, 0.0, 0.0, 0.0, 0.0, 0.0], [0.0, 0.0, 0.0, 0.0, 0.0, 0.0, 0.0, 0.0, 0.0], [0.0, 0.0, 0.0, 0.0, 0.0, 0.0, 0.0, 0.0, 0.0], [0.0, 0.0, 0.0, 0.0, 0.0, 0.0, 0.0, 0.0, 0.0], [0.0, 0.0, 0.0, 0.0, 0.0, 0.0, 0.0, 0.0, 0.0]], "1": [[0.0, 0.0, 0.0, 0.0, 0.0, 0.0, 0.0, 0.0, 0.0], [0.0, 0.0, 0.0, 0.0, 0.0, 0.0, 0.0, 0.0, 0.0], [0.0, 0.0, 0.0, 0.0, 0.0, 0.0, 0.0, 0.0, 0.0], [0.0, 0.0, 0.0, 0.0, 0.0, 0.0, 0.0, 0.0, 0.0], [0.0, 0.0, 0.0, 0.0, 0.0, 0.0, 0.0, 0.0, 0.0], [0.0, 0.0, 0.0, 0.0, 0.0, 0.0, 0.0, 0.0, 0.0], [0.0, 0.0, 0.0, 0.0, 0.0, 0.0, 0.0, 0.0, 0.0], [0.0, 0.0, 0.0, 0.0, 0.0, 0.0, 0.0, 0.0, 0.0], [0.0, 0.0, 0.0, 0.0, 0.0, 0.0, 0.0, 0.0, 0.0]], "2": [[0.0, 0.0, 0.0, 0.0, 0.0, 0.0, 0.0, 0.0, 0.0], [0.0, 0.0, 0.0, 0.0, 0.0, 0.0, 0.0, 0.0, 0.0], [0.0, 0.0, 0.0, 0.0, 0.0, 0.0, 0.0, 0.0, 0.0], [0.0, 0.0, 0.0, 0.0, 0.0, 0.0, 0.0, 0.0, 0.0], [0.0, 0.0, 0.0, 0.0, 0.0, 0.0, 0.0, 0.0, 0.0], [0.0, 0.0, 0.0, 0.0, 0.0, 0.0, 0.0, 0.0, 0.0], [0.0, 0.0, 0.0, 0.0, 0.0, 0.0, 0.0, 0.0, 0.0], [0.0, 0.0, 0.0, 0.0, 0.0, 0.0, 0.0, 0.0, 0.0], [0.0, 0.0, 0.0, 0.0, 0.0, 0.0, 0.0, 0.0, 0.0]]}, "biases": {"0": 0.9926196827288268, "1": 0.8458232919568665, "2": -1.46872696999592}, "biasesblank": {"0": 0.0, "1": 0.0, "2": 0.0}}