{"layers": [9, 9, 9, 9], "learning_rate": 0.001, "weights": {"0": [[-0.6759442712833671, 0.35781572351480545, -0.5324832478719644, -0.41915820776645396, -0.1706126025932906, -0.12806867579582487, -0.8129414957526596, 0.5349201722878182, -0.41608655152718466], [0.4970416139053332, 0.719242121939195, 0.9953089642492783, 0.6721809949749598, 0.7462124334321717, 0.021076885833438284, -0.2931052425636653, 0.37814776650216597, -0.5067852629804989], [0.927981632490097, 0.10169527440767294, 0.7706839918032485, 0.11240511498870914, -0.18393411391641948, 0.5548949172762784, 0.7690442775987684, -0.7094859697780899, -0.6865268302048021], [-0.7699826894443859, 0.5211357452891616, 0.8686244233331574, -0.2253957163761745, -0.7249754806543687, -0.4588245826357471, 0.9959922465082316, 0.6236615811743537, -0.08059058586936411], [0.8770393203525761, -0.7111496273971274, 0.9533513448288196, 0.6154977659178653, -0.6226010039431011, 0.986311623405624, -0.7260446087371386, -0.021814887546147174, 0.44821493601337153], [-0.3329812421831061, -0.4303297472369996, -0.44854193273847726, -0.5761166344524695, -0.3877845835148164, 0.1584238423372847, 0.2537568770181194, 0.9459909221794389, -0.5386114788760069], [0.13816729947081802, 0.05504283224285495, -0.11276279419931742, -0.0014259223086371116, -0.1347264813631656, -0.8668178714782051, 0.8713000075779866, 0.011178981909668548, 0.056535931247907074], [-0.10191275852466937, 0.19514059638275083, 0.19983970082781222, 0.5803904867025662, -0.6788338590357065, -0.6093546807850642, 0.960500400394623, 0.5898627375909008, -0.5925892162999311], [0.7342394516228403, -0.8372216820451236, 0.8595632027688436, -0.1822652927841545, 0.5870354857041916, -0.5339799058087761, 0.845490547740349, 0.23146992000906427, 0.09012219834393101]], "1": [[0.5242512096391787, 0.9324641876509924, -0.40749677383281263, 0.4379279357354805, -0.4798829747474137, -0.24447788065031498, 0.10630045510203448, 0.2891302320781001, -0.26023964341470246], [-0.9035661611792635, -0.7127426189152182, -0.7961990349985965, -0.5077621350086181, -0.07174440910773947, -0.13684312829453768, -0.8951507206832604, -0.38036837883944835, 0.9072682904755822], [0.9801690696789538, 0.5961937267160062, -0.11453989672964356, 0.7367145239210895, 0.3525280291633129, -0.21640611628972886, 0.48970699372292986, 0.8415167188865978, -0.46060123922954355], [-0.13505222545117312, 0.43621015435804106, -0.7705615252275628, 0.7690259963406331, -0.03919379880562813, 0.7924819464012339, 0.5320187685141113, -0.29665381148548225, 0.5061903253047204], [-0.33504732766616735, -0.7383815875875662, -0.5501855753436207, -0.1632266816485339, 0.7427300171698442, -0.6813428127454088, -1.034908753230484, 0.6014495960937177, 0.589463367717592], [-0.7369470248089429, 0.7841447918582294, 0.12390201793755944, -0.8047633655716985, 0.3920336631657969, -1.0119675733357623, -0.6829669969159307, 0.05983116879886219, -0.010438921487751733], [-0.9600396136498974, 0.21160604632200775, -0.010455806342138748, 0.44440111202187094, 0.13339260171608883, -0.4050468331195511, 0.7393031703318703, -0.2676938883236695, 0.046346425544058656], [-0.08267332382778271, -0.064773757440394, -0.015887179197266878, -0.09318417510252065, -0.2929249817083653, 0.23860310786254268, -0.4214837089946654, 0.036722260739848245, 0.9238202131540478], [0.5785143188219433, -0.6492603658027944, 0.6055597155770439, -0.9646044260586718, 0.5522163394704835, -0.5049412348435792, 0.42070622688766235, 0.5678157569780727, -0.5211482054404694]], "2": [[-0.31993220219702095, 0.609884813858227, 0.3276837830106219, 0.055961704849635766, -0.738923522547255, 0.5297579949606431, -0.9180675978055542, -0.20619031095373364, 0.7805535441835673], [0.8618176351654281, -1.236218479607997, -0.3467032520013593, -1.0345235976013438, 0.22560976799526586, -0.4081524028212903, -0.7994190664746804, -0.11836923821508236, -0.647418533323219], [-0.8491137943418743, 0.24772073485617013, -0.42709777096258433, -0.6484159044376668, 0.3943091294437882, 0.007193096302728302, -0.5509500239182246, -0.48667227060610413, -0.4995855888070182], [-0.9208787936493015, -0.7663018742302204, 0.7622092556920667, -0.6553518604761238, 0.3796174363992396, -0.4970660306747785, 0.6308306637240103, -0.554052797043596, -1.000644519036319], [-0.44742123912767245, 0.008799952576635149, -1.172597274065946, -0.07303776960168246, -0.7344067983734718, 0.5018367701166814, 0.35134172681942843, 0.1653934464292001, -0.08303922028741384], [-0.9851141162592782, 0.42721789501182317, 0.11292705184505325, -0.9691189222649906, 0.6371226964683585, -0.7970080091543157, -0.3591220488136418, 0.6407153469170126, 0.7619795968466924], [0.15913575124102186, 0.7496650973741884, -0.5349322765448206, -0.05886274440918302, 0.4063084027340964, -0.04792456745336121, 0.6742894610584513, -0.7960028328279537, -0.051274049770670266], [-0.487969055486764, -0.18638951962457886, 0.6192531256754793, 0.278582457953441, -0.041837411157263645, -0.0029479665145823453, -0.8193895572874232, 0.2919922750473141, -0.46301172721284944], [-0.2888795232750404, 0.3030494003942495, 0.0659148527828275, 0.8436715054228415, -1.1406357433589274, -0.11041921264425095, 0.3897846760114713, 0.33157986076606333, -0.6360909142554385]]}, "weightsblank": {"0": [[0.0, 0.0, 0.0, 0.0, 0.0, 0.0, 0.0, 0.0, 0.0], [0.0, 0.0, 0.0, 0.0, 0.0, 0.0, 0.0, 0.0, 0.0], [0.0, 0.0, 0.0, 0.0, 0.0, 0.0, 0.0, 0.0, 0.0], [0.0, 0.0, 0.0, 0.0, 0.0, 0.0, 0.0, 0.0, 0.0], [0.0, 0.0, 0.0, 0.0, 0.0, 0.0, 0.0, 0.0, 0.0], [0.0, 0.0, 0.0, 0.0, 0.0, 0.0, 0.0, 0.0, 0.0], [0.0, 0.0, 0.0, 0.0, 0.0, 0.0, 0.0, 0.0, 0.0], [0.0, 0.0, 0.0, 0.0, 0.0, 0.0, 0.0, 0.0, 0.0], [0.0, 0.0, 0.0, 0.0, 0.0, 0.0, 0.0, 0.0, 0.0]], "1": [[0.0, 0.0, 0.0, 0.0, 0.0, 0.0, 0.0, 0.0, 0.0], [0.0, 0.0, 0.0, 0.0, 0.0, 0.0, 0.0, 0.0, 0.0], [0.0, 0.0, 0.0, 0.0, 0.0, 0.0, 0.0, 0.0, 0.0], [0.0, 0.0, 0.0, 0.0, 0.0, 0.0, 0.0, 0.0, 0.0], [0.0, 0.0, 0.0, 0.0, 0.0, 0.0, 0.0, 0.0, 0.0], [0.0, 0.0, 0.0, 0.0, 0.0, 0.0, 0.0, 0.0, 0.0], [0.0, 0.0, 0.0, 0.0, 0.0, 0.0, 0.0, 0.0, 0.0], [0.0, 0.0, 0.0, 0.0, 0.0, 0.0, 0.0, 0.0, 0.0], [0.0, 0.0, 0.0, 0.0, 0.0, 0.0, 0.0, 0.0, 0.0]], "2": [[0.0, 0.0, 0.0, 0.0, 0.0, 0.0, 0.0, 0.0, 0.0], [0.0, 0.0, 0.0, 0.0, 0.0, 0.0, 0.0, 0.0, 0.0], [0.0, 0.0, 0.0, 0.0, 0.0, 0.0, 0.0, 0.0, 0.0], [0.0, 0.0, 0.0, 0.0, 0.0, 0.0, 0.0, 0.0, 0.0], [0.0, 0.0, 0.0, 0.0, 0.0, 0.0, 0.0, 0.0, 0.0], [0.0, 0.0, 0.0, 0.0, 0.0, 0.0, 0.0, 0.0, 0.0], [0.0, 0.0, 0.0, 0.0, 0.0, 0.0, 0.0, 0.0, 0.0], [0.0, 0.0, 0.0, 0.0, 0.0, 0.0, 0.0, 0.0, 0.0], [0.0, 0.0, 0.0, 0.0, 0.0, 0.0, 0.0, 0.0, 0.0]]}, "biases": {"0": 1.0243959770667566, "1": 0.9283360586112576, "2": -1.3139965801555342}, "biasesblank": {"0": 0.0, "1": 0.0, "2": 0.0}}