{"layers": [9, 9, 9, 9], "learning_rate": 0.001, "weights": {"0": [[0.32376545751284685, 0.5529430087252097, 0.9190926544385786, -0.9907458856078643, -0.4853932980022742, -0.09363145592698627, 0.5964779946938991, 0.1873721409087097, -0.4167374857358386], [0.6712590324069272, -0.749241148431438, 0.8842671927706371, 0.4345626126395582, -0.666114981356175, -0.03488395104206706, -0.1749366685912221, -0.4395299962787336, 0.6437015836380654], [-0.6130816741909604, 0.9747889401144134, 0.9709765809597541, -0.7108410965565516, 0.890794829818458, 0.7478407580058012, 0.28911237042453347, -0.654434667720313, 0.910645913583838], [-0.8060167587684443, 0.923567124387539, 0.7881411843223884, 0.5846369087212492, 0.39654249264306096, -0.9961874211877442, -0.5099906262539018, 0.9484648304740132, -0.581229380336108], [-0.9499599199078995, 0.17706995886991772, -0.22752649149990595, -0.3595855798159183, -0.24666177807277817, -0.6981630447678614, -0.07200718894247256, -0.18559052914693602, -0.5488287403883597], [-0.4145043181335408, 0.9199340649993419, 0.9374094883305223, 0.2454801208822939, -0.655928858340178, 0.14125490733452414, 0.13337455280470276, -0.8194703799299047, -0.263943016424921], [-0.58623507421419, 0.0774584673718262, -0.06280062425156699, -0.9893895323815975, 0.8803176771410941, 0.2848416288725479, 0.11643152963848229, -0.7078514248776501, 0.9719291631867201], [-0.5183926377349463, 0.8511682487328458, 0.4129206583457571, -0.8707211321700633, 0.518420424051344, -0.4243788588202942, 0.39127703629491617, 0.5737527683084991, -0.38616398222624315], [-0.8214902901200777, 0.8523161934851161, 0.9416440123812073, -0.7163873193496862, 0.1974367945228429, -0.19899940069567285, -0.05944703140602922, -0.7083761926732877, -0.8104816202870692]], "1": [[-0.6132906871773054, -0.14013713281780615, -0.05410203803664544, 0.24349537618978295, -0.8090013121023811, -0.27560705480688996, 0.9145202206122381, -0.25760378306547466, -0.7557516480340741], [-0.7482265245840982, 0.02583639378948951, -0.3517259700543934, -0.9982331585849509, 0.03828315708198094, -0.924658905538573, 0.714840294637679, 0.13434426232349608, -0.6628981308718195], [0.27289204585483445, -0.00869733752255727, 0.15897978964454634, 0.5453913255860618, 0.49248905325577413, -0.8875825090872762, -0.6505005014248829, -0.5938050846027157, 0.04019995083830493], [0.4131647741463439, -0.10121482636993619, 0.529214998869452, -0.17786690614992676, -0.8060167487088276, -0.6406212191742121, 0.005551266955942217, 0.6042243812995015, 0.5323604166965443], [-0.25396017530550774, 0.5228453875103772, 0.5948702842898134, -0.08794391588739131, 0.041805554141332725, 0.5129205988569303, -0.00665144879370037, 0.9013540961747887, -0.2950746322038045], [0.37411460034658706, 0.3849144067048095, -0.8950936357850479, -0.34679931648471274, -0.919255732408849, -0.42972783908226614, 0.8425243702615551, 0.04832725625947447, -1.0207631319948602], [0.47149454413195807, -0.7873307383872948, 0.9814866564438137, -1.0331118936183556, 0.4102958100675758, 0.4847856768717013, -0.033218830268267524, 0.5639364905120365, 0.6865522525207055], [0.4501015574162463, -0.8521559098529621, -0.27517037922012394, -0.4327918701917335, -0.5600538554495946, -0.9064802025382679, -0.32275269093277553, -0.36270613810586005, 0.8481136135605112], [-0.14461598505106854, -0.06080869045676354, 0.8476417871259755, 0.36072308092558975, -0.6873302332249459, -0.06248008657520343, 0.6271332007810595, 0.34105082750587634, 0.10317806842982617]], "2": [[0.3735078662799391, -0.7376040595341697, -0.8682009843213374, -0.22412411903017898, -1.0786309356781254, -0.4929495280802362, -1.2635224472981355, -0.24872925722751346, 0.12520926631495816], [0.3502678060411042, 0.3281317387620109, 0.7545868618469607, -0.7618188131718447, 0.512438387684149, 0.008456670918192409, 0.2043795944252997, 0.32873464849137446, 0.08467471979343867], [-1.203366624315901, -1.120596104847451, -0.6953643149655672, 0.739320024119994, -0.3336463807291875, -0.6694347688421326, -0.23182325950269794, 0.21492359830055124, -0.37795623679814594], [0.4410516008798456, -0.8789829981950917, 0.5164656420768144, 0.0630823525938464, -0.19194368833885533, 0.23282614835823948, 0.5561079851076557, 0.6985753134322583, -0.7261215026074358], [-0.3226611014206186, -0.16528366151836496, 0.9241831236605439, -0.18790875905714982, 0.6043597628195218, 0.9941398652266812, 0.41738813140738895, -0.6001113770396317, -0.11206892052696833], [-0.8837384225073089, -0.7126667630940668, -0.8187028737783981, 0.8424183448933557, -0.8531198221433522, -0.45423097598593853, 0.5498189723842463, -0.09443392721256191, 0.8571669993018364], [0.5092281184013753, 0.8267783289442195, -0.5882274895625533, -0.7629300932014845, -0.4877286178832133, 0.005238166925456641, 0.2662682251214023, -0.702058798275828, -0.9034370084303709], [-0.7094038579348949, -0.013836965409272827, -0.5620523662023259, 0.8745302244523843, -0.5785049204777901, 0.06692891251146275, -0.5890086078989957, -0.27793504088228277, 0.6595489313210348], [0.41728370145714994, 0.8805834336592441, 0.16624105735272596, -0.9737304253177889, 0.6475409359315806, 0.2435801874243715, 0.09836535452903405, -0.226517369714496, -0.10050920010773651]]}, "weightsblank": {"0": [[0.0, 0.0, 0.0, 0.0, 0.0, 0.0, 0.0, 0.0, 0.0], [0.0, 0.0, 0.0, 0.0, 0.0, 0.0, 0.0, 0.0, 0.0], [0.0, 0.0, 0.0, 0.0, 0.0, 0.0, 0.0, 0.0, 0.0], [0.0, 0.0, 0.0, 0.0, 0.0, 0.0, 0.0, 0.0, 0.0], [0.0, 0.0, 0.0, 0.0, 0.0, 0.0, 0.0, 0.0, 0.0], [0.0, 0.0, 0.0, 0.0, 0.0, 0.0, 0.0, 0.0, 0.0], [0.0, 0.0, 0.0, 0.0, 0.0, 0.0, 0.0, 0.0, 0.0], [0.0, 0.0, 0.0, 0.0, 0.0, 0.0, 0.0, 0.0, 0.0], [0.0, 0.0, 0.0, 0.0, 0.0, 0.0, 0.0, 0.0, 0.0]], "1": [[0.0, 0.0, 0.0, 0.0, 0.0, 0.0, 0.0, 0.0, 0.0], [0.0, 0.0, 0.0, 0.0, 0.0, 0.0, 0.0, 0.0, 0.0], [0.0, 0.0, 0.0, 0.0, 0.0, 0.0, 0.0, 0.0, 0.0], [0.0, 0.0, 0.0, 0.0, 0.0, 0.0, 0.0, 0.0, 0.0], [0.0, 0.0, 0.0, 0.0, 0.0, 0.0, 0.0, 0.0, 0.0], [0.0, 0.0, 0.0, 0.0, 0.0, 0.0, 0.0, 0.0, 0.0], [0.0, 0.0, 0.0, 0.0, 0.0, 0.0, 0.0, 0.0, 0.0], [0.0, 0.0, 0.0, 0.0, 0.0, 0.0, 0.0, 0.0, 0.0], [0.0, 0.0, 0.0, 0.0, 0.0, 0.0, 0.0, 0.0, 0.0]], "2": [[0.0, 0.0, 0.0, 0.0, 0.0, 0.0, 0.0, 0.0, 0.0], [0.0, 0.0, 0.0, 0.0, 0.0, 0.0, 0.0, 0.0, 0.0], [0.0, 0.0, 0.0, 0.0, 0.0, 0.0, 0.0, 0.0, 0.0], [0.0, 0.0, 0.0, 0.0, 0.0, 0.0, 0.0, 0.0, 0.0], [0.0, 0.0, 0.0, 0.0, 0.0, 0.0, 0.0, 0.0, 0.0], [0.0, 0.0, 0.0, 0.0, 0.0, 0.0, 0.0, 0.0, 0.0], [0.0, 0.0, 0.0, 0.0, 0.0, 0.0, 0.0, 0.0, 0.0], [0.0, 0.0, 0.0, 0.0, 0.0, 0.0, 0.0, 0.0, 0.0], [0.0, 0.0, 0.0, 0.0, 0.0, 0.0, 0.0, 0.0, 0.0]]}, "biases": {"0": 1.0976233941157154, "1": 0.677902764886691, "2": -1.5457139186682407}, "biasesblank": {"0": 0.0, "1": 0.0, "2": 0.0}}