{"layers": [9, 9, 9, 9], "learning_rate": 0.001, "weights": {"0": [[0.2640931689436671, -0.4631023591495848, -0.5715125110278744, -0.30131701912189424, -0.12221987201234427, 0.05369993596989171, -0.2948440742333795, 0.1352588524378827, -0.6007222096030903], [-0.4304344413064741, -0.9370417862307989, -0.912331738503077, 0.09876151218891852, 0.9303799996627986, -0.6139185232453206, 0.25551119259244376, 0.44433208573914423, 0.81122743164427], [0.033154185316567504, -0.376666977391695, -0.974468591421501, 0.4149389373806362, -0.13936879659949694, 0.6767632961572717, 0.7723217253326476, 0.48009242258279966, -0.5126455966602099], [0.5514103308783651, -0.943866496100858, -0.8765365422432477, -0.9783522712003198, 0.8170990690127715, -0.943295056368057, 0.6859053670187647, -0.3240905669375763, -0.3745392888731271], [-0.24085530310659806, 0.5489630122219405, -0.18116367533345393, -0.5225291937628235, -0.46917566152200274, -0.23960913283823057, 0.8776118412302054, 0.20749183793622433, -0.6930505004216907], [0.08537274219610097, 0.6037398968483081, -0.06397620612668756, -0.42222790726568177, 0.5727379962517721, 0.5353175510976388, -0.6620685264598662, 0.2608254045555069, 0.07533378531177184], [-0.3637026634841953, -0.42311147929556264, -0.8732721883551267, 0.07261443379986995, 0.07694744102391891, 0.5179108749887127, -0.5903922282834316, 0.15954756523350078, 0.7261003269499474], [0.9414286087276162, -0.6565004462483608, 0.2865947341380345, 0.21147106641272947, -0.002012012382942353, -0.4880678871671648, 0.15859967016585738, 0.18672679415976873, -0.2926684595418181], [0.26756580783582473, 0.2430040778351541, -0.07585332256008237, -0.32250008162169796, 0.5136545460266628, -0.7094950357774581, -0.9399483221937321, -0.3024125689209824, 0.9770442648332157]], "1": [[1.0587278966658145, 0.6685903711780854, 0.395861990721317, 0.33590020874206067, -0.4704423068438745, -0.8637732488743687, 0.1464325430932681, 0.9327778025009503, -0.8334312250360386], [-0.41476909753585983, 0.6501076691954407, -0.8142711098549904, 0.3824209978911456, 0.3728334102260765, 0.5422374271014682, 0.19327085724393173, -0.4787807651867716, -0.3047552342834085], [-0.04879194805800101, -0.659351305095228, -0.12469664670583086, 0.32749628684006066, 0.12152837281662247, 0.0431739321877879, 0.5506538631289527, 0.6880506796884528, -0.3575703272712609], [-0.25729433433414506, 0.07669774767807282, 0.44731126393781667, 0.33425604723720426, -0.43525607370566666, -0.724736717932654, -0.4809589055720783, -0.6358380818848255, 0.27053818940931856], [0.20420922070608222, 0.6377703212187655, 0.5009969198767307, -0.5227320280083713, 0.9178502572509142, 0.3348591793301446, -0.3988230122601323, 0.25812655008576496, -0.4424741372086791], [-0.20404919874923777, 0.2645641303609842, -0.4121189488978342, 0.4726384883532349, -0.5456834626514775, -0.21964799462763684, 0.17703013079452545, 0.23744745120461583, 0.5765338745536689], [-0.8664407921204771, -0.2639975407062755, -0.8231998332739985, 0.3368028820406757, 0.5117607033355708, -0.681750537453401, 0.15682421341857267, -0.6431313922198753, -0.05084586866523077], [-0.12670172885114708, 0.9976686023146306, -1.0377795595168045, -0.3936906017373613, -0.12452830040272525, 0.41732317628395244, -0.20418331707895246, 0.06559972242502501, 0.8648771423354723], [0.9566714911672242, 0.41347996113343927, -0.5435399763884083, -0.47132425428745695, 0.1130981170278278, -0.09340493973646419, 0.6877118367441245, 0.9391324707924465, -0.039295678648229485]], "2": [[0.32039980602048873, -0.8606944624264872, -0.38247395969123327, -0.21580665780555738, -0.5701648800387444, -0.9626538192084988, -0.5468127466195992, -1.1920278726922837, -1.1628353891369616], [0.11241526108289744, 0.615200586608988, 0.1791133157262091, 0.7617727453616091, 0.37601576480514937, 0.6071188254629772, -1.0022546166235855, -0.7533822718497777, -0.11961327599682807], [0.745933338385734, 0.11941416542748386, -0.01358238180998649, -0.7722704854000904, -0.217668059041758, 0.10846181522326816, 0.5779975381427156, 0.4924161697456783, 0.4583220479014735], [-0.8188240522109782, -0.8738760978810384, -0.34364384876862564, -0.14956311700290065, -0.22897040730976825, 0.7102872424592701, 0.5570205823764414, -0.24398603200601918, -0.12517473441014962], [0.05774791388043604, 0.27893318233609404, 0.2311298889884561, -0.011356467171762958, 0.29263826479018135, -1.0113122791945492, -0.6064878066365882, 0.08957151667521984, 0.018928448281709108], [0.1812962161373412, 0.6492300263253424, 0.25558494620564254, -0.3854240810823049, -0.11292597692431036, -0.38620424616798743, -0.9904714988871001, -0.8219245958041432, -0.39511031149823655], [-0.2911887519821132, -0.2066657068849489, 0.13399672726789624, -0.9311553766182807, -0.9909997654315774, -0.3579949479900388, -0.31902589021381117, 0.42383805152361315, -0.1837463081676905], [-0.8189526518113653, 0.661949435340551, -1.0215858697418236, 0.6852520806556296, -1.1031796520305537, 0.11029463657856306, -1.03184308992462, 0.4867514281290193, -0.35391808529188135], [-0.5492914328177742, -0.8808673460384068, -0.9073030262387962, -0.8705742344460042, -0.01443046392711003, 0.5344670253453516, -0.7146305984414918, -0.4064997132588366, 0.08960568162401245]]}, "weightsblank": {"0": [[0.0, 0.0, 0.0, 0.0, 0.0, 0.0, 0.0, 0.0, 0.0], [0.0, 0.0, 0.0, 0.0, 0.0, 0.0, 0.0, 0.0, 0.0], [0.0, 0.0, 0.0, 0.0, 0.0, 0.0, 0.0, 0.0, 0.0], [0.0, 0.0, 0.0, 0.0, 0.0, 0.0, 0.0, 0.0, 0.0], [0.0, 0.0, 0.0, 0.0, 0.0, 0.0, 0.0, 0.0, 0.0], [0.0, 0.0, 0.0, 0.0, 0.0, 0.0, 0.0, 0.0, 0.0], [0.0, 0.0, 0.0, 0.0, 0.0, 0.0, 0.0, 0.0, 0.0], [0.0, 0.0, 0.0, 0.0, 0.0, 0.0, 0.0, 0.0, 0.0], [0.0, 0.0, 0.0, 0.0, 0.0, 0.0, 0.0, 0.0, 0.0]], "1": [[0.0, 0.0, 0.0, 0.0, 0.0, 0.0, 0.0, 0.0, 0.0], [0.0, 0.0, 0.0, 0.0, 0.0, 0.0, 0.0, 0.0, 0.0], [0.0, 0.0, 0.0, 0.0, 0.0, 0.0, 0.0, 0.0, 0.0], [0.0, 0.0, 0.0, 0.0, 0.0, 0.0, 0.0, 0.0, 0.0], [0.0, 0.0, 0.0, 0.0, 0.0, 0.0, 0.0, 0.0, 0.0], [0.0, 0.0, 0.0, 0.0, 0.0, 0.0, 0.0, 0.0, 0.0], [0.0, 0.0, 0.0, 0.0, 0.0, 0.0, 0.0, 0.0, 0.0], [0.0, 0.0, 0.0, 0.0, 0.0, 0.0, 0.0, 0.0, 0.0], [0.0, 0.0, 0.0, 0.0, 0.0, 0.0, 0.0, 0.0, 0.0]], "2": [[0.0, 0.0, 0.0, 0.0, 0.0, 0.0, 0.0, 0.0, 0.0], [0.0, 0.0, 0.0, 0.0, 0.0, 0.0, 0.0, 0.0, 0.0], [0.0, 0.0, 0.0, 0.0, 0.0, 0.0, 0.0, 0.0, 0.0], [0.0, 0.0, 0.0, 0.0, 0.0, 0.0, 0.0, 0.0, 0.0], [0.0, 0.0, 0.0, 0.0, 0.0, 0.0, 0.0, 0.0, 0.0], [0.0, 0.0, 0.0, 0.0, 0.0, 0.0, 0.0, 0.0, 0.0], [0.0, 0.0, 0.0, 0.0, 0.0, 0.0, 0.0, 0.0, 0.0], [0.0, 0.0, 0.0, 0.0, 0.0, 0.0, 0.0, 0.0, 0.0], [0.0, 0.0, 0.0, 0.0, 0.0, 0.0, 0.0, 0.0, 0.0]]}, "biases": {"0": 1.0537942374095681, "1": 1.4522806184269164, "2": -0.7361490814983234}, "biasesblank": {"0": 0.0, "1": 0.0, "2": 0.0}}