{"layers": [9, 9, 9, 9], "learning_rate": 0.001, "weights": {"0": [[-0.9054693514211161, -0.8917808657043821, 0.2877659581162128, -0.15183056418840238, 0.7458663651072281, -0.23835647489566683, 0.22455408460130766, -0.28344221337261705, 0.25998337812067857], [-0.2712497970592886, -0.5503296156235457, -0.04656287908223473, -0.03440739143622546, 0.8230652723883777, 0.561748501821729, -0.2687860573156112, 0.04435751559447891, 0.47890815721558466], [0.39968303414050765, -0.7357995626734858, 0.5399181688375437, 0.6000824307764392, -0.6264438869926827, -0.8621048846325433, 0.9404893506534273, -0.8593491032659966, 0.26611924439151546], [0.6347467880544648, -0.8185278075002997, -0.6588722053318204, 0.8161992932992861, 0.7757029045819013, 0.8883753838343441, -0.9759001827258011, 0.8303836077467539, -0.6349270839440703], [-0.054458818074467494, -0.40623917278700233, 0.8821011869329521, -0.09325461790563609, 0.9751367420419067, 0.9854446973105757, 0.035411685341874444, 0.4828125717691035, -0.3660296056004516], [0.2631841313208744, -0.47532588391734204, 0.1231406049452473, 0.6427001711114221, -0.5034007695603924, -0.6290428243743423, 0.19610555533115145, 0.8379094061717196, -0.3222957080901262], [-0.20108378530871737, -0.49398840428930957, -0.7248111534942836, -0.57452570585795, -0.5686276439973964, -0.7762951600048852, 0.2233454994667869, -0.7887718403120323, 0.38023036409248256], [0.8440581784666479, -0.3285210193645137, -0.7529846706377871, 0.814029080102688, -0.08542683466873023, 0.3262811221068663, 0.31893902477939823, -0.09396455146281019, -0.9241958825342038], [-0.11034472574253704, 0.37005379789092235, -0.7503405659018465, 0.9428460149997562, 0.15143845471484285, -0.5875020360175796, 0.5070749409740516, 0.4440711654708175, -0.01829057537901543]], "1": [[-0.155570138138894, 0.28266849516108067, 0.918706026311249, -0.5365269275334619, 0.018829450665006894, 0.14261452104826336, -0.7162572949864222, -0.15735900161022945, -0.8727738933617166], [-0.6902904918945537, -0.5196771510523195, 0.19542972667506517, -1.130814552870936, -0.13428313726967397, -0.7682707134217222, 0.26296630486015105, -0.7200817886102938, 0.12342302020571273], [-0.6417473983789922, -1.060639774143842, 0.4098341349834131, -0.705638102523941, -0.2877882526275507, 0.03967910143122031, -0.6424280492021022, -0.6752249164990237, -0.6882823148372065], [0.7917371307252157, -0.07459035159769754, -0.6056154447011863, 0.08502411361729319, 0.39934840191493587, -1.0513590169305222, -0.47947106659239946, 0.5943674810097278, 0.4647279079942807], [-0.11430317108525816, -0.014649384524859206, -0.491831515511465, 0.7162259208875605, 0.11548258832798419, -0.4376979272918129, 0.7013047995977092, -0.04042110984950035, -0.28545024518450896], [-0.9451140999532727, 0.7380476400571431, 0.5633763334750723, -0.7665147484952034, -0.07840428650794279, 0.6303377789951361, 0.526227104563749, 0.6385641089525098, 0.42060262081285765], [-0.4330250458990648, -0.13401167586137402, 0.6598771619949806, -1.0029103500351237, -0.7902719619877023, 0.009866780563641958, 0.4459504405163033, -0.07094916464584576, -0.4680409312902045], [0.37271218818576163, 0.4855257950938912, -0.9872394805182337, 0.20064839172043974, -0.8879683060888931, 0.6618050489117343, 0.29495519100526135, -1.0472557768343111, -0.5169984118476657], [-0.8544374702080805, 0.06896177778684301, 0.523115607508414, 0.8064796323203307, 0.43045537986692056, 0.1699161142063312, 0.5026231856715919, -0.41197401318075505, 0.15466638158123477]], "2": [[0.9882272941452606, 0.7592100437168016, -0.5972879231073137, -0.5574873581842256, 0.40986861361457616, 0.7222996762601398, 0.7875983855877069, 0.8760087998480565, 0.3157889545587636], [-0.03197294426318882, -0.2575286633012464, -1.1480551498784135, -0.38008587271570926, 0.2578629619831086, 0.28916183157673786, -0.664680443114191, 0.6400278470377693, -0.05008465570368018], [-0.13215401892656412, -0.47912064288244693, 0.43058312679471555, 0.38571922917097107, 0.45393038182708856, -0.9902448341786552, -0.5978842671944333, -1.0242918811109758, -0.4277309928634298], [-0.08208877036157695, 0.6279994594394259, 0.1388674557758469, 0.5408140544206167, 0.04902962984172094, 0.5787731489432618, 0.6420626892992349, 0.45520759322781623, -0.7680871454211283], [-0.10687499734146812, 0.12608848367387498, 0.6181981142667132, 0.6727658614285398, 0.06899535064664943, -0.16022101742950573, 0.28750856428403854, -0.08057573060261126, -0.574489713644898], [-0.13339729799006692, -0.5032570695117056, 0.5935364819849505, -0.692668941991524, 0.3063531396446336, 0.815635789983254, -0.8776534470231264, -0.11239437882749, -0.2103880587752651], [0.44235106390973417, 0.553079059880925, -0.7626766330313461, 0.3479164079429322, -0.930032555877189, 0.7114963226730185, 0.058875244169950575, 0.01416535867274163, -0.510539369765558], [-0.4619110607811319, -0.36175367762251875, 0.14157215449415023, 0.8174064550616332, -0.45428478605990247, -0.4481557162232492, 0.4736930762501835, -0.8406085009532709, 0.0672310977666118], [-0.6619755131137905, 0.054455290752442854, 0.5911327396604918, -0.2455947849142064, 0.4630913185562504, -0.621381007762598, -0.5696977805610373, -0.5344723959054295, -0.15733028759047846]]}, "weightsblank": {"0": [[0.0, 0.0, 0.0, 0.0, 0.0, 0.0, 0.0, 0.0, 0.0], [0.0, 0.0, 0.0, 0.0, 0.0, 0.0, 0.0, 0.0, 0.0], [0.0, 0.0, 0.0, 0.0, 0.0, 0.0, 0.0, 0.0, 0.0], [0.0, 0.0, 0.0, 0.0, 0.0, 0.0, 0.0, 0.0, 0.0], [0.0, 0.0, 0.0, 0.0, 0.0, 0.0, 0.0, 0.0, 0.0], [0.0, 0.0, 0.0, 0.0, 0.0, 0.0, 0.0, 0.0, 0.0], [0.0, 0.0, 0.0, 0.0, 0.0, 0.0, 0.0, 0.0, 0.0], [0.0, 0.0, 0.0, 0.0, 0.0, 0.0, 0.0, 0.0, 0.0], [0.0, 0.0, 0.0, 0.0, 0.0, 0.0, 0.0, 0.0, 0.0]], "1": [[0.0, 0.0, 0.0, 0.0, 0.0, 0.0, 0.0, 0.0, 0.0], [0.0, 0.0, 0.0, 0.0, 0.0, 0.0, 0.0, 0.0, 0.0], [0.0, 0.0, 0.0, 0.0, 0.0, 0.0, 0.0, 0.0, 0.0], [0.0, 0.0, 0.0, 0.0, 0.0, 0.0, 0.0, 0.0, 0.0], [0.0, 0.0, 0.0, 0.0, 0.0, 0.0, 0.0, 0.0, 0.0], [0.0, 0.0, 0.0, 0.0, 0.0, 0.0, 0.0, 0.0, 0.0], [0.0, 0.0, 0.0, 0.0, 0.0, 0.0, 0.0, 0.0, 0.0], [0.0, 0.0, 0.0, 0.0, 0.0, 0.0, 0.0, 0.0, 0.0], [0.0, 0.0, 0.0, 0.0, 0.0, 0.0, 0.0, 0.0, 0.0]], "2": [[0.0, 0.0, 0.0, 0.0, 0.0, 0.0, 0.0, 0.0, 0.0], [0.0, 0.0, 0.0, 0.0, 0.0, 0.0, 0.0, 0.0, 0.0], [0.0, 0.0, 0.0, 0.0, 0.0, 0.0, 0.0, 0.0, 0.0], [0.0, 0.0, 0.0, 0.0, 0.0, 0.0, 0.0, 0.0, 0.0], [0.0, 0.0, 0.0, 0.0, 0.0, 0.0, 0.0, 0.0, 0.0], [0.0, 0.0, 0.0, 0.0, 0.0, 0.0, 0.0, 0.0, 0.0], [0.0, 0.0, 0.0, 0.0, 0.0, 0.0, 0.0, 0.0, 0.0], [0.0, 0.0, 0.0, 0.0, 0.0, 0.0, 0.0, 0.0, 0.0], [0.0, 0.0, 0.0, 0.0, 0.0, 0.0, 0.0, 0.0, 0.0]]}, "biases": {"0": 1.1329813442237877, "1": -0.18840945523594796, "2": -1.8568627774407545}, "biasesblank": {"0": 0.0, "1": 0.0, "2": 0.0}}