{"layers": [9, 9, 9, 9], "learning_rate": 0.001, "weights": {"0": [[0.0005678981910975079, -0.19903722036568727, -0.6601045232280425, -0.945885606815613, -0.6138914776596462, -0.2512710910065313, -0.21520280414859708, -0.12584820809519345, -0.6224969439805987], [0.20115511494562674, 0.4014918370488684, 0.9921322682971071, -0.5866373148687103, -0.17319782881278753, 0.5054227651284444, 0.6900191293432064, 0.012863541201808137, -0.11087589195376404], [0.36119473107415534, -0.9194648369503192, 0.5014579101657656, 0.9079334209357222, -0.12091977100284015, -0.8299076013895659, 0.7171999883127697, 0.8398919692878952, 0.2005745412389621], [-0.5690182049272767, 0.30470251710650126, 0.7269742511044351, -0.4753159750353965, -0.44960992583139026, -0.8797223033776249, 0.2669996584781978, -0.20755113674363812, -0.7887401042598218], [-0.2884501555493795, -0.2975229719322641, -0.33946884826995266, 0.7616745749253311, -0.15738313750415361, -0.5304924834649305, -0.2545788214506465, 0.7973200763135218, -0.8735557720607289], [-0.631850583711599, 0.34332012361960323, -0.5710727067830894, -0.9134256121861983, -0.8954232673219388, -0.3996692255076778, -0.46571664809283775, 0.5036499702228617, 0.7739434017377609], [0.7087318583886517, -0.605114379626441, 0.9922016921321049, -0.5063409679580151, 0.19390499294834188, -0.21997098377130847, -0.34850285050522656, -0.5639195187728402, -0.6278081857709359], [-0.9731017516166135, 0.8031776111668406, -0.8424117488266042, -0.6789509142826895, -0.39240285032679434, -0.411892002163374, -0.5662731963184531, -0.5058075130965571, 1.0067456593449466], [-0.7311434740721372, 0.5967531664683777, -0.7173573898547374, -0.53900695952919, -0.6098502540895124, -0.8711848917910566, -0.49158455141644714, 0.8543277271779034, -0.013831709674736122]], "1": [[0.31280502477996885, -0.14176395675387207, 0.0018368782663479464, 0.21438838300261387, 0.1977558529833331, -0.9124252748639929, -0.12631840393095478, -0.21088731726531554, -0.15734722287210884], [0.2666756216410492, -0.717392942258855, 0.4356578177320119, 0.32781547452161564, 0.9092669054548927, -0.4344054892865818, 0.2596783988314289, 0.9826799589868779, 0.09993037131819645], [-0.7639300401471444, 0.707808272347248, -0.2802891063323595, 0.6635863848796326, 0.8245318663299179, -0.5742533750147837, 0.07786171010744988, 0.7299714725348236, 0.8660472924175432], [0.49640857002463157, 0.2655328957738707, 0.10004528095254592, -0.28176497072655954, -0.3752952456039517, 0.08850943597801676, 0.601912720229531, 0.13431782271626036, 0.9135216029651239], [-0.2685818568139377, 0.6643802281192513, -0.3640431856126219, -0.8255071690941141, -0.8975565644610324, -0.35694082776187663, 0.3814913579206972, 0.8015219416849264, -0.5951152284741595], [0.3580921347752271, -0.1510163092432475, -0.1031834269566519, 0.8966196015439847, -0.9353729209129902, -0.4910486513050641, -0.5349924966185012, 0.6325680164226303, 0.987239056178224], [0.7751089147370019, 0.8732035108300553, 0.16575188046377068, 0.06072353863682765, 0.23657966484215698, 1.0001674547493455, 0.980780052159352, -0.7328636741581025, 0.9342664218769625], [0.05158576060161191, -0.05363228308633765, 0.4465728229047039, 0.6453066299857049, -0.16125853514823527, 0.9017759818274221, -0.42881489890408364, 0.8894578869895959, -0.5437499691189467], [-0.2074708685195924, 0.39518324818998773, -0.12523806979764115, 0.6134639218123576, 0.10222723817719713, 0.9474122863117103, -0.49353185885537465, 0.19109260843916037, -0.08644612230374926]], "2": [[-0.5558632530895965, -0.6054083193080206, -1.1100752095467328, 0.07008867515195305, 0.16720546987394255, -0.2018157437849049, -0.8579304300099779, -0.9740313094291629, -0.8835674758269626], [-0.37592229184626597, -0.04040868531793483, -0.5503448208334586, 0.47335110164470723, 0.14997727690182514, -0.7362482592680127, 0.6636324392642059, 0.7623468077133301, -0.07333192708092262], [0.04228045335062532, 0.30081329831234555, 0.12199136099180835, 0.5864471623539842, 0.1269459531971247, -0.9322433542291922, -0.7721369512886521, -0.7764950557107114, -0.7701613728600455], [0.4497430418551072, -1.1049202909757931, -0.13665159927872483, -0.9939847941551887, -0.5988227284953933, 0.662122856557119, -0.35724396254240054, 0.3981675832803371, -0.8856774171910752], [-1.1341046996802657, -0.39580388750134077, 0.3703739350098252, -1.0599324527750664, -0.4875628745146718, -0.43185051039515865, 0.4241190581597988, -0.7258510675250582, -0.6754262553450279], [-0.19945932923396695, 0.5032860473020994, -0.6599232961726579, -0.15782459500846693, -0.5506919434273023, -1.1991630850052601, 0.4967003685272328, -0.9949610219792386, -0.14416373743956087], [-1.20842459486332, -0.45514529690480604, -0.030030417444987127, -0.26254373023751015, -0.40585431570276226, -0.8628527771212697, -1.217553615713928, -0.4937717311136928, -0.12452751450947024], [0.5221388634842512, 0.4424490086542372, -0.002414755719144864, -0.9830768728176126, -0.5578725416029046, 0.8446727256450148, -0.7319019863969773, -0.6088163461406801, -0.5185949114485449], [-0.2504805941398098, -0.4228654382212185, 0.5973441537493015, 0.4157486688558439, -0.11653608053795507, 0.6091690467203784, 0.49569751903345255, -0.4654715029536593, 0.06011832739383283]]}, "weightsblank": {"0": [[0.0, 0.0, 0.0, 0.0, 0.0, 0.0, 0.0, 0.0, 0.0], [0.0, 0.0, 0.0, 0.0, 0.0, 0.0, 0.0, 0.0, 0.0], [0.0, 0.0, 0.0, 0.0, 0.0, 0.0, 0.0, 0.0, 0.0], [0.0, 0.0, 0.0, 0.0, 0.0, 0.0, 0.0, 0.0, 0.0], [0.0, 0.0, 0.0, 0.0, 0.0, 0.0, 0.0, 0.0, 0.0], [0.0, 0.0, 0.0, 0.0, 0.0, 0.0, 0.0, 0.0, 0.0], [0.0, 0.0, 0.0, 0.0, 0.0, 0.0, 0.0, 0.0, 0.0], [0.0, 0.0, 0.0, 0.0, 0.0, 0.0, 0.0, 0.0, 0.0], [0.0, 0.0, 0.0, 0.0, 0.0, 0.0, 0.0, 0.0, 0.0]], "1": [[0.0, 0.0, 0.0, 0.0, 0.0, 0.0, 0.0, 0.0, 0.0], [0.0, 0.0, 0.0, 0.0, 0.0, 0.0, 0.0, 0.0, 0.0], [0.0, 0.0, 0.0, 0.0, 0.0, 0.0, 0.0, 0.0, 0.0], [0.0, 0.0, 0.0, 0.0, 0.0, 0.0, 0.0, 0.0, 0.0], [0.0, 0.0, 0.0, 0.0, 0.0, 0.0, 0.0, 0.0, 0.0], [0.0, 0.0, 0.0, 0.0, 0.0, 0.0, 0.0, 0.0, 0.0], [0.0, 0.0, 0.0, 0.0, 0.0, 0.0, 0.0, 0.0, 0.0], [0.0, 0.0, 0.0, 0.0, 0.0, 0.0, 0.0, 0.0, 0.0], [0.0, 0.0, 0.0, 0.0, 0.0, 0.0, 0.0, 0.0, 0.0]], "2": [[0.0, 0.0, 0.0, 0.0, 0.0, 0.0, 0.0, 0.0, 0.0], [0.0, 0.0, 0.0, 0.0, 0.0, 0.0, 0.0, 0.0, 0.0], [0.0, 0.0, 0.0, 0.0, 0.0, 0.0, 0.0, 0.0, 0.0], [0.0, 0.0, 0.0, 0.0, 0.0, 0.0, 0.0, 0.0, 0.0], [0.0, 0.0, 0.0, 0.0, 0.0, 0.0, 0.0, 0.0, 0.0], [0.0, 0.0, 0.0, 0.0, 0.0, 0.0, 0.0, 0.0, 0.0], [0.0, 0.0, 0.0, 0.0, 0.0, 0.0, 0.0, 0.0, 0.0], [0.0, 0.0, 0.0, 0.0, 0.0, 0.0, 0.0, 0.0, 0.0], [0.0, 0.0, 0.0, 0.0, 0.0, 0.0, 0.0, 0.0, 0.0]]}, "biases": {"0": 1.117944567199905, "1": 1.8801334219176427, "2": -0.05858458484512334}, "biasesblank": {"0": 0.0, "1": 0.0, "2": 0.0}}