{"layers": [9, 9, 9, 9], "learning_rate": 0.001, "weights": {"0": [[0.21973228381647203, 0.5605386608814513, -0.8409434074977118, -0.9457459553898179, 0.38029616042434516, -0.8819042032197101, -0.04411926776913555, -0.5792135835940955, -0.2448219220675584], [0.2620499572387721, 0.06372804801832013, -0.5997650124178785, -0.7144091060052775, -0.2439782970142669, -0.9443459414794401, -0.4929174311938929, -0.8264270630908381, -0.23765934696304933], [-0.6050562639825386, -0.04736387503464379, -0.5115100465027764, -0.13548266023608493, 0.1753530593979699, -0.879756948188131, -0.4577328148118121, 0.07847610848755972, -0.9467272726483185], [0.28994516589917835, -0.004640955575421206, -0.7688291347768923, -0.9991388011247424, -0.984648028564939, 0.2683886046249398, 0.7732108607026207, 0.02336726577611567, 0.7005059907995614], [-0.9114259180544384, -0.25860359816591477, -0.0031466688050369334, -0.6544224830732334, -0.6781893562751317, -0.6264591142918058, 0.5679275121555197, -0.9339443174726502, 0.8671374204698681], [-0.4125138350278583, 0.13177220715608642, 0.027035281079610934, -0.6519145554373521, -0.6016030441578951, -0.07162265966653598, 0.8610823700250574, -0.8132130421301971, 0.7837522465423351], [0.6421089710936398, 0.40434746680646316, 0.25465012601040016, 0.28568625870101494, -0.8704971490925564, 0.15309596748555113, 0.25058338525930735, 0.6276667389098289, 0.0680138403912344], [-0.21588738627550824, 0.829559698961959, -0.8979915181149343, 0.1604265185175775, 0.5432368827535243, -0.3200997795605492, -0.42705965393857676, -1.0094233220906836, -0.3677157192168675], [0.03935490298064614, 0.13346319256070885, -0.528063364358129, 0.1803414787935789, 0.8820431328325117, 0.8466824582340025, 0.1230748362969292, -0.1101994187650058, -0.3128578762661226]], "1": [[-0.13796605602628806, -0.9040817285409914, 1.035945096796257, -1.0792555287078949, 0.7927837351984093, 0.7612695746620292, -0.7789409899830597, 0.5623842320359579, 0.7173320917704983], [-0.5270978076353542, -0.9305717856585033, 0.43943821703770386, -0.019178467885172825, -0.8162580122822884, 0.9701773882605346, -0.8621949379955325, -0.5894743624119629, 0.15361243331616292], [0.6384620563900043, -0.34787429978895157, -0.1086369083146404, 0.24774629716201535, -0.786448450297114, 0.14179464449511822, 0.30339332836452987, 0.8765240024157709, 0.6788598991710599], [0.672070764387682, -0.5322264613882803, -0.42240516243892456, -0.8390589935890199, -0.3194533252057443, -0.7054694367242493, 0.8543089717296408, 0.5339462415279188, -0.17673090105503234], [-0.5497162591645495, 0.49452483276239234, 0.7964983704929594, 0.13998875533130872, -0.266766637140772, -0.1897704631030373, 0.7832573752920423, -0.17539097589023775, -0.5793087394633535], [-0.42739559329146926, -0.7963716926121305, -0.187074208633863, -0.4569485237073671, -0.46222006735514043, 0.8699973116975318, 0.612944371799282, -0.8761093383272749, 0.22606691157882602], [-0.9479907303674523, 0.9422610616801247, 0.7392744524444905, -0.960069084346622, -0.831046034984492, -0.3140086547684006, -0.2872410620658605, 0.014439443901319224, 0.08549803380966804], [-0.9318243054205944, -0.580916294611082, 0.676141453599191, -0.6180185914247543, -0.9708500065828697, 0.6452606939190074, 0.5864253367629371, 0.37339775597434877, -0.9178763611850809], [-0.7662144469117047, 0.3816739707308266, -0.743602459946258, -1.050250523001923, 0.6990527211143339, 0.6861726242035501, 0.11150275588898986, 0.8382727580590376, -1.1147278802068243]], "2": [[-0.24734292447545309, 0.8274640846552821, 0.1054714776076883, -0.17809253940551675, 1.1243409525940402, -0.505591655690589, 0.16789642896972162, -0.6667163224672094, -0.22001331146306943], [-0.4818463869994241, -0.15621481088084455, 0.2821202014687024, 0.6107995393515163, -0.7681022267431041, 0.7728648145133138, 0.2768842783768608, -0.9630620528249484, -0.5035487138329837], [-0.9295242665073626, -0.9284913036767782, 0.07111908976829409, -0.10137695672042657, -0.7197049066370713, -1.0193374941998286, -0.3811908901635994, -0.9746203907276272, 0.9446109741976494], [-0.6813312036717387, -0.021272493634398214, -0.08797484699233867, -0.4029797126650154, -0.1471798593038365, -0.03260417778277035, 0.44341279088508107, 0.004025947484601058, 0.9133992770481764], [-0.7457566611204505, 0.7110691913402524, -0.06518989730382052, -0.5516823090589908, 0.6377411113783185, 0.5683817977064549, 0.17157289943902673, 0.15402619305504556, -0.1752055286649532], [0.7151449299467214, -0.9551522545189514, -0.7544118309477343, -0.9846073193634428, 0.03429027100695531, -0.12734052043585653, 0.39883588376180223, 0.3041044477203667, -0.6080672488536747], [-0.19606008632563654, 0.5233384577167194, -0.7936368836216531, 0.048003112080832, 0.16433561418154397, 0.49220477385385747, -0.9249526403117093, -0.6198303340463595, -0.4805484504794807], [-0.7760961833955672, -0.4126141124854873, 0.6005335920440704, 0.14521035382787928, -0.9775327246742619, -0.34479150756995947, -0.798778966934563, -1.0356449986899765, -0.568517566431989], [0.8580121965546048, -0.6516597380274447, -0.5758663675027212, 0.5004687521494394, 0.5902949212502925, 0.03457178497373729, 0.8649061242021224, -0.6401715623588569, -0.4244246661978108]]}, "weightsblank": {"0": [[0.0, 0.0, 0.0, 0.0, 0.0, 0.0, 0.0, 0.0, 0.0], [0.0, 0.0, 0.0, 0.0, 0.0, 0.0, 0.0, 0.0, 0.0], [0.0, 0.0, 0.0, 0.0, 0.0, 0.0, 0.0, 0.0, 0.0], [0.0, 0.0, 0.0, 0.0, 0.0, 0.0, 0.0, 0.0, 0.0], [0.0, 0.0, 0.0, 0.0, 0.0, 0.0, 0.0, 0.0, 0.0], [0.0, 0.0, 0.0, 0.0, 0.0, 0.0, 0.0, 0.0, 0.0], [0.0, 0.0, 0.0, 0.0, 0.0, 0.0, 0.0, 0.0, 0.0], [0.0, 0.0, 0.0, 0.0, 0.0, 0.0, 0.0, 0.0, 0.0], [0.0, 0.0, 0.0, 0.0, 0.0, 0.0, 0.0, 0.0, 0.0]], "1": [[0.0, 0.0, 0.0, 0.0, 0.0, 0.0, 0.0, 0.0, 0.0], [0.0, 0.0, 0.0, 0.0, 0.0, 0.0, 0.0, 0.0, 0.0], [0.0, 0.0, 0.0, 0.0, 0.0, 0.0, 0.0, 0.0, 0.0], [0.0, 0.0, 0.0, 0.0, 0.0, 0.0, 0.0, 0.0, 0.0], [0.0, 0.0, 0.0, 0.0, 0.0, 0.0, 0.0, 0.0, 0.0], [0.0, 0.0, 0.0, 0.0, 0.0, 0.0, 0.0, 0.0, 0.0], [0.0, 0.0, 0.0, 0.0, 0.0, 0.0, 0.0, 0.0, 0.0], [0.0, 0.0, 0.0, 0.0, 0.0, 0.0, 0.0, 0.0, 0.0], [0.0, 0.0, 0.0, 0.0, 0.0, 0.0, 0.0, 0.0, 0.0]], "2": [[0.0, 0.0, 0.0, 0.0, 0.0, 0.0, 0.0, 0.0, 0.0], [0.0, 0.0, 0.0, 0.0, 0.0, 0.0, 0.0, 0.0, 0.0], [0.0, 0.0, 0.0, 0.0, 0.0, 0.0, 0.0, 0.0, 0.0], [0.0, 0.0, 0.0, 0.0, 0.0, 0.0, 0.0, 0.0, 0.0], [0.0, 0.0, 0.0, 0.0, 0.0, 0.0, 0.0, 0.0, 0.0], [0.0, 0.0, 0.0, 0.0, 0.0, 0.0, 0.0, 0.0, 0.0], [0.0, 0.0, 0.0, 0.0, 0.0, 0.0, 0.0, 0.0, 0.0], [0.0, 0.0, 0.0, 0.0, 0.0, 0.0, 0.0, 0.0, 0.0], [0.0, 0.0, 0.0, 0.0, 0.0, 0.0, 0.0, 0.0, 0.0]]}, "biases": {"0": 1.3236265053556677, "1": 0.04409600114232888, "2": -1.0778933396401855}, "biasesblank": {"0": 0.0, "1": 0.0, "2": 0.0}}