{"layers": [9, 9, 9, 9], "learning_rate": 0.001, "weights": {"0": [[0.6189715156234228, -0.6673880378886209, -0.26117697868925965, -0.9184836349836832, -0.5767100977513399, -0.9512004455844554, -0.5688813685591921, -0.31678251325718637, -0.3292658243781497], [0.46382025326799137, 0.4623239143558286, 0.44845022318457994, 0.40539545377489505, -0.03218462510155704, -0.2967989869415648, 0.6956853800266086, 0.4916748461341452, 0.7341589993000923], [0.24849092384944088, -0.16079693145033852, -0.11996726467698011, -0.35156551110271067, -0.5603893447460337, 0.7171214197612836, 0.6467260815622359, 0.7128264188765412, -0.0703412673404915], [0.3392463045256646, 0.6509306578855246, 0.39912787460134447, -0.5166833349311744, -0.7821167262356113, 0.7545559510022042, -0.745236722484819, 0.2734738023305984, -0.8310518927961499], [0.021374989932962506, 1.0038691383384282, 0.0658519759939176, -0.19121590570052013, 0.9391293331750575, 0.6296556764722033, 0.2688495147842885, 0.4487829066971371, 0.23606147159704421], [0.1556405794784029, 0.08994879367928581, -0.5181973374374252, 0.7982499309410303, -0.35518026317610146, 0.5784736775766444, -0.06255630911951256, 0.3202259231550057, -0.9658796333108888], [-0.9020651785728442, -0.29889989255790983, -0.7486669888713356, 0.48998144209280575, -0.9696727101371719, -0.4674534372649205, -0.6701315301473691, 0.45967433803972263, 0.671703652289006], [0.5799147611059176, 0.1915078928538973, 0.2814848705474605, 0.9012746395494294, 0.381303543102948, -0.860683213174042, -0.09234746258265007, 0.3937433859282981, -0.8825496574850514], [-0.41377021774455136, -0.05394558891112438, 0.5833500378876846, -0.5433690250921254, 0.6871952459925496, 0.8690040795897888, -0.4650219294412627, 0.21710804500872358, -0.5699055708068845]], "1": [[-0.3605232313659671, 0.5517304295004382, 0.7563444127021409, -0.611908276173778, 0.2217213729535121, -0.7075250201591126, 0.3025404907071906, 0.7849746188191127, -0.8751603932281269], [-0.023323289643190456, -0.0011444467731616596, -0.9280163132774787, 0.692013588242702, 0.7900185822479242, 0.25721707322733817, 0.6505179592065063, 0.5737117299850242, 0.7450407126223301], [-0.2917274746289459, 0.02904735161023196, -0.010139378726997165, -0.42290792893935775, 0.8798520649949204, 0.7913830674031344, 0.8307453871936015, -0.7982468394031983, 0.6723783910780494], [0.5032752954340114, 0.7521032970051963, -0.6388364812749043, 0.2680223720939905, -0.6107126768006592, -0.07673400843105962, -0.16196214781132642, -0.6851378543722103, -0.9054164644586383], [0.09512040234601793, -0.5248614308360157, 0.3321107469107688, 1.0004293910351334, 1.0368652256708442, 0.39536993249292407, 0.6330676328772353, -0.38284735169379486, 0.29805542180457134], [0.14261147672500005, 0.2885570155230116, -0.02923408644029024, 0.581496328805022, -0.49412351537926236, -0.5961754400986911, -0.5086755226460942, -0.7141914636035294, -0.0633062315333745], [-0.09501728989115679, -0.6403086988961325, 0.49409094051382085, -0.6138668775122818, -0.7436386520049822, -0.026494315437325618, 0.08257535104959814, -0.915469593035684, 0.8722099536575266], [-0.049837192648128845, -0.33518143640849446, 0.05797988476280201, -0.7842474953473442, -0.40328034351946573, -0.6263459711162213, -0.5695157981895534, -0.08453941105581501, 0.13148531870951616], [0.2747228545103261, -0.027899264004245777, -0.14315214917884936, -0.36852968318593254, 0.20075032383675614, 0.8314540448818003, -0.7641423410776154, 0.5495686653037214, 0.6725316294998838]], "2": [[-0.421056682738142, -0.11725509491198692, 0.15869042859677282, -0.016317746027514006, -0.9431237177186653, -1.4022707219858224, -0.7100986305643932, -0.5773749469133063, -0.23569707541610083], [-0.578332611179324, 0.5202092906283119, -0.661198235018599, -0.09820601994921385, 0.20688150853495932, -0.5345092545115008, -1.1760661246304234, -1.0635342854449494, -0.5919366013906725], [-0.8949958676928683, 0.24891068692590224, -1.141731709735736, -0.12566972003057117, -0.2929413900957137, 0.43707778882976084, -0.7067222087063038, 0.06739901026906644, -0.7927672128535862], [0.7129135250317676, 0.1600322054386583, -0.5467239669820754, 0.4178887227301427, 0.4812140211906959, 0.16300004191254736, 0.050124460605573996, -0.9452431322709612, 0.4841013507526619], [-0.0273949143570113, 0.3790505450834994, 0.7784604618569769, -0.4720569103014208, 0.209613216033532, 0.09136338565646976, 0.3703811714165292, 0.7846043893670346, -0.44556668555803947], [-0.8885892284731415, -0.8005155066426688, -0.6715314364626734, -0.5650886147092394, -0.3486644369675436, 0.31007429171024625, -0.08297394053352844, 0.11001207563651455, 0.5042748209000879], [0.7592899505269017, -0.9192253090098359, 0.2875554625778912, 0.3969340839355965, -0.9390873868501491, 0.1295483317701153, 0.5999197189204455, 0.2121522167200336, -0.42154531243811744], [-1.0577043131343988, -0.3182903704609242, -0.49097573589860716, -0.3452607569810252, 0.16160087078611643, 0.43419089882375617, 0.3593286726379228, -0.9718925103703053, -1.1273500120613484], [0.09549447560076126, 0.012510867637624599, 0.2727406433682423, -0.967701458625046, -0.9652760226445263, -0.4279494660631942, -0.3691796184338126, 0.4641399013931432, 0.3873870090502626]]}, "weightsblank": {"0": [[0.0, 0.0, 0.0, 0.0, 0.0, 0.0, 0.0, 0.0, 0.0], [0.0, 0.0, 0.0, 0.0, 0.0, 0.0, 0.0, 0.0, 0.0], [0.0, 0.0, 0.0, 0.0, 0.0, 0.0, 0.0, 0.0, 0.0], [0.0, 0.0, 0.0, 0.0, 0.0, 0.0, 0.0, 0.0, 0.0], [0.0, 0.0, 0.0, 0.0, 0.0, 0.0, 0.0, 0.0, 0.0], [0.0, 0.0, 0.0, 0.0, 0.0, 0.0, 0.0, 0.0, 0.0], [0.0, 0.0, 0.0, 0.0, 0.0, 0.0, 0.0, 0.0, 0.0], [0.0, 0.0, 0.0, 0.0, 0.0, 0.0, 0.0, 0.0, 0.0], [0.0, 0.0, 0.0, 0.0, 0.0, 0.0, 0.0, 0.0, 0.0]], "1": [[0.0, 0.0, 0.0, 0.0, 0.0, 0.0, 0.0, 0.0, 0.0], [0.0, 0.0, 0.0, 0.0, 0.0, 0.0, 0.0, 0.0, 0.0], [0.0, 0.0, 0.0, 0.0, 0.0, 0.0, 0.0, 0.0, 0.0], [0.0, 0.0, 0.0, 0.0, 0.0, 0.0, 0.0, 0.0, 0.0], [0.0, 0.0, 0.0, 0.0, 0.0, 0.0, 0.0, 0.0, 0.0], [0.0, 0.0, 0.0, 0.0, 0.0, 0.0, 0.0, 0.0, 0.0], [0.0, 0.0, 0.0, 0.0, 0.0, 0.0, 0.0, 0.0, 0.0], [0.0, 0.0, 0.0, 0.0, 0.0, 0.0, 0.0, 0.0, 0.0], [0.0, 0.0, 0.0, 0.0, 0.0, 0.0, 0.0, 0.0, 0.0]], "2": [[0.0, 0.0, 0.0, 0.0, 0.0, 0.0, 0.0, 0.0, 0.0], [0.0, 0.0, 0.0, 0.0, 0.0, 0.0, 0.0, 0.0, 0.0], [0.0, 0.0, 0.0, 0.0, 0.0, 0.0, 0.0, 0.0, 0.0], [0.0, 0.0, 0.0, 0.0, 0.0, 0.0, 0.0, 0.0, 0.0], [0.0, 0.0, 0.0, 0.0, 0.0, 0.0, 0.0, 0.0, 0.0], [0.0, 0.0, 0.0, 0.0, 0.0, 0.0, 0.0, 0.0, 0.0], [0.0, 0.0, 0.0, 0.0, 0.0, 0.0, 0.0, 0.0, 0.0], [0.0, 0.0, 0.0, 0.0, 0.0, 0.0, 0.0, 0.0, 0.0], [0.0, 0.0, 0.0, 0.0, 0.0, 0.0, 0.0, 0.0, 0.0]]}, "biases": {"0": 0.9615501295222302, "1": 1.6466877912027378, "2": -0.6842745816593798}, "biasesblank": {"0": 0.0, "1": 0.0, "2": 0.0}}