{"layers": [9, 9, 9, 9], "learning_rate": 0.001, "weights": {"0": [[0.5404861535159149, -0.9230521417921693, 0.24497098642595594, -0.23945484898680502, 0.4628984932296096, -0.6318282870718812, -0.44869801074520865, 0.841707636522505, 0.6131702267434952], [0.12190889087335251, -0.6490863168356058, -0.8535165355063503, 0.8973404712265978, -0.9837387130781224, -0.803300251961314, 0.397935673155149, -0.9911531914555702, -0.6472061954338005], [-0.49742591108015827, -0.07681012006533962, -0.9847473624150839, 0.14877078181817957, 0.6838903365365008, -0.5346752136066311, -0.9746763730830303, 0.022454657128397056, -0.3765771722681056], [0.06865928807336695, -0.12470858663017377, -0.9256295448718707, 0.817881089836132, -0.802513096089371, 0.6715213550366527, -0.5445954013774734, 0.18391591751353892, 0.08716387936285451], [-0.9668045978170374, -0.4902593511190869, -0.40781607473772125, 0.45249814197227006, -0.9355264798471095, 0.17255885762141235, 0.8194217473073759, 0.006164940741028118, -0.04838250256396464], [0.7361957873603584, 0.40878586166268793, -0.3244266412807992, -0.46300077058260125, 0.34505586528238297, 0.8092278667882562, 0.8329782023789595, 0.15416505929011448, 0.757530752552419], [0.7673997087793473, -0.8767257978971027, -0.15655628569353613, -0.5632474596370523, 0.5541068051059233, 0.9368880354086171, -0.4059185798991787, -0.8455262866900678, 0.3464003889591599], [-0.044173009265817964, -0.2949863282232612, -0.7858423270339561, -0.10411617563732262, 0.11853020907173992, 0.7468729176425174, 0.6879246112436561, 0.06007082215903345, 0.9571786207886047], [0.5184394393179357, -0.006914344765308565, -0.46132313325289964, 0.9217394784864615, 0.4848774005261838, -0.3145251192129817, 0.050297382239567555, -0.2663573913177504, 0.1634851189674718]], "1": [[1.0490651748481892, 0.03477255228316675, -0.18902908958283848, -0.38415888629278117, -0.4373126946287679, 0.5998473714051618, -0.26999049457729396, 0.8127757599108578, 1.0124246252222053], [0.7756869140577595, 1.0683430149699198, 0.368096810506986, -0.9075699371561228, 0.147575573595959, 0.5607390925307316, 0.1519961361318479, 0.023820959817854113, -0.5572786529552108], [-0.6970370861579931, -0.701858094974276, 1.139449447838859, 0.8168649611294428, -0.15001331862694706, 0.4873898455183429, 0.5149961016434154, -0.5966050072933332, -0.41645012800886905], [-0.6037641323469205, -0.04041676213554434, -0.40464492569834276, 0.5920487199320075, 0.21239885442279324, -0.7630577712995353, 0.5225616995472415, 0.26495683221892496, -0.7650010916297794], [-0.3784081643537545, -0.6251356991599237, -0.2408057586784522, 0.0019475711378583232, -0.5340948697670325, -0.6173026403867936, 0.09795853999758701, 0.9381274523772605, 0.8065106318277938], [0.3738811659655565, -0.327844398824469, -0.46757487735428277, 0.7228274853945941, 1.0154512779599838, -0.6084152932020979, -0.3485206103820691, 1.0038733652330285, 0.9300546665319271], [-0.10809043504409924, -0.43476147642463997, 0.911458267272505, 0.6826117288569168, 0.5365859753361558, 0.9988853818256476, 0.09698238267891479, 0.7101136827802585, -0.3068306375309065], [-0.17348182517659957, 0.9161675122193317, -0.7103040005137162, 0.7903117287370243, -0.2551099749029711, -0.3071641905641642, 0.49358782756846364, 0.29715835286652775, 0.08491183175979941], [0.23809730110047256, 0.2274680277115232, -0.6294609940267557, -0.33766254731206424, 0.9230092672198731, -0.31906517743286716, 0.337576677290865, 0.833375509669214, 0.5197141010747997]], "2": [[-0.6387594611435508, -0.7756084244374343, -0.11831594613507655, -1.2238890777386766, -0.331034554419389, 0.6338044255254708, 0.3989728086906067, -0.6606291158606953, -0.6420381681732331], [-0.8868503139522875, 0.19777442739381632, -0.06160303135073923, 0.47665375566009843, -1.1086785886984443, -0.3773507538760357, -0.23917978655936617, 0.12164127120478861, -0.8223118143173747], [-0.07816199341087453, 0.27680544171617083, -0.5824809827326445, -0.9489192537589136, -1.304908162951423, 0.16860406661680372, -1.255103470270315, -0.744653639360394, 0.12994746905990023], [-0.8228095271477617, -0.5688030346991428, -0.6178655497151601, -0.9349294657875996, -0.0699616510624482, -0.7792880593423156, -0.13203157160356033, -0.45588877777658443, -0.9300782928925275], [-1.0271865581122805, -1.225541642736393, -0.4593637871641625, 0.7292853506112197, 0.534626214407598, -0.5628550520617653, -0.3197119052276177, -0.17530498157384228, 0.2843922338764876], [0.44702639733018334, -0.19252046190563746, -1.2638997046755596, -1.1498158087581092, -1.0423929486509433, -1.3310870597740274, -0.21308900123313332, -0.5759880667189368, 0.08820227332994364], [0.5376985799105412, 0.051340234490999545, 0.282767845874244, 0.5897724549690367, -0.3318975136097714, -0.43196030373662786, -0.417621254948749, -0.8663742138740891, 0.014585680711221634], [-0.3779885085310776, -0.9961335823199223, -0.2369341249120581, 0.4139676939815696, 0.4056884570600325, 0.8053349634361113, 0.3974549206387786, -0.8445738964361351, 0.020647822922858137], [0.2683424220487097, 0.5441007343092595, 0.6040317922051245, -0.7503013102664682, 0.42589095503156177, -1.0019498730405991, -0.6254782668436638, 0.9847894470294054, -0.8068467916558579]]}, "weightsblank": {"0": [[0.0, 0.0, 0.0, 0.0, 0.0, 0.0, 0.0, 0.0, 0.0], [0.0, 0.0, 0.0, 0.0, 0.0, 0.0, 0.0, 0.0, 0.0], [0.0, 0.0, 0.0, 0.0, 0.0, 0.0, 0.0, 0.0, 0.0], [0.0, 0.0, 0.0, 0.0, 0.0, 0.0, 0.0, 0.0, 0.0], [0.0, 0.0, 0.0, 0.0, 0.0, 0.0, 0.0, 0.0, 0.0], [0.0, 0.0, 0.0, 0.0, 0.0, 0.0, 0.0, 0.0, 0.0], [0.0, 0.0, 0.0, 0.0, 0.0, 0.0, 0.0, 0.0, 0.0], [0.0, 0.0, 0.0, 0.0, 0.0, 0.0, 0.0, 0.0, 0.0], [0.0, 0.0, 0.0, 0.0, 0.0, 0.0, 0.0, 0.0, 0.0]], "1": [[0.0, 0.0, 0.0, 0.0, 0.0, 0.0, 0.0, 0.0, 0.0], [0.0, 0.0, 0.0, 0.0, 0.0, 0.0, 0.0, 0.0, 0.0], [0.0, 0.0, 0.0, 0.0, 0.0, 0.0, 0.0, 0.0, 0.0], [0.0, 0.0, 0.0, 0.0, 0.0, 0.0, 0.0, 0.0, 0.0], [0.0, 0.0, 0.0, 0.0, 0.0, 0.0, 0.0, 0.0, 0.0], [0.0, 0.0, 0.0, 0.0, 0.0, 0.0, 0.0, 0.0, 0.0], [0.0, 0.0, 0.0, 0.0, 0.0, 0.0, 0.0, 0.0, 0.0], [0.0, 0.0, 0.0, 0.0, 0.0, 0.0, 0.0, 0.0, 0.0], [0.0, 0.0, 0.0, 0.0, 0.0, 0.0, 0.0, 0.0, 0.0]], "2": [[0.0, 0.0, 0.0, 0.0, 0.0, 0.0, 0.0, 0.0, 0.0], [0.0, 0.0, 0.0, 0.0, 0.0, 0.0, 0.0, 0.0, 0.0], [0.0, 0.0, 0.0, 0.0, 0.0, 0.0, 0.0, 0.0, 0.0], [0.0, 0.0, 0.0, 0.0, 0.0, 0.0, 0.0, 0.0, 0.0], [0.0, 0.0, 0.0, 0.0, 0.0, 0.0, 0.0, 0.0, 0.0], [0.0, 0.0, 0.0, 0.0, 0.0, 0.0, 0.0, 0.0, 0.0], [0.0, 0.0, 0.0, 0.0, 0.0, 0.0, 0.0, 0.0, 0.0], [0.0, 0.0, 0.0, 0.0, 0.0, 0.0, 0.0, 0.0, 0.0], [0.0, 0.0, 0.0, 0.0, 0.0, 0.0, 0.0, 0.0, 0.0]]}, "biases": {"0": 0.9589212290186292, "1": 2.7318242727746824, "2": 0.4998344568920622}, "biasesblank": {"0": 0.0, "1": 0.0, "2": 0.0}}