{"layers": [9, 11, 9], "learning_rate": 0.01, "weights": {"0": [[0.9503701638436683, -0.3275438990505515, 2.404871779772409, -1.8530686295167824, -0.5594625300621916, -1.3965780544153903, -0.08644064179223065, -2.2722699475787578, -4.2957457997193345, 2.8944771985612676, 1.0214094627706878], [-0.3414007669051999, 0.3016684879461415, 1.6652521987551854, -1.2391723396895904, -0.4516385433940535, 3.8662949429713, -0.9782727581683467, 0.7583824429904782, -1.3974534330037993, 1.2503524562629096, 1.211771675687248], [1.7632703672590213, -0.7832914454997735, 1.2339971511398562, -0.5807420615914876, -0.7781923108565068, -0.9642290727642077, -4.902146370160398, 0.2180473272532256, -0.11620759017095499, -2.578279968537398, 3.1560733391064204], [1.6234414319712782, -0.06753782490792076, 1.5757378502142958, -0.13887166219176525, 0.4167889438920888, 0.6875915589684565, 1.1748068678577681, -0.18769635770884166, -1.9596465400380858, -0.29266232957578764, -2.614736156830388], [1.1444600036027615, -0.10829210867217606, -0.16633127500918432, 0.5378403008177106, 0.12478823856204176, 0.24540062698741819, -0.28951039108937626, -0.08689178114601087, -0.8215316128399002, -0.13538937387991043, -0.9273371427603642], [1.0842694592588737, 0.22288407133166183, -2.296162155094067, 2.8454972858474816, -0.9080649059682945, -0.5305923407486262, -1.8495690499154431, -1.125059880809968, 0.4802248144219252, 0.5861813531209628, 1.2684388766201786], [-0.9839578388166976, 0.07146594053926468, 0.16221879703438666, 0.5391635194929878, -2.878758428198906, -0.7192319218790784, 2.289968690090133, 2.0796851034961445, 0.921666633245311, -1.6021530261972383, -3.9842753297655835], [-1.101656351486545, -0.5575104987019197, -0.9466321004107293, 0.14913270203433093, 2.2161604290858787, -0.8344863025683886, 1.3500384077462042, 0.26948500198240255, 1.3716957425857643, -0.12875033459947122, -0.9745702200255757], [-1.2565823107559517, 3.7726520920213913, -2.970661177000941, -0.0660147724788561, 1.0484052661763406, -1.30736242218242, 0.7108552794803511, -2.6127613019948526, 1.819935194441312, 0.2619179441909089, -0.6779039938997252]], "1": [[0.2090682009678906, 0.42526834719558027, -0.8223118584862354, -2.7685653809272304, -1.115910157623231, -2.0252390991662197, 0.5331431435715862, -2.439664199152042, 1.2881993908963079], [-0.7383693317048274, -2.1062535069491335, 0.5060473948010128, -1.1310760793358468, -0.3226043217145231, 0.7213368086915695, -0.7832316070077425, 2.936655526707867, -4.440278454627755], [-0.85828998428939, 2.3766698260011903, -0.6325216235297002, 2.085821774046081, -0.6518937323594598, -3.1478451280346, -1.053322456491722, -1.9313708604324928, -4.042801126003717], [-0.14712702424289664, -2.1263575010623406, 1.890109830599359, -2.2985676744383654, -1.2464760998742104, -2.1419207208512954, -0.8072423146190538, -0.3953119176385467, 0.7197927540215047], [0.30466803788340474, -0.49906890900810125, 0.3972898698643918, -1.3253423885229785, 0.046793287346505265, -0.287490466834379, 2.896849855808515, -3.323535865156213, -0.8631209560470491], [2.320393062058782, -3.149633393620687, 1.2754678426717194, -1.5136250748036433, -0.8420676724415711, -1.0470921270781153, 0.3101385333988564, 0.14742792840911476, 0.3417042239495631], [-0.41194451326673015, -2.091339806052558, -5.2392816724317015, 0.8410115453783197, -1.6362117751447873, -2.8356854984914786, 0.3485844750412559, 0.446585015013679, 1.1727533358482165], [2.3338296601934134, -2.4759838195600703, -0.7305902355543604, -0.31624834095466725, 0.4224752141963676, -1.2514059222025335, -2.215918429947924, -0.8884223704276011, 0.6221088789647826], [-4.22187185413466, -2.2187167713551417, -1.0413885780775864, -1.613110123091366, -0.6283974922258281, 0.7349585540879296, -0.22810621868735978, 0.4640689279142692, 1.4908084903357994], [-3.0467481465357125, -1.301186375075764, 3.5382209535740627, -0.17957690990815037, -0.23207342463034206, -1.479384646852234, 0.9486723904670571, -1.3077289883679513, -0.3365511049789607], [0.30250181113196556, 1.1184681366845266, -1.5418619081419371, -2.853858151743143, -1.6667632822629321, 2.8416336165859004, -4.545330849896591, -3.367359969970342, -0.5868590666108228]]}, "weightsblank": {"0": [[0.0, 0.0, 0.0, 0.0, 0.0, 0.0, 0.0, 0.0, 0.0, 0.0, 0.0], [0.0, 0.0, 0.0, 0.0, 0.0, 0.0, 0.0, 0.0, 0.0, 0.0, 0.0], [0.0, 0.0, 0.0, 0.0, 0.0, 0.0, 0.0, 0.0, 0.0, 0.0, 0.0], [0.0, 0.0, 0.0, 0.0, 0.0, 0.0, 0.0, 0.0, 0.0, 0.0, 0.0], [0.0, 0.0, 0.0, 0.0, 0.0, 0.0, 0.0, 0.0, 0.0, 0.0, 0.0], [0.0, 0.0, 0.0, 0.0, 0.0, 0.0, 0.0, 0.0, 0.0, 0.0, 0.0], [0.0, 0.0, 0.0, 0.0, 0.0, 0.0, 0.0, 0.0, 0.0, 0.0, 0.0], [0.0, 0.0, 0.0, 0.0, 0.0, 0.0, 0.0, 0.0, 0.0, 0.0, 0.0], [0.0, 0.0, 0.0, 0.0, 0.0, 0.0, 0.0, 0.0, 0.0, 0.0, 0.0]], "1": [[0.0, 0.0, 0.0, 0.0, 0.0, 0.0, 0.0, 0.0, 0.0], [0.0, 0.0, 0.0, 0.0, 0.0, 0.0, 0.0, 0.0, 0.0], [0.0, 0.0, 0.0, 0.0, 0.0, 0.0, 0.0, 0.0, 0.0], [0.0, 0.0, 0.0, 0.0, 0.0, 0.0, 0.0, 0.0, 0.0], [0.0, 0.0, 0.0, 0.0, 0.0, 0.0, 0.0, 0.0, 0.0], [0.0, 0.0, 0.0, 0.0, 0.0, 0.0, 0.0, 0.0, 0.0], [0.0, 0.0, 0.0, 0.0, 0.0, 0.0, 0.0, 0.0, 0.0], [0.0, 0.0, 0.0, 0.0, 0.0, 0.0, 0.0, 0.0, 0.0], [0.0, 0.0, 0.0, 0.0, 0.0, 0.0, 0.0, 0.0, 0.0], [0.0, 0.0, 0.0, 0.0, 0.0, 0.0, 0.0, 0.0, 0.0], [0.0, 0.0, 0.0, 0.0, 0.0, 0.0, 0.0, 0.0, 0.0]]}, "biases": {"0": -1.7381259859812321, "1": -1.1572695141465483}, "biasesblank": {"0": 0.0, "1": 0.0}}