{"layers": [9, 11, 9], "learning_rate": 0.01, "weights": {"0": [[1.7388741506089394, -0.3135186385871323, 0.8209086691859336, -1.8631719923427956, -0.4277699659769387, 0.4095662742670896, 2.9421509685887584, -1.4759751166686859, -4.272188885404426, 2.1802754267806335, 0.4989285821146275], [-0.6735472122983781, 2.339410358566218, 1.3363335768671378, -1.990866894151486, -1.4940823569276065, 5.575280312680933, -0.9514102672851693, 0.621480416743246, -0.7664831292119069, 1.3630411655068926, 0.9153055250443409], [3.7201843124799474, -1.3162215328257962, 1.606252879880293, -3.226296969606854, -1.6573690531144416, -1.8601351528230068, -4.526727220794781, 0.7545789196716797, 1.9092338650959801, -2.245784900065596, 2.4155410457676054], [2.2730283901380015, -0.9279349700737044, -6.606266619628423, 2.8050519943755736, -0.7026373672503493, 1.7094753285411268, 1.1810325792241851, -3.6477322330739956, -1.2095243640743658, 0.28245526657408276, -3.0739539105064093], [-4.541600806323138, -3.0404170278574854, -5.935357002476142, -0.7846281079785441, -1.8833125374756505, -2.890009018408651, -3.8227238085726305, 1.9057481196620534, 0.9753138892983108, -2.4659228057318234, 1.1738906518159515], [-0.0825880894205274, -1.8754418814709626, -1.9266804560225514, 4.23385352653642, 0.7075010293503174, -1.2863088068191626, 1.1170145539402663, -1.9048245644739914, -1.3614509489835995, 0.6563153228059262, -0.2465586636854656], [-0.19421504929638603, 4.537267384650292, 1.4664939068621596, 0.23831242561305285, -1.543878589861058, -0.6186777362988407, 5.689095563291681, 6.596110163906085, 0.7641025064676527, 1.1686450309757164, -3.42149708043772], [0.41822216492124625, -1.850739126785645, -0.6197815239678395, 2.0372117627349384, 3.6872478451954898, -1.4572220015148407, 0.22297460051984233, 0.009410807378546838, 1.4115477959287475, 0.721909575864879, -1.6451222588114696], [-1.2744234825062462, 3.3876425621440216, -6.02886551492397, -1.8382432990327293, 1.331242417756435, -1.1591983758010669, 1.4599507449392517, -3.8081279081566306, 0.2091026650401491, -1.8412402970442474, -0.5314737000646145]], "1": [[-0.981490062985786, 0.5847811838911973, -3.320244028112701, -3.2513097141624927, 2.49946519309967, -4.189156424353203, -0.35046286145223543, -2.3218565147750216, 6.242347456162796], [-1.953450657161346, -2.57469844913335, 0.8224261503296781, -1.6011809967065276, 0.7834616347997175, 3.593473462105447, -1.9139379732924782, 3.006595289706754, -8.225212432963822], [-2.15264088798296, 3.7754870503236417, -1.3034585875776517, 1.6630844436365233, 1.918802531725299, -7.3361525766892335, -1.9934542290882733, -2.3677168873416194, -9.71304822132174], [-1.3309045687427805, -1.4673086398270079, 6.213958373046852, -2.807700883471373, -1.625358563069748, -5.239689302477283, -1.8431163808545585, -1.8904852000114638, 0.9949188745171931], [-0.5477030553194382, 1.3121868188149706, 0.910716299373328, -1.874721591926815, 0.09844491753193521, -0.36926968148416867, 1.7561812370263739, -5.887483062867781, -0.4759500336121488], [1.3757735301948628, -6.581200762236679, 0.18506433941433717, -1.8382835224441059, 0.93577775353534, -2.085900592089248, -0.4573553567961993, 3.4016746214198363, 1.9924201570713198], [-1.6063936212355172, -2.407988566836077, -7.31296215377878, 0.2369896477343803, 7.474448428296956, -2.02989948876898, -0.8641531537108817, -0.5987440419056698, 0.3471684913177047], [1.0039969543530571, -0.6840937905609219, -0.11337417652001386, -0.6677083029967776, 6.929685841600291, -6.041543149405409, -2.8727625982904152, 1.2032529913566865, -3.37484687393903], [-5.402400360317219, 0.10609245339995908, 1.1304287478861503, -1.8156629371019843, -5.27376283798539, 0.8351863366341589, -0.9456551438855586, 2.9553780815866886, 1.8580875987503087], [-3.9614059433822906, -2.019449661883995, 4.224234840420098, -0.8206539131728249, 0.9364819271488166, -1.954036244082466, -0.2871050330391167, -2.069314393222631, 0.5721296539206882], [-0.4075945119694773, 2.8522635162276275, -2.8996078563775294, -3.1441888616780296, -5.1895825417297585, 1.480113346204349, -5.277865154535036, 0.3463540328601087, 1.04700583761863]]}, "weightsblank": {"0": [[0.0, 0.0, 0.0, 0.0, 0.0, 0.0, 0.0, 0.0, 0.0, 0.0, 0.0], [0.0, 0.0, 0.0, 0.0, 0.0, 0.0, 0.0, 0.0, 0.0, 0.0, 0.0], [0.0, 0.0, 0.0, 0.0, 0.0, 0.0, 0.0, 0.0, 0.0, 0.0, 0.0], [0.0, 0.0, 0.0, 0.0, 0.0, 0.0, 0.0, 0.0, 0.0, 0.0, 0.0], [0.0, 0.0, 0.0, 0.0, 0.0, 0.0, 0.0, 0.0, 0.0, 0.0, 0.0], [0.0, 0.0, 0.0, 0.0, 0.0, 0.0, 0.0, 0.0, 0.0, 0.0, 0.0], [0.0, 0.0, 0.0, 0.0, 0.0, 0.0, 0.0, 0.0, 0.0, 0.0, 0.0], [0.0, 0.0, 0.0, 0.0, 0.0, 0.0, 0.0, 0.0, 0.0, 0.0, 0.0], [0.0, 0.0, 0.0, 0.0, 0.0, 0.0, 0.0, 0.0, 0.0, 0.0, 0.0]], "1": [[0.0, 0.0, 0.0, 0.0, 0.0, 0.0, 0.0, 0.0, 0.0], [0.0, 0.0, 0.0, 0.0, 0.0, 0.0, 0.0, 0.0, 0.0], [0.0, 0.0, 0.0, 0.0, 0.0, 0.0, 0.0, 0.0, 0.0], [0.0, 0.0, 0.0, 0.0, 0.0, 0.0, 0.0, 0.0, 0.0], [0.0, 0.0, 0.0, 0.0, 0.0, 0.0, 0.0, 0.0, 0.0], [0.0, 0.0, 0.0, 0.0, 0.0, 0.0, 0.0, 0.0, 0.0], [0.0, 0.0, 0.0, 0.0, 0.0, 0.0, 0.0, 0.0, 0.0], [0.0, 0.0, 0.0, 0.0, 0.0, 0.0, 0.0, 0.0, 0.0], [0.0, 0.0, 0.0, 0.0, 0.0, 0.0, 0.0, 0.0, 0.0], [0.0, 0.0, 0.0, 0.0, 0.0, 0.0, 0.0, 0.0, 0.0], [0.0, 0.0, 0.0, 0.0, 0.0, 0.0, 0.0, 0.0, 0.0]]}, "biases": {"0": 1.0431484066722954, "1": -3.0571231669653343}, "biasesblank": {"0": 0.0, "1": 0.0}}