{"layers": [9, 11, 9], "learning_rate": 0.01, "weights": {"0": [[0.7827969213631529, -0.33894216808453764, -0.6047704767945467, 0.9998589868117425, -0.01916779975858993, 0.04379559079115385, 0.671687199444498, 0.24146169640103854, -0.018653391834091093, -0.7561224017172885, 0.6126957456658312], [3.0243425288583885, 0.13458765552296836, 0.6013412715223113, 0.7376984892344768, 0.4650510245521756, -1.768935410236828, 0.4170042147133895, 1.3831622744085799, 0.01821320666623452, 0.1393290749589113, 1.382257728705265], [0.012423920919466737, 0.1875316973814609, 0.36200515673142397, 1.2163258860307906, -0.023292180214430688, -0.5243365935121996, -0.1795436725177721, -0.029333431109314394, 0.5715493189646119, 0.792983081375027, 0.5252997619782446], [-0.92202104472987, -1.0115595071203964, -0.560619280605434, 0.9599979773997258, -0.34652871296447796, 0.3640119243367821, 0.01979109275522024, 0.5770125841718392, -0.4758813560006774, 0.28043169894171727, 0.1410512951338379], [-2.3951907596449833, 0.7469513600825846, 0.6897978963720167, -4.240180546374146, -0.7836400911923308, 0.13793308980846927, -0.06600618467154672, 2.0019921590747036, 0.8914528093625095, -0.19151311304947263, -0.2645101863446694], [-0.29025296225852054, 0.8104237813244953, -0.0972018122404377, -0.5765345480471994, -0.1479555934337427, -0.14718087798470364, 0.50404055933384, 0.20287288723806282, -0.47255980847452056, 1.6318643478223782, 0.10362829090037046], [0.6049660012191543, 0.05706849994728384, -0.47500903744806006, 1.1082770484505842, 0.14007654061744793, 0.6668635140897455, 2.472056891656483, -1.537984422817458, -1.3420204007947143, 0.29471067763830344, -0.14673203671818436], [-1.761616759697449, -1.2210765158253318, 0.6314813377434991, 1.757799608519575, -0.729087063245208, 2.2971600666161156, -0.6262251614071949, 0.25857746441327883, -0.3370035771271277, -0.6872025976160288, -1.2758072559113072], [0.3380129332083826, 1.8320357682794108, -1.7065506314241579, 0.2957369469739245, 1.0193215001543454, 0.012655523336386258, -0.14920902969168687, -1.2176512537715323, 0.5423529412692552, 1.2749953388213136, 1.174782252866416]], "1": [[-0.5473931517132211, -3.6739856914172866, 0.2627306748481954, -0.0369987521334473, 3.1629582818484305, -0.8175812148736074, 0.4756679298666699, 3.572069506734551, 0.43076052089212374], [-0.20135137536518566, -1.2102369856479287, -0.4709427437305086, 0.24754317523865038, -2.950237893626355, 0.18910624234975348, -0.15676549863673883, 6.39546222624758, -2.736782012772805], [-1.4711046126830678, 1.1208198649638257, -2.1027035721232945, -0.21285706239148305, 0.58495573066206, -1.7238411298462142, -1.6723885457497303, 0.42660447171374966, -0.4368179900783992], [0.25629365501982965, -1.215999874403139, -0.7890837269086535, 0.9710894961057773, 3.0714671117998704, 0.3527126696778397, 1.3396962920991051, 0.598786428463896, 0.9362298927803165], [-1.2179712376746887, -1.9299675370026772, -0.24729492366921552, -1.4696253144069744, -0.7549177103107105, -0.7457498260485116, 0.13608462515315178, 1.1447967567831516, -0.7624699450106861], [-0.6798428932073611, 2.9078695863832458, -1.0513207735740155, -0.30723973908452507, -1.6801204151556854, -0.8819654074411415, -0.3326318966518186, -1.2701794123530714, 0.8530665358485824], [-0.9268818693109192, -2.0247756889389894, -0.364873301495419, 0.4884014736142854, -1.8331816459679122, 0.15514551266845414, -2.888553985901763, 3.3488170725334805, 2.511745657270761], [-0.633254878835791, 2.591135903101294, -0.17464940443154062, -0.7733553138305128, 1.086964453334603, -0.9640562767726282, -2.286199462730662, 2.776964969505923, -2.9881407943885194], [-1.3631575006555865, 0.769975824825758, -2.200257806855715, -0.4302279431060656, -0.1002726434415616, -0.8157633696062855, -0.6337516068554405, 1.6847252235710424, -2.9016242939657024], [0.022451285555462677, -1.6091546585216878, -0.9039956378719598, -1.0690789856016176, -2.2145333003286423, -0.8190895298551052, 1.372687694069176, 2.4122588137873557, -0.678535446284055], [-1.0042645261458203, -2.4703606886084755, -0.9194728012084608, -0.20274885000319276, 0.4258481272189778, -0.9203655268205014, 0.16306515040221048, 4.114093846999447, -2.3078870321713283]]}, "weightsblank": {"0": [[0.0, 0.0, 0.0, 0.0, 0.0, 0.0, 0.0, 0.0, 0.0, 0.0, 0.0], [0.0, 0.0, 0.0, 0.0, 0.0, 0.0, 0.0, 0.0, 0.0, 0.0, 0.0], [0.0, 0.0, 0.0, 0.0, 0.0, 0.0, 0.0, 0.0, 0.0, 0.0, 0.0], [0.0, 0.0, 0.0, 0.0, 0.0, 0.0, 0.0, 0.0, 0.0, 0.0, 0.0], [0.0, 0.0, 0.0, 0.0, 0.0, 0.0, 0.0, 0.0, 0.0, 0.0, 0.0], [0.0, 0.0, 0.0, 0.0, 0.0, 0.0, 0.0, 0.0, 0.0, 0.0, 0.0], [0.0, 0.0, 0.0, 0.0, 0.0, 0.0, 0.0, 0.0, 0.0, 0.0, 0.0], [0.0, 0.0, 0.0, 0.0, 0.0, 0.0, 0.0, 0.0, 0.0, 0.0, 0.0], [0.0, 0.0, 0.0, 0.0, 0.0, 0.0, 0.0, 0.0, 0.0, 0.0, 0.0]], "1": [[0.0, 0.0, 0.0, 0.0, 0.0, 0.0, 0.0, 0.0, 0.0], [0.0, 0.0, 0.0, 0.0, 0.0, 0.0, 0.0, 0.0, 0.0], [0.0, 0.0, 0.0, 0.0, 0.0, 0.0, 0.0, 0.0, 0.0], [0.0, 0.0, 0.0, 0.0, 0.0, 0.0, 0.0, 0.0, 0.0], [0.0, 0.0, 0.0, 0.0, 0.0, 0.0, 0.0, 0.0, 0.0], [0.0, 0.0, 0.0, 0.0, 0.0, 0.0, 0.0, 0.0, 0.0], [0.0, 0.0, 0.0, 0.0, 0.0, 0.0, 0.0, 0.0, 0.0], [0.0, 0.0, 0.0, 0.0, 0.0, 0.0, 0.0, 0.0, 0.0], [0.0, 0.0, 0.0, 0.0, 0.0, 0.0, 0.0, 0.0, 0.0], [0.0, 0.0, 0.0, 0.0, 0.0, 0.0, 0.0, 0.0, 0.0], [0.0, 0.0, 0.0, 0.0, 0.0, 0.0, 0.0, 0.0, 0.0]]}, "biases": {"0": -6.97970242004733, "1": 230.81349376191875}, "biasesblank": {"0": 0.0, "1": 0.0}}