{"layers": [9, 11, 9], "learning_rate": 0.01, "weights": {"0": [[0.8224667590136352, -0.24438447032663682, -0.5833304748164363, 0.9313108197708814, -0.18268713423912447, 0.07847824448350872, 0.7921295877598614, 0.4119336454140441, 0.01244926765161247, -1.096152931278633, 0.8033516393029906], [2.254964360898934, -0.03375979744873583, 0.5825837886629756, 0.0984003150014525, 0.5388840454515149, -2.6414296191629996, 0.684478530046616, 1.3112085534469036, -0.01780142820390192, 0.2231335746735151, 1.4664338350586086], [-0.595623532498455, -0.6155696031472803, 0.2764499872271156, 0.8541094417139234, -0.3187299112343819, -0.8062468475647829, -0.5783602057335389, -0.2757741511620949, 0.48411285503462953, 0.5600371641870057, -0.10843151115363073], [-0.726157066019675, -0.5224744823172541, -0.6202073051640318, 0.6930971114499684, -0.14784266331966608, 0.39571540104661035, 1.2930188745872486, 0.45505851672706593, -0.5604875914265662, 0.6139762245425214, 0.8241061938709818], [-3.049445975265159, 1.1933378893000268, 0.8411879851600127, -3.2612885964470038, -1.2647517810988307, 0.6330218053486687, -0.7021084692979935, 2.753996430778529, 1.349196139434995, -0.8924660891859181, -0.37620095109885643], [-0.0614962955545974, 0.8031391853562556, -0.09579207442641913, 0.0813411629158579, -0.1077601242351768, 0.040724966028999415, 0.476966005411286, -0.1128904844523284, -0.5674594541495274, 1.643292880119369, 0.058616718493949574], [0.3844527914017878, -0.024437717517365617, -0.517390732225633, 0.9791370153370629, -0.06762546467519205, 0.3716939135015555, 3.196552879129514, -1.2957089149489003, -1.6317851609345935, 0.20559348163345578, -0.5560080630178441], [-0.38593154511116456, -3.5087228743889867, 0.2768436475837717, 1.5759943913663372, -0.3766124101426816, 1.8878215567111034, -1.4659808066159268, -0.2862643578767246, -0.5258823126579538, -0.5180460950657332, -2.0494917084766207], [0.07400515977972216, 1.9982611369161702, -1.732112058976955, 0.6322851419552445, 1.0075045968381287, -0.26463822848457297, -0.8162537180924999, -0.8651949822126785, 0.6622085070735939, 1.0394525596149926, 1.2687429789814093]], "1": [[-0.8289976582595617, -3.61680955949183, 0.08905032650455745, -0.78360677989141, 2.237872740776448, -1.172666828954024, 0.5797209870052186, 1.7751394480822955, 0.8239559949014076], [-0.163194888953457, -0.44957200783194795, -0.25698188002641215, -0.05108146841728035, -2.1969791248092925, 0.2276908472512561, 0.20482305242960963, 4.151955955552328, -2.3429822095001196], [-1.1360374739730796, 1.1996341739541223, -1.7781901710608483, -0.3967900437607918, 0.7747347705230917, -1.619810654386161, -0.994296625094761, -1.2298113904798469, 0.30445655640965463], [0.09353650872503741, -1.5583217731876589, -0.7669659935374686, 0.2546167013078192, 3.165595445223476, 0.10339259786455737, 1.4103914076969333, -0.7951901844855913, 1.195081575937457], [-1.049380226247811, -1.4041056666503389, 0.04660988171286644, -1.7773755943150362, -0.5521355490492748, -0.6757293276250896, 0.6563689217796541, -0.7324926442590007, 0.030576423099724553], [-0.6511344974595165, 2.9661116613911163, -0.7189666669409146, -0.7498978763103321, -1.3596646791635982, -0.9085612136213643, 0.04262511427779541, -2.4969228546781257, 1.156343096174575], [-0.7689832697548263, -1.7942077057840666, -0.21775744127265242, 0.09871851325843102, -1.5549207335116977, 0.12708558667870742, -2.446065317832976, 1.7368454656253076, 2.753392884838239], [-0.38913384437250476, 2.742897147143299, 0.15117919356899195, -0.9677851508843998, 1.6462470352510146, -0.9642299100588682, -1.758096435144175, 0.8840170193598855, -2.445333909219225], [-1.1329458889318818, 1.120750304741555, -1.8649589980886794, -0.6175714376030608, 0.5314019862905806, -0.7206801345958439, -0.0992043269030493, -0.25153716649144003, -2.175048724321474], [0.13465793778830648, -1.2696398322283444, -0.6093502308137103, -1.4666006582903186, -1.6138815246279443, -0.7931173544639903, 1.797700616602506, 0.18545578402295537, -0.07946211450743736], [-0.8889473246460667, -1.7811783092206293, -0.6842833300895843, -0.5062845887084285, 0.6947822227220201, -0.9220178873425126, 0.5166128912707941, 1.9012242193761097, -1.728363237917996]]}, "weightsblank": {"0": [[0.0, 0.0, 0.0, 0.0, 0.0, 0.0, 0.0, 0.0, 0.0, 0.0, 0.0], [0.0, 0.0, 0.0, 0.0, 0.0, 0.0, 0.0, 0.0, 0.0, 0.0, 0.0], [0.0, 0.0, 0.0, 0.0, 0.0, 0.0, 0.0, 0.0, 0.0, 0.0, 0.0], [0.0, 0.0, 0.0, 0.0, 0.0, 0.0, 0.0, 0.0, 0.0, 0.0, 0.0], [0.0, 0.0, 0.0, 0.0, 0.0, 0.0, 0.0, 0.0, 0.0, 0.0, 0.0], [0.0, 0.0, 0.0, 0.0, 0.0, 0.0, 0.0, 0.0, 0.0, 0.0, 0.0], [0.0, 0.0, 0.0, 0.0, 0.0, 0.0, 0.0, 0.0, 0.0, 0.0, 0.0], [0.0, 0.0, 0.0, 0.0, 0.0, 0.0, 0.0, 0.0, 0.0, 0.0, 0.0], [0.0, 0.0, 0.0, 0.0, 0.0, 0.0, 0.0, 0.0, 0.0, 0.0, 0.0]], "1": [[0.0, 0.0, 0.0, 0.0, 0.0, 0.0, 0.0, 0.0, 0.0], [0.0, 0.0, 0.0, 0.0, 0.0, 0.0, 0.0, 0.0, 0.0], [0.0, 0.0, 0.0, 0.0, 0.0, 0.0, 0.0, 0.0, 0.0], [0.0, 0.0, 0.0, 0.0, 0.0, 0.0, 0.0, 0.0, 0.0], [0.0, 0.0, 0.0, 0.0, 0.0, 0.0, 0.0, 0.0, 0.0], [0.0, 0.0, 0.0, 0.0, 0.0, 0.0, 0.0, 0.0, 0.0], [0.0, 0.0, 0.0, 0.0, 0.0, 0.0, 0.0, 0.0, 0.0], [0.0, 0.0, 0.0, 0.0, 0.0, 0.0, 0.0, 0.0, 0.0], [0.0, 0.0, 0.0, 0.0, 0.0, 0.0, 0.0, 0.0, 0.0], [0.0, 0.0, 0.0, 0.0, 0.0, 0.0, 0.0, 0.0, 0.0], [0.0, 0.0, 0.0, 0.0, 0.0, 0.0, 0.0, 0.0, 0.0]]}, "biases": {"0": 1.3374835746134377, "1": -2.9910388410715085}, "biasesblank": {"0": 0.0, "1": 0.0}}