{"layers": [9, 9, 9], "learning_rate": 0.01, "weights": {"0": [[-0.27676707883942464, 0.039078703322192876, -1.7323919723049375, 0.9184494161469684, -0.03289527190543838, -0.13839556209478582, 2.467204611708871, -1.0367647943307756, -0.03508830012503314], [-0.5653085727667483, -0.04875855080001422, -0.44024395225146773, 0.7612539538448495, -0.28125534836020766, -1.2695603863443656, 0.24800489952938365, -0.398033847042324, -0.004965816243796782], [-0.6749589267073616, -1.4322940051038058, 0.11636755136272811, 1.8672094777949286, -0.5721520299866328, -0.7973454570028052, -0.022384032336844776, -2.07088073098021, -1.0625513858687072], [0.5658155533624502, 5.200510891150231, -0.07441512592500367, -2.95033966338799, 0.1919045155176699, -1.2343649755235055, -0.3744082122377585, 2.1236167685478224, -1.0245014558888033], [4.482604057383777, -0.5998108968540674, -0.03560847676139764, -1.2693233675296192, -0.8393095853274918, -0.1718606306923729, 0.01906462016002897, 2.127420431568079, -1.307772503683218], [-1.4050297305429105, -0.6902636464742762, 4.2263481447573605, -0.7082599115277541, -1.523039279593824, 0.7676406325596611, -0.3364108134041266, 1.9893046058304562, -1.4163923761925292], [0.17563166134859853, 0.3861164049275167, -0.9694940311139247, -0.3443270397034528, 0.23689950696622175, 0.44749497892173606, -0.15486537478869708, -1.458741224461196, 1.3472240486107958], [0.2154767710907132, 0.22933951329862667, -0.08162928357968406, -0.2788668794399136, 0.05737417247580707, -1.1493770186287267, -0.49911651214692826, -1.0853952336431523, 0.1714397230801276], [-1.2193643266740732, -2.031779876401264, 0.18392905833107745, -1.0052380758736776, 0.41805988019038987, 2.676391300381381, 0.18885014239949516, -1.5542220446051271, 0.8944102239581092]], "1": [[-0.39657030717165465, 0.45394069043856033, 0.48364890593700116, 0.8842908975922144, -4.586440499970817, 1.3008853370171771, -0.8679382196695115, -1.5829023452101014, 0.024717883186893178], [-0.7865240121487834, -0.6819396245238799, 1.2411339717780088, -4.835865061530039, 1.3587660194635345, 1.1471389117131514, -0.7227701386238475, -1.6136340670064209, -0.22149859960237578], [-1.2071537490823645, -0.8054324598020085, 0.24067270997932716, 2.0238118910085325, 1.163557126329103, -3.963210533717705, 0.35207617840446, -1.0333604632470164, -0.5966458950344167], [1.5276083651501018, 1.0865342669180702, 0.026570764369806245, -2.8923894594044426, -2.407442852807793, -2.380350383571799, 0.6294358068141986, -1.5133616137572363, -1.7980097959688326], [-0.5609492463893969, -0.7522202371540828, -0.5994572921838337, -1.4782946651037965, -1.8360302391393715, -0.9435253726098409, -0.08162644549028085, 0.3244470846992536, 0.41595786252866085], [1.770525763111914, -0.481190158403806, 0.3174659792369429, -0.6386399995758129, -1.0310266531080294, -0.9147854379178237, 0.28422360031991806, 0.6319607786637951, -1.8174794147147295], [-2.2029101716220234, -0.1260613091474382, 0.7396862511004495, 0.3201868818537936, -0.4870541222583024, -0.9508253916159087, 0.09378563106920051, -0.2078247381174006, 1.0588901017923795], [-1.4855519955241367, -1.8082333449373769, -3.040703069312218, 1.1620283066079518, 1.2660448274243075, 2.1748059645870743, -2.0150900711379145, -0.7309081982308502, -1.792292132612712], [-1.3208260139998782, -0.8664754484643835, -0.7108245970965403, -2.1215031454803257, -1.5021433484624072, -0.36525910298993136, 0.26648563340095766, 1.3570532170077023, 1.8901723299811581]]}, "weightsblank": {"0": [[0.0, 0.0, 0.0, 0.0, 0.0, 0.0, 0.0, 0.0, 0.0], [0.0, 0.0, 0.0, 0.0, 0.0, 0.0, 0.0, 0.0, 0.0], [0.0, 0.0, 0.0, 0.0, 0.0, 0.0, 0.0, 0.0, 0.0], [0.0, 0.0, 0.0, 0.0, 0.0, 0.0, 0.0, 0.0, 0.0], [0.0, 0.0, 0.0, 0.0, 0.0, 0.0, 0.0, 0.0, 0.0], [0.0, 0.0, 0.0, 0.0, 0.0, 0.0, 0.0, 0.0, 0.0], [0.0, 0.0, 0.0, 0.0, 0.0, 0.0, 0.0, 0.0, 0.0], [0.0, 0.0, 0.0, 0.0, 0.0, 0.0, 0.0, 0.0, 0.0], [0.0, 0.0, 0.0, 0.0, 0.0, 0.0, 0.0, 0.0, 0.0]], "1": [[0.0, 0.0, 0.0, 0.0, 0.0, 0.0, 0.0, 0.0, 0.0], [0.0, 0.0, 0.0, 0.0, 0.0, 0.0, 0.0, 0.0, 0.0], [0.0, 0.0, 0.0, 0.0, 0.0, 0.0, 0.0, 0.0, 0.0], [0.0, 0.0, 0.0, 0.0, 0.0, 0.0, 0.0, 0.0, 0.0], [0.0, 0.0, 0.0, 0.0, 0.0, 0.0, 0.0, 0.0, 0.0], [0.0, 0.0, 0.0, 0.0, 0.0, 0.0, 0.0, 0.0, 0.0], [0.0, 0.0, 0.0, 0.0, 0.0, 0.0, 0.0, 0.0, 0.0], [0.0, 0.0, 0.0, 0.0, 0.0, 0.0, 0.0, 0.0, 0.0], [0.0, 0.0, 0.0, 0.0, 0.0, 0.0, 0.0, 0.0, 0.0]]}, "biases": {"0": -2.3346865061731696, "1": -1.692223572413234}, "biasesblank": {"0": 0.0, "1": 0.0}}