{"layers": [9, 11, 9], "learning_rate": 0.01, "weights": {"0": [[-1.0987800771468208, -1.3460467657845896, 0.3023290089798843, -1.2131165874252812, 0.6560992371242683, 0.38296483425172195, -0.07478786367055482, 0.7498062466647879, 0.21847616130716185, 1.277470568705741, 0.516456690784124], [-0.5925031776065709, 0.6756817325018167, 0.7961547014103685, -0.20299998725484852, 0.6222853115658614, 0.7125199230872066, 0.05230813634804879, 0.5921787774885116, 0.8753115384628036, -0.16883489049488684, 0.5078674572338723], [0.6538639133180301, 0.03949827308361146, 0.7184106196716297, -0.09357318041543287, 0.8764094716092541, 0.929745052974904, 0.4652207904993939, 0.2582415483158151, -0.3463510637522228, 0.2251722967235872, 0.6100110467520641], [0.4391396290317407, -0.08265885316520721, 0.7150204508409538, 0.2837014466244423, 1.531147560606771, 0.3188381855334642, -5.243912191391828, -4.852572284721009, 0.583906300217085, -0.3777118167678477, -0.2714656599234849], [0.46685627387335515, -0.2562325144481701, 0.2137754514181196, 6.254029904675474, -5.087745894337286, -0.2986691882534034, 2.1061699360807813, 1.912017744642581, 0.2049483986603571, -3.2522914761966, 2.831268988172404], [1.3894224603474843, -0.5910343114265768, 0.757640571863905, -0.638094168594834, 0.4938976697760647, -2.097310919167604, 1.1349234249386406, 0.8011627620552435, -2.253471818582321, -1.62980966537625, 1.2368114046927423], [-3.6651297454053497, 3.3070201393846577, -6.07090573651281, -0.7351079824999343, 1.0309633247155015, 0.5434608865439874, 1.6413382040168718, 0.9962500232177619, 0.8412197884661674, 1.504023644511258, -0.29671737311870483], [0.7957622038961258, 0.6430788910985795, 0.5230138519663107, -0.3182597736975894, 0.784846088535714, -0.06779222550035506, 0.29882680811531026, 0.5567373723303882, 0.5331088320475151, -0.2190041984238076, 0.15703500556305844], [2.1141260425643518, -0.05389883532231563, 0.7576180893507974, 0.1251047998373093, 0.7438132032040483, 0.5326807077796232, 0.40025826747382726, 0.4039332529919826, -0.08286716081420845, 0.38476825963773587, -0.06320380993254465]], "1": [[-0.8716929897121755, 0.5066716735794524, -0.42700188786459403, -4.485471708173119, -1.4397943537992284, 1.3131076353141204, 2.628460879883038, -0.6538891408383086, -0.7846531651793707], [3.6674236067103814, -0.3637990146208408, -1.0179789168512006, 0.6583507747886805, -1.8047231338049374, -2.448751931207611, 1.401602260492659, -0.2179365580741265, -0.3408020553290413], [-2.244133761552954, -1.1047809092584897, -1.8120854460632707, -4.193643710541508, -1.0104161992486196, -0.529316329807421, 8.27744140786508, -0.8369359863620666, -1.0333772714714033], [-3.454654270040971, 0.5303847847499141, -0.09808733059807988, -1.4973130698850403, 6.3194966239080825, 1.238566149725122, -1.5361589438347245, -0.8487576841269735, 0.10172687750350204], [0.32140293405678233, -1.5863064356221812, -1.9881864933073434, -0.1818476977416804, 4.26642520559636, -1.416371703373892, -2.3912086339554532, -1.5062679192910942, -1.2941274159479328], [1.0804781251680438, 0.130593925837104, -1.1055384099479122, -0.8144468983388508, -0.9870212529239633, 0.9777859538352666, -0.9159646363076019, 0.32011551332657767, -0.885957662842906], [-6.296348996979942, -1.216006668440721, -0.1418947160704804, 5.91592803317414, -3.5889489097661245, -0.741782177784149, 0.053431337006269945, -0.06653932730239352, 0.8959401358575598], [-3.4664475023649226, 0.14251907582850293, -0.006832593890392614, 4.780443608956489, -2.5056726851142366, -2.0110766042485966, 1.574082435237814, -0.14569093020879614, -1.1503213697843282], [1.0256306621001274, 0.13976154615737657, 0.026876070324208304, -0.25755661377797695, -2.331051819048498, 1.7918463490546415, -0.7281352135449309, 0.2690920494133419, -0.6219083595457264], [1.7191876377122515, -1.2593813320546725, -0.2696380204006556, -0.09250213939742054, 1.4214004886425928, -2.861084285442423, 0.7675228128647169, -1.2381872191755772, -0.7521346417754058], [-3.1283997198164033, -0.46419716504165176, -0.27175882927861816, -0.23014433254621636, 0.2852900232744116, -0.9951064882394028, -0.342889627184011, -1.3811583064603228, 0.0686632463355613]]}, "weightsblank": {"0": [[0.0, 0.0, 0.0, 0.0, 0.0, 0.0, 0.0, 0.0, 0.0, 0.0, 0.0], [0.0, 0.0, 0.0, 0.0, 0.0, 0.0, 0.0, 0.0, 0.0, 0.0, 0.0], [0.0, 0.0, 0.0, 0.0, 0.0, 0.0, 0.0, 0.0, 0.0, 0.0, 0.0], [0.0, 0.0, 0.0, 0.0, 0.0, 0.0, 0.0, 0.0, 0.0, 0.0, 0.0], [0.0, 0.0, 0.0, 0.0, 0.0, 0.0, 0.0, 0.0, 0.0, 0.0, 0.0], [0.0, 0.0, 0.0, 0.0, 0.0, 0.0, 0.0, 0.0, 0.0, 0.0, 0.0], [0.0, 0.0, 0.0, 0.0, 0.0, 0.0, 0.0, 0.0, 0.0, 0.0, 0.0], [0.0, 0.0, 0.0, 0.0, 0.0, 0.0, 0.0, 0.0, 0.0, 0.0, 0.0], [0.0, 0.0, 0.0, 0.0, 0.0, 0.0, 0.0, 0.0, 0.0, 0.0, 0.0]], "1": [[0.0, 0.0, 0.0, 0.0, 0.0, 0.0, 0.0, 0.0, 0.0], [0.0, 0.0, 0.0, 0.0, 0.0, 0.0, 0.0, 0.0, 0.0], [0.0, 0.0, 0.0, 0.0, 0.0, 0.0, 0.0, 0.0, 0.0], [0.0, 0.0, 0.0, 0.0, 0.0, 0.0, 0.0, 0.0, 0.0], [0.0, 0.0, 0.0, 0.0, 0.0, 0.0, 0.0, 0.0, 0.0], [0.0, 0.0, 0.0, 0.0, 0.0, 0.0, 0.0, 0.0, 0.0], [0.0, 0.0, 0.0, 0.0, 0.0, 0.0, 0.0, 0.0, 0.0], [0.0, 0.0, 0.0, 0.0, 0.0, 0.0, 0.0, 0.0, 0.0], [0.0, 0.0, 0.0, 0.0, 0.0, 0.0, 0.0, 0.0, 0.0], [0.0, 0.0, 0.0, 0.0, 0.0, 0.0, 0.0, 0.0, 0.0], [0.0, 0.0, 0.0, 0.0, 0.0, 0.0, 0.0, 0.0, 0.0]]}, "biases": {"0": 2.946504931065252, "1": -3.9120654073086647}, "biasesblank": {"0": 0.0, "1": 0.0}}