{"layers": [9, 11, 9], "learning_rate": 0.01, "weights": {"0": [[-1.1253807549370205, -1.3325470399468822, -0.567478439801766, -1.280057854263534, 0.4305514437866359, 0.3868896392439715, -1.1687137610136018, -0.4865298432845707, 0.20994119563311328, 1.0229092996561122, 0.41987313594727066], [-0.5894058901963253, 0.6440006256527698, 0.28918996857464624, -0.01555159530125309, 0.6479294554525656, 0.6929121705299921, -0.3399010319948399, 0.0645688554748641, 0.8763082681365133, -0.07396924750234395, 0.6206217252486314], [0.4585691419177989, 0.0501609716417708, 0.5932101146891203, -0.4067613982749007, 0.8159545666037045, 0.9260060949407792, -0.12721862295126732, -0.31636679358386166, -0.3515676337181968, 0.047592837051965396, 0.5145016678918161], [0.6742946909333064, -0.06233039121471249, 1.238831347599903, 0.17581176504921922, 1.7358636776468184, 0.29871232478473947, -3.637398309547031, -3.201557676291739, 0.5591020514217524, -0.13246373826576768, -0.1497579853697178], [-0.04672313114377765, -0.2585804338685594, 0.29528803739415954, 5.759553693248841, -4.874887869656051, -0.3233598646228332, 2.2252947336806104, 2.102797439331662, 0.19414938129759815, -2.988292484648648, 2.7171538923795886], [1.1159021538744867, -0.587567700897385, -0.5857292078443571, -0.8019593386032664, 0.42348642493003913, -2.107732920653055, 0.32371898670141225, 0.14275069521019837, -2.272557012400185, -1.6599690663212432, 1.1921902274065914], [-3.2461592964378267, 3.298444067105101, -5.163865047192587, -0.7303407630277563, 1.2163771476853178, 0.5184537000887185, 2.4279914786394374, 1.966616284329098, 0.823212045117484, 1.7822378290826921, -0.18230557878010778], [0.7176361553481378, 0.6466142863670589, 0.3191545900610394, -0.4738765998177184, 0.639949497817497, -0.05678696455339941, -0.4942880341629404, -0.19395373529441504, 0.5257656734355636, -0.4605280377431782, 0.11170323093058955], [1.4568144488869041, -0.07676417177630442, -1.1654648438421131, -0.5388851119509201, 0.6306568025122038, 0.5117811414843846, -0.3124942526554651, -0.25474142595826393, -0.10384817672816218, 0.1986876549486849, -0.22237927321615023]], "1": [[-1.4802168346038616, -0.1594464538604384, -1.2698817837895835, -3.638094371445099, -2.491323911205466, 3.5886759999864366, 3.381471175249375, -1.2479872013119824, 1.2065012861583757], [3.0214722444854885, -1.3672849604588289, -2.0045386381667107, 2.679341817721905, -3.267626143472247, -0.4487397933208423, 2.983349309056395, -0.7931929369855797, 1.4907920713420693], [-2.7899049498753783, -1.7732879116266855, -2.5165947344741295, -3.3906369684581925, -1.9809694428156888, 1.7138748712360294, 9.252367052103038, -1.5025622537059204, 0.9786557795257813], [-4.031390957529639, -0.47526758363541133, -1.0780410991834104, 0.4386699380179472, 4.856808753890061, 3.2101809768522767, -0.03589054839362027, -1.3825644122367764, 1.905542931182197], [-0.2947453842054775, -2.3421742000547097, -2.9092462415022315, 1.377510266228042, 2.80182523786543, 0.7581564573089615, -0.9014432631450773, -2.149683226363673, 0.6463865074015515], [0.4309569305383437, -0.857540007199326, -2.0885397161712356, 1.187687709179862, -2.4471102514099576, 2.9825899843713697, 0.6792718641981486, -0.27086514416011664, 0.943450105299043], [-6.8955105622049855, -2.2203253708283057, -1.09934025426837, 7.757414404277787, -4.912213316968174, 1.2951120595383803, 1.5491478500340194, -0.6414883104783566, 2.7500286691384264], [-4.061260367913186, -0.8255976715045678, -0.941518659523501, 6.547355879876134, -3.784253914721159, 0.044923573299262394, 3.049854407201972, -0.7149863153085003, 0.7086869372251637], [0.3749257403191883, -0.8637187326205348, -0.9582179902099961, 1.7592334594592214, -3.7935855493176818, 3.785492417616639, 0.8751407271178409, -0.30877327818713873, 1.2084193568600454], [1.072559577115574, -2.1868269402119624, -1.2267675604270827, 1.7988946888759285, -0.04150187770192324, -0.7619205291713945, 2.3541536407427874, -1.8500828075050408, 1.0815148239076093], [-3.760969352356652, -1.4736524421105717, -1.2510000881030474, 1.726542315903125, -1.1181535437294816, 0.9863464148593971, 1.2180797961189902, -1.9531925343683156, 1.9123896540665428]]}, "weightsblank": {"0": [[0.0, 0.0, 0.0, 0.0, 0.0, 0.0, 0.0, 0.0, 0.0, 0.0, 0.0], [0.0, 0.0, 0.0, 0.0, 0.0, 0.0, 0.0, 0.0, 0.0, 0.0, 0.0], [0.0, 0.0, 0.0, 0.0, 0.0, 0.0, 0.0, 0.0, 0.0, 0.0, 0.0], [0.0, 0.0, 0.0, 0.0, 0.0, 0.0, 0.0, 0.0, 0.0, 0.0, 0.0], [0.0, 0.0, 0.0, 0.0, 0.0, 0.0, 0.0, 0.0, 0.0, 0.0, 0.0], [0.0, 0.0, 0.0, 0.0, 0.0, 0.0, 0.0, 0.0, 0.0, 0.0, 0.0], [0.0, 0.0, 0.0, 0.0, 0.0, 0.0, 0.0, 0.0, 0.0, 0.0, 0.0], [0.0, 0.0, 0.0, 0.0, 0.0, 0.0, 0.0, 0.0, 0.0, 0.0, 0.0], [0.0, 0.0, 0.0, 0.0, 0.0, 0.0, 0.0, 0.0, 0.0, 0.0, 0.0]], "1": [[0.0, 0.0, 0.0, 0.0, 0.0, 0.0, 0.0, 0.0, 0.0], [0.0, 0.0, 0.0, 0.0, 0.0, 0.0, 0.0, 0.0, 0.0], [0.0, 0.0, 0.0, 0.0, 0.0, 0.0, 0.0, 0.0, 0.0], [0.0, 0.0, 0.0, 0.0, 0.0, 0.0, 0.0, 0.0, 0.0], [0.0, 0.0, 0.0, 0.0, 0.0, 0.0, 0.0, 0.0, 0.0], [0.0, 0.0, 0.0, 0.0, 0.0, 0.0, 0.0, 0.0, 0.0], [0.0, 0.0, 0.0, 0.0, 0.0, 0.0, 0.0, 0.0, 0.0], [0.0, 0.0, 0.0, 0.0, 0.0, 0.0, 0.0, 0.0, 0.0], [0.0, 0.0, 0.0, 0.0, 0.0, 0.0, 0.0, 0.0, 0.0], [0.0, 0.0, 0.0, 0.0, 0.0, 0.0, 0.0, 0.0, 0.0], [0.0, 0.0, 0.0, 0.0, 0.0, 0.0, 0.0, 0.0, 0.0]]}, "biases": {"0": 8.896843909581627, "1": -1.1399758527880648}, "biasesblank": {"0": 0.0, "1": 0.0}}