{"layers": [9, 11, 9], "learning_rate": 0.01, "weights": {"0": [[-0.8765954835091523, -1.0274587081187287, 0.684510039442369, -1.6781252531549022, 0.6172860855943524, 0.34315870950833954, 1.875006522922719, 1.3962838510232773, 0.13174842013465524, 1.1381853555262236, 1.0999152823372742], [-0.7003499747559097, 1.2146181730742498, 1.0226241829105682, -0.6958905203175791, -0.3389014889660514, 0.8302730967396812, 0.03327362270016748, 0.8125834193899065, 1.4099950421502832, -0.20487968134419068, 0.3649223677709048], [0.4972951757359899, 0.25981379477460403, 0.5174736922387939, 0.489228396316745, 0.5155161271269086, 0.8704162783823325, 0.7992187298075117, -0.18326717701591808, -0.6324310653974821, -0.3835561186587948, 0.8373054632884526], [1.9722780217990343, -0.20515477873695143, 1.0803410376413787, -0.21076829541385267, 0.7531401871017921, 1.2632783005925956, -3.028363142328502, -2.507775022532498, 1.302108641802377, -0.30050787140421864, -0.08405516370979398], [0.7287439230557068, -0.5529804373980421, 0.9325707247803937, 1.470520635093147, -2.695160269688794, -0.07705948638995448, 0.9185880950686884, 0.3534717928906758, 0.7585876525318803, -2.669716019827144, 1.0740037632692478], [-0.06347428663115401, -0.27490238634019604, -0.9185051733394166, 0.2373433606694679, 1.5032318551431612, -1.6995788301227555, 0.43317416866172226, 0.18655613879911245, -2.2074513692376465, -0.07732468258729228, 0.7862640935529371], [-1.4187751636407273, 2.9728202965144246, -3.894014812430384, 0.10620170126869127, 0.8592261197229247, 0.46748092120295537, -0.4686164356295649, 0.3003709392304408, 0.80113038564171, 0.9690569702915256, -0.5265070784249669], [0.8739547288380187, 1.2220781220743107, 0.1412125130746157, -0.6379104433806748, 0.4831059806306481, -0.43691947637970086, -0.14523094590888294, 0.5625070968691502, 0.516264778094314, -0.5271638960177274, -0.06326748572070406], [0.22848826525560978, -0.7480001306018166, -0.0017990273717512668, 0.7615818286689288, 1.0940464309344988, 0.07278538689522761, 0.06260121586642714, -0.31594359601799377, -0.5784681029243823, 0.49301199266192414, -0.13775646327093005]], "1": [[-0.01597711543523134, 0.059141871779594984, -1.201797404601748, -2.0067869896024417, 0.1568770417206304, 1.6691927259006794, 0.5701584732198615, -1.114721295004225, -1.0408564350157248], [3.7232884157896717, -0.5973418799300566, -1.0809220906552306, 0.4895649303286531, -1.8018043055892172, -2.1902157207361754, 0.20027485425722671, -0.060298225242296645, -0.04241513095778988], [-2.2969245723986167, -1.4436273094568959, -0.9440851936654916, -0.8900648189998839, 0.9074333182645236, 0.4141342307343608, 3.9554199891280195, -1.0542995605810825, -0.8296306424313592], [0.3815751962135027, 0.047138112535957725, -0.9094800567689845, 0.6722905136215611, 1.8340170136077714, 1.7130567842479194, -2.203133906461492, -1.2781469346465333, -0.17734650883332023], [0.677755709375869, -1.4137051354419077, -0.6763282423392701, -0.0043613779718058455, 2.4548022057074075, -2.289505937426549, -0.40930301389688584, -1.554604856603015, -1.4376018787187486], [0.8599757877352987, -0.17783642795991728, -1.1669107205599305, -1.2630826998368372, -0.7174325363293842, 0.9263766080876314, -0.027261024195260174, 0.3047660604162335, -0.8922082878907309], [-3.5447248820544903, -1.532802825429938, -0.5685045738103878, 3.908271331051879, -1.0112624489753332, -0.18313590938334368, -0.634436811526869, -0.024916361870809003, 0.8280522642627437], [-1.0104273699237036, -0.3555421678444227, -0.2966420161160352, 3.0334620736792752, -0.4181698893230469, -1.3059435995257676, 0.9894595606356806, -0.2092755048753668, -1.290099027172304], [0.9002395293339812, -0.23473910392544683, 0.1192631193744631, -0.8920589733505996, -2.376351596609161, 1.7350784274060944, 0.1788826706884907, 0.25874079452032417, -0.4319400910236657], [0.687668579664494, -1.28688368432742, -0.01900478405263796, 0.2148419411193047, 0.8075787027176546, -2.569880483653285, 1.1712055356502054, -1.1358838828534772, -1.2060653028724626], [-1.611995805086794, -0.9409427470048018, -0.556294538883431, -0.24618466517206855, 0.31438180033983026, -0.5510312209819949, -0.04702525848956551, -1.4646047104881061, -0.10652676020995572]]}, "weightsblank": {"0": [[0.0, 0.0, 0.0, 0.0, 0.0, 0.0, 0.0, 0.0, 0.0, 0.0, 0.0], [0.0, 0.0, 0.0, 0.0, 0.0, 0.0, 0.0, 0.0, 0.0, 0.0, 0.0], [0.0, 0.0, 0.0, 0.0, 0.0, 0.0, 0.0, 0.0, 0.0, 0.0, 0.0], [0.0, 0.0, 0.0, 0.0, 0.0, 0.0, 0.0, 0.0, 0.0, 0.0, 0.0], [0.0, 0.0, 0.0, 0.0, 0.0, 0.0, 0.0, 0.0, 0.0, 0.0, 0.0], [0.0, 0.0, 0.0, 0.0, 0.0, 0.0, 0.0, 0.0, 0.0, 0.0, 0.0], [0.0, 0.0, 0.0, 0.0, 0.0, 0.0, 0.0, 0.0, 0.0, 0.0, 0.0], [0.0, 0.0, 0.0, 0.0, 0.0, 0.0, 0.0, 0.0, 0.0, 0.0, 0.0], [0.0, 0.0, 0.0, 0.0, 0.0, 0.0, 0.0, 0.0, 0.0, 0.0, 0.0]], "1": [[0.0, 0.0, 0.0, 0.0, 0.0, 0.0, 0.0, 0.0, 0.0], [0.0, 0.0, 0.0, 0.0, 0.0, 0.0, 0.0, 0.0, 0.0], [0.0, 0.0, 0.0, 0.0, 0.0, 0.0, 0.0, 0.0, 0.0], [0.0, 0.0, 0.0, 0.0, 0.0, 0.0, 0.0, 0.0, 0.0], [0.0, 0.0, 0.0, 0.0, 0.0, 0.0, 0.0, 0.0, 0.0], [0.0, 0.0, 0.0, 0.0, 0.0, 0.0, 0.0, 0.0, 0.0], [0.0, 0.0, 0.0, 0.0, 0.0, 0.0, 0.0, 0.0, 0.0], [0.0, 0.0, 0.0, 0.0, 0.0, 0.0, 0.0, 0.0, 0.0], [0.0, 0.0, 0.0, 0.0, 0.0, 0.0, 0.0, 0.0, 0.0], [0.0, 0.0, 0.0, 0.0, 0.0, 0.0, 0.0, 0.0, 0.0], [0.0, 0.0, 0.0, 0.0, 0.0, 0.0, 0.0, 0.0, 0.0]]}, "biases": {"0": 1.4096907183188565, "1": -3.0559999110394305}, "biasesblank": {"0": 0.0, "1": 0.0}}