{"layers": [9, 13, 9, 9], "learning_rate": 0.01, "weights": {"0": [[-0.2362086768426528, 1.242071845692369, -0.5738030300256208, -0.63294189546536, -1.232224290843788, 0.21158184670573324, 1.0054735473735632, 0.8861683314569666, -0.26502103129265375, 0.9713586253282942, 1.2053880150735152, -0.10054729271172105, -0.7245030661567986], [-0.5922520126800616, -0.05913530704050271, -0.6629861579225489, 1.5703636768251399, 0.46890348502091095, 0.8467206540720185, -0.9521129625261703, 0.04142220630242637, 1.9180378692273379, 0.49842357202879833, -1.140546508303569, 1.0304738613066813, -0.17428425617285495], [0.790574333054982, -0.019122951260832535, 0.4745981705625955, -1.0157623453755589, 0.8870370976509081, -1.1863368524487152, 0.6011422012195609, 0.00635853403391851, -0.7370326642853638, 0.4381534851223207, -1.1964169369742428, 0.5726526354997435, 0.2926173382468917], [-0.22312148978594834, 0.23778701995762383, 0.15131879082210745, -0.5459036178348381, -0.6053268876670838, -0.10216370668395292, 0.41427074016721155, -0.5342429691263777, -0.2601812082706903, -0.6368190991741578, -0.7399903420101198, 0.14631257208208676, 0.801807537755198], [-0.1324047345822078, 0.519868972817153, -0.9718223313764734, -0.0401545527880013, -0.6730316272407524, 0.553577970566446, -0.5999850895007898, -0.4218743182011257, -0.16314565655149468, 0.6748402899308275, -0.9709610206587024, -0.9290825616957151, -0.008634122765645673], [0.892779399492238, -0.8940690721331515, 0.7287924657936614, -0.8743125765104522, 0.4706741718707437, 0.8953708943001873, 0.5098484278860226, -0.08143497434844388, 0.2548071706100368, -0.3445900998789259, 0.44705428843334516, 1.0192569197940706, 0.6973266129291588], [0.1529112456945838, 0.5585003636448609, 0.2497679649890146, -0.02519502550911578, 0.23614789982245213, -0.5268484211858201, 0.7657934924438078, -0.6129608683413582, -0.04515845357273027, -0.7288662628286519, 0.17065319626435485, -0.5283608076565667, 0.655297005578979], [1.1184882938294356, 0.8714498033598913, 0.3356378518744207, -0.6424213353125698, -0.6425303858354263, 0.10909601232758777, -0.051326224560330716, -0.3880894703276536, -0.7101426350671343, 0.5630981543429673, 0.7345152902225728, 0.3032317480861018, -0.35213160573624497], [-0.4021769398861693, 0.9984115302217966, 0.31761362096921353, 0.6902370941363908, -0.4933147074025574, 0.26892353361312077, 0.05024317104515651, -0.9077172226457062, 0.3544448388674939, -0.7608959477058987, -0.6303553862837247, -0.7361035787911546, -0.8932625352241281]], "1": [[0.664293116972767, -0.12540616788669587, 1.322350820548933, -0.8026893986733915, 0.4474109444845023, -0.19078770903968856, -0.06349648801460124, 0.8370454384157939, 0.29908733850148156], [-0.0321160887266125, -1.1897077104534466, -0.5707716705751572, 0.25010222413410876, -0.24145737653662888, -0.8566249041656016, -0.19167880436161658, -0.6034644097974852, -0.5153966269114155], [-0.3687117438793904, -0.17359874807541226, -0.0633093795169017, -0.07188598300768394, -0.9103652583059856, 0.16130971583062204, 0.6145625570181045, -0.7855002012223775, -0.3072097134527456], [-0.9667152723789988, 1.2824346158599729, -0.21585383297981733, 1.0601485930293635, 0.5514199276031942, 0.32823500867206523, 0.15913548007158476, -0.794071246613245, -0.4031424730994235], [0.0007700403809943433, 0.5955110884822139, 0.43938743306702255, 0.16327654198801492, 0.38384160218542174, 0.9817427540197216, -0.27488727660320184, -1.2312929730974804, 0.9879804267221035], [-0.9604518379092875, -0.33487654805976447, -1.2252068059809693, 1.033814246877307, 0.18230467809540907, 0.917559473723157, 0.3571934571396655, -0.7574904105583806, -0.7062050484998862], [0.8532539674713834, -1.3562361067353104, -0.4653043527342887, -0.4719987579094976, 0.8995788268811759, 0.5446554771837376, 0.6553551693862356, -0.27191430396372573, -0.2739291272365388], [0.017069182440123017, -0.65758258569924, -0.9992746329764649, -0.3848270856156867, -0.38481319614533716, 0.4995335398748076, -0.09450865031310929, -0.04673103193468576, -0.5026836217759421], [-1.693227441069711, 1.4931794323744558, -1.3172526124273356, 0.031622055570745426, 0.7440418498672194, -0.1372206028372578, -0.9232423067193092, 0.36886451513316515, -0.651857056686823], [0.45562930144329833, -1.004307931968015, -0.34904890179812825, 0.5097005774292663, 0.3109244337892397, -0.600573601674725, -0.9625067471878198, 0.023052068442885383, -0.394586094926166], [-0.49369238814863986, -1.9408841916916006, 0.39226020424520225, -0.18197599060191574, -0.07100422896755952, 0.3616841528256014, 0.9734809512203498, 0.2539747593481751, -0.7910637226097248], [-0.9125425124074417, 0.6771608458780498, 0.25900394856257647, -0.18108843816895187, 0.34410157970773075, -0.8367566907606216, 0.020162149824062767, -0.9676232864209535, 0.7020970255643632], [-0.45578640683282445, 0.34702514102702836, 0.7640801371981398, -0.32823859659176924, -0.03747786032513025, -0.2432492745440918, -0.07372342345812306, 0.6863654199910028, 0.3339515244261682]], "2": [[-0.474095181570906, 2.0543499490478605, -1.1694721759463873, 0.26082005943798775, -0.2675854509855366, -0.3274392968668888, -0.5021610598595972, -0.35973955134126645, 0.4983831391210782], [2.181333547639153, -2.3925119465417755, -0.44400268805784365, -1.0116656922882292, -0.9146489116231563, 0.13160841296843998, -0.35423676081701005, 0.9617533292827901, -0.39424642169151536], [0.99422574276262, 0.8933040643424954, -1.1142733056606446, 0.2590437540667013, 0.7603554789379107, -1.038419826001583, -0.9348116828417256, -1.170259017097961, -1.0677995444102988], [-0.6016681966572863, 0.47303731371514834, 0.8225546309376984, -1.1213688539382343, 0.5078850635524146, 0.35156784436150224, 0.09041511547321478, 0.02768683462713167, -0.6580121842597385], [0.3139045523248441, -0.8373530434507094, 0.5721562317283315, -0.5984845935416254, -0.18600635672168592, -0.1685949662383137, -1.6130517032565534, 0.5695405172674043, -0.6134324734952764], [0.5217047878620493, -0.16817751528851593, 0.6137459402203992, -1.2903113175193954, 0.12572326517208857, -1.2151398357292624, -0.457138943383108, 0.5576079752955783, -0.2888436889791287], [-0.8271117816517732, 1.2464393454524205, 0.7214944984824873, -1.283389628724652, 0.009713598414627732, -0.6035660446662313, -0.6186853501640794, -0.4332228065328099, -1.2031873147830674], [-0.6392684037220695, 1.0420188975368625, 0.7060447361695821, -0.021878313438651466, 0.05588033723197746, -1.1314260288878257, 0.026350765017191698, 0.48720083401271236, 0.41658506500975917], [1.007181277228249, 0.2513212357378529, -0.5745401278228445, -0.5788653383690864, -0.5745139506525593, -0.7485628766008255, -1.1436873953839637, -0.22948233706595983, 0.14809637491785219]]}, "weightsblank": {"0": [[0.0, 0.0, 0.0, 0.0, 0.0, 0.0, 0.0, 0.0, 0.0, 0.0, 0.0, 0.0, 0.0], [0.0, 0.0, 0.0, 0.0, 0.0, 0.0, 0.0, 0.0, 0.0, 0.0, 0.0, 0.0, 0.0], [0.0, 0.0, 0.0, 0.0, 0.0, 0.0, 0.0, 0.0, 0.0, 0.0, 0.0, 0.0, 0.0], [0.0, 0.0, 0.0, 0.0, 0.0, 0.0, 0.0, 0.0, 0.0, 0.0, 0.0, 0.0, 0.0], [0.0, 0.0, 0.0, 0.0, 0.0, 0.0, 0.0, 0.0, 0.0, 0.0, 0.0, 0.0, 0.0], [0.0, 0.0, 0.0, 0.0, 0.0, 0.0, 0.0, 0.0, 0.0, 0.0, 0.0, 0.0, 0.0], [0.0, 0.0, 0.0, 0.0, 0.0, 0.0, 0.0, 0.0, 0.0, 0.0, 0.0, 0.0, 0.0], [0.0, 0.0, 0.0, 0.0, 0.0, 0.0, 0.0, 0.0, 0.0, 0.0, 0.0, 0.0, 0.0], [0.0, 0.0, 0.0, 0.0, 0.0, 0.0, 0.0, 0.0, 0.0, 0.0, 0.0, 0.0, 0.0]], "1": [[0.0, 0.0, 0.0, 0.0, 0.0, 0.0, 0.0, 0.0, 0.0], [0.0, 0.0, 0.0, 0.0, 0.0, 0.0, 0.0, 0.0, 0.0], [0.0, 0.0, 0.0, 0.0, 0.0, 0.0, 0.0, 0.0, 0.0], [0.0, 0.0, 0.0, 0.0, 0.0, 0.0, 0.0, 0.0, 0.0], [0.0, 0.0, 0.0, 0.0, 0.0, 0.0, 0.0, 0.0, 0.0], [0.0, 0.0, 0.0, 0.0, 0.0, 0.0, 0.0, 0.0, 0.0], [0.0, 0.0, 0.0, 0.0, 0.0, 0.0, 0.0, 0.0, 0.0], [0.0, 0.0, 0.0, 0.0, 0.0, 0.0, 0.0, 0.0, 0.0], [0.0, 0.0, 0.0, 0.0, 0.0, 0.0, 0.0, 0.0, 0.0], [0.0, 0.0, 0.0, 0.0, 0.0, 0.0, 0.0, 0.0, 0.0], [0.0, 0.0, 0.0, 0.0, 0.0, 0.0, 0.0, 0.0, 0.0], [0.0, 0.0, 0.0, 0.0, 0.0, 0.0, 0.0, 0.0, 0.0], [0.0, 0.0, 0.0, 0.0, 0.0, 0.0, 0.0, 0.0, 0.0]], "2": [[0.0, 0.0, 0.0, 0.0, 0.0, 0.0, 0.0, 0.0, 0.0], [0.0, 0.0, 0.0, 0.0, 0.0, 0.0, 0.0, 0.0, 0.0], [0.0, 0.0, 0.0, 0.0, 0.0, 0.0, 0.0, 0.0, 0.0], [0.0, 0.0, 0.0, 0.0, 0.0, 0.0, 0.0, 0.0, 0.0], [0.0, 0.0, 0.0, 0.0, 0.0, 0.0, 0.0, 0.0, 0.0], [0.0, 0.0, 0.0, 0.0, 0.0, 0.0, 0.0, 0.0, 0.0], [0.0, 0.0, 0.0, 0.0, 0.0, 0.0, 0.0, 0.0, 0.0], [0.0, 0.0, 0.0, 0.0, 0.0, 0.0, 0.0, 0.0, 0.0], [0.0, 0.0, 0.0, 0.0, 0.0, 0.0, 0.0, 0.0, 0.0]]}, "biases": {"0": 0.034766074865419806, "1": 1.5134077710307505, "2": -2.3484392871966646}, "biasesblank": {"0": 0.0, "1": 0.0, "2": 0.0}}